digraph Tree {
node [shape=box, fontname="helvetica"] ;
edge [fontname="helvetica"] ;
0 [label="x[568] <= 0.5\ngini = 0.9\nsamples = 37975\nvalue = [5994, 6864, 5897, 6113, 5796, 5289, 5894, 6246, 5886\n6021]\nclass = 1"] ;
1 [label="x[409] <= 0.5\ngini = 0.874\nsamples = 23462\nvalue = [763, 5799, 1247, 3224, 5567, 2247, 3495, 6027, 2731\n5863]\nclass = 7"] ;
0 -> 1 [labeldistance=2.5, labelangle=45, headlabel="True"] ;
2 [label="x[295] <= 91.5\ngini = 0.74\nsamples = 7084\nvalue = [590, 5269, 513, 784, 334, 1059, 757, 595, 970, 243]\nclass = 1"] ;
1 -> 2 ;
3 [label="x[431] <= 0.5\ngini = 0.874\nsamples = 2676\nvalue = [465, 683, 211, 312, 236, 728, 588, 194, 612, 142]\nclass = 5"] ;
2 -> 3 ;
4 [label="x[490] <= 2.5\ngini = 0.829\nsamples = 1304\nvalue = [320, 665, 100, 96, 74, 188, 115, 171, 217, 76]\nclass = 1"] ;
3 -> 4 ;
5 [label="x[484] <= 84.5\ngini = 0.767\nsamples = 487\nvalue = [312, 20, 26, 65, 5, 132, 25, 106, 46, 23]\nclass = 0"] ;
4 -> 5 ;
6 [label="x[654] <= 0.5\ngini = 0.823\nsamples = 367\nvalue = [158, 20, 22, 65, 4, 123, 17, 102, 46, 17]\nclass = 0"] ;
5 -> 6 ;
7 [label="x[154] <= 7.5\ngini = 0.81\nsamples = 155\nvalue = [40, 11, 7, 24, 2, 27, 17, 92, 24, 13]\nclass = 7"] ;
6 -> 7 ;
8 [label="x[259] <= 3.5\ngini = 0.679\nsamples = 104\nvalue = [10, 10, 4, 17, 2, 15, 9, 92, 2, 10]\nclass = 7"] ;
7 -> 8 ;
9 [label="x[514] <= 12.0\ngini = 0.815\nsamples = 50\nvalue = [6, 10, 3, 13, 0, 13, 9, 27, 0, 3]\nclass = 7"] ;
8 -> 9 ;
10 [label="x[378] <= 2.0\ngini = 0.706\nsamples = 35\nvalue = [3, 5, 0, 13, 0, 7, 0, 27, 0, 3]\nclass = 7"] ;
9 -> 10 ;
11 [label="x[133] <= 64.0\ngini = 0.354\nsamples = 18\nvalue = [3, 0, 0, 1, 0, 2, 0, 23, 0, 0]\nclass = 7"] ;
10 -> 11 ;
12 [label="x[414] <= 240.5\ngini = 0.266\nsamples = 16\nvalue = [1, 0, 0, 1, 0, 2, 0, 23, 0, 0]\nclass = 7"] ;
11 -> 12 ;
13 [label="x[440] <= 142.0\ngini = 0.15\nsamples = 14\nvalue = [0, 0, 0, 1, 0, 1, 0, 23, 0, 0]\nclass = 7"] ;
12 -> 13 ;
14 [label="x[546] <= 151.5\ngini = 0.08\nsamples = 13\nvalue = [0, 0, 0, 0, 0, 1, 0, 23, 0, 0]\nclass = 7"] ;
13 -> 14 ;
15 [label="gini = 0.0\nsamples = 12\nvalue = [0, 0, 0, 0, 0, 0, 0, 23, 0, 0]\nclass = 7"] ;
14 -> 15 ;
16 [label="gini = 0.0\nsamples = 1\nvalue = [0, 0, 0, 0, 0, 1, 0, 0, 0, 0]\nclass = 5"] ;
14 -> 16 ;
17 [label="gini = 0.0\nsamples = 1\nvalue = [0, 0, 0, 1, 0, 0, 0, 0, 0, 0]\nclass = 3"] ;
13 -> 17 ;
18 [label="x[348] <= 127.5\ngini = 0.5\nsamples = 2\nvalue = [1, 0, 0, 0, 0, 1, 0, 0, 0, 0]\nclass = 0"] ;
12 -> 18 ;
19 [label="gini = 0.0\nsamples = 1\nvalue = [1, 0, 0, 0, 0, 0, 0, 0, 0, 0]\nclass = 0"] ;
18 -> 19 ;
20 [label="gini = 0.0\nsamples = 1\nvalue = [0, 0, 0, 0, 0, 1, 0, 0, 0, 0]\nclass = 5"] ;
18 -> 20 ;
21 [label="gini = 0.0\nsamples = 2\nvalue = [2, 0, 0, 0, 0, 0, 0, 0, 0, 0]\nclass = 0"] ;
11 -> 21 ;
22 [label="x[315] <= 8.5\ngini = 0.74\nsamples = 17\nvalue = [0, 5, 0, 12, 0, 5, 0, 4, 0, 3]\nclass = 3"] ;
10 -> 22 ;
23 [label="x[266] <= 27.0\ngini = 0.521\nsamples = 12\nvalue = [0, 5, 0, 12, 0, 2, 0, 0, 0, 0]\nclass = 3"] ;
22 -> 23 ;
24 [label="x[104] <= 42.5\ngini = 0.165\nsamples = 6\nvalue = [0, 0, 0, 10, 0, 1, 0, 0, 0, 0]\nclass = 3"] ;
23 -> 24 ;
25 [label="gini = 0.0\nsamples = 5\nvalue = [0, 0, 0, 10, 0, 0, 0, 0, 0, 0]\nclass = 3"] ;
24 -> 25 ;
26 [label="gini = 0.0\nsamples = 1\nvalue = [0, 0, 0, 0, 0, 1, 0, 0, 0, 0]\nclass = 5"] ;
24 -> 26 ;
27 [label="x[491] <= 241.5\ngini = 0.531\nsamples = 6\nvalue = [0, 5, 0, 2, 0, 1, 0, 0, 0, 0]\nclass = 1"] ;
23 -> 27 ;
28 [label="x[189] <= 31.5\ngini = 0.444\nsamples = 3\nvalue = [0, 0, 0, 2, 0, 1, 0, 0, 0, 0]\nclass = 3"] ;
27 -> 28 ;
29 [label="gini = 0.0\nsamples = 2\nvalue = [0, 0, 0, 2, 0, 0, 0, 0, 0, 0]\nclass = 3"] ;
28 -> 29 ;
30 [label="gini = 0.0\nsamples = 1\nvalue = [0, 0, 0, 0, 0, 1, 0, 0, 0, 0]\nclass = 5"] ;
28 -> 30 ;
31 [label="gini = 0.0\nsamples = 3\nvalue = [0, 5, 0, 0, 0, 0, 0, 0, 0, 0]\nclass = 1"] ;
27 -> 31 ;
32 [label="x[262] <= 41.0\ngini = 0.66\nsamples = 5\nvalue = [0, 0, 0, 0, 0, 3, 0, 4, 0, 3]\nclass = 7"] ;
22 -> 32 ;
33 [label="gini = 0.0\nsamples = 3\nvalue = [0, 0, 0, 0, 0, 0, 0, 4, 0, 0]\nclass = 7"] ;
32 -> 33 ;
34 [label="x[342] <= 70.5\ngini = 0.5\nsamples = 2\nvalue = [0, 0, 0, 0, 0, 3, 0, 0, 0, 3]\nclass = 5"] ;
32 -> 34 ;
35 [label="gini = 0.0\nsamples = 1\nvalue = [0, 0, 0, 0, 0, 3, 0, 0, 0, 0]\nclass = 5"] ;
34 -> 35 ;
36 [label="gini = 0.0\nsamples = 1\nvalue = [0, 0, 0, 0, 0, 0, 0, 0, 0, 3]\nclass = 9"] ;
34 -> 36 ;
37 [label="x[497] <= 140.0\ngini = 0.763\nsamples = 15\nvalue = [3, 5, 3, 0, 0, 6, 9, 0, 0, 0]\nclass = 6"] ;
9 -> 37 ;
38 [label="x[652] <= 125.0\ngini = 0.753\nsamples = 10\nvalue = [3, 5, 3, 0, 0, 6, 1, 0, 0, 0]\nclass = 5"] ;
37 -> 38 ;
39 [label="x[461] <= 96.5\ngini = 0.675\nsamples = 7\nvalue = [3, 0, 3, 0, 0, 6, 1, 0, 0, 0]\nclass = 5"] ;
38 -> 39 ;
40 [label="x[689] <= 19.5\ngini = 0.54\nsamples = 5\nvalue = [3, 0, 0, 0, 0, 6, 1, 0, 0, 0]\nclass = 5"] ;
39 -> 40 ;
41 [label="x[290] <= 82.5\ngini = 0.245\nsamples = 3\nvalue = [0, 0, 0, 0, 0, 6, 1, 0, 0, 0]\nclass = 5"] ;
40 -> 41 ;
42 [label="gini = 0.0\nsamples = 1\nvalue = [0, 0, 0, 0, 0, 0, 1, 0, 0, 0]\nclass = 6"] ;
41 -> 42 ;
43 [label="gini = 0.0\nsamples = 2\nvalue = [0, 0, 0, 0, 0, 6, 0, 0, 0, 0]\nclass = 5"] ;
41 -> 43 ;
44 [label="gini = 0.0\nsamples = 2\nvalue = [3, 0, 0, 0, 0, 0, 0, 0, 0, 0]\nclass = 0"] ;
40 -> 44 ;
45 [label="gini = 0.0\nsamples = 2\nvalue = [0, 0, 3, 0, 0, 0, 0, 0, 0, 0]\nclass = 2"] ;
39 -> 45 ;
46 [label="gini = 0.0\nsamples = 3\nvalue = [0, 5, 0, 0, 0, 0, 0, 0, 0, 0]\nclass = 1"] ;
38 -> 46 ;
47 [label="gini = 0.0\nsamples = 5\nvalue = [0, 0, 0, 0, 0, 0, 8, 0, 0, 0]\nclass = 6"] ;
37 -> 47 ;
48 [label="x[377] <= 23.5\ngini = 0.429\nsamples = 54\nvalue = [4, 0, 1, 4, 2, 2, 0, 65, 2, 7]\nclass = 7"] ;
8 -> 48 ;
49 [label="x[567] <= 8.5\ngini = 0.165\nsamples = 42\nvalue = [4, 0, 0, 0, 0, 1, 0, 62, 0, 1]\nclass = 7"] ;
48 -> 49 ;
50 [label="x[353] <= 254.5\ngini = 0.061\nsamples = 40\nvalue = [0, 0, 0, 0, 0, 1, 0, 62, 0, 1]\nclass = 7"] ;
49 -> 50 ;
51 [label="x[719] <= 253.5\ngini = 0.031\nsamples = 39\nvalue = [0, 0, 0, 0, 0, 0, 0, 62, 0, 1]\nclass = 7"] ;
50 -> 51 ;
52 [label="gini = 0.0\nsamples = 38\nvalue = [0, 0, 0, 0, 0, 0, 0, 62, 0, 0]\nclass = 7"] ;
51 -> 52 ;
53 [label="gini = 0.0\nsamples = 1\nvalue = [0, 0, 0, 0, 0, 0, 0, 0, 0, 1]\nclass = 9"] ;
51 -> 53 ;
54 [label="gini = 0.0\nsamples = 1\nvalue = [0, 0, 0, 0, 0, 1, 0, 0, 0, 0]\nclass = 5"] ;
50 -> 54 ;
55 [label="gini = 0.0\nsamples = 2\nvalue = [4, 0, 0, 0, 0, 0, 0, 0, 0, 0]\nclass = 0"] ;
49 -> 55 ;
56 [label="x[326] <= 85.5\ngini = 0.803\nsamples = 12\nvalue = [0, 0, 1, 4, 2, 1, 0, 3, 2, 6]\nclass = 9"] ;
48 -> 56 ;
57 [label="x[683] <= 24.5\ngini = 0.691\nsamples = 5\nvalue = [0, 0, 1, 4, 2, 0, 0, 0, 2, 0]\nclass = 3"] ;
56 -> 57 ;
58 [label="x[286] <= 128.0\ngini = 0.64\nsamples = 3\nvalue = [0, 0, 1, 0, 2, 0, 0, 0, 2, 0]\nclass = 4"] ;
57 -> 58 ;
59 [label="x[465] <= 120.5\ngini = 0.444\nsamples = 2\nvalue = [0, 0, 1, 0, 2, 0, 0, 0, 0, 0]\nclass = 4"] ;
58 -> 59 ;
60 [label="gini = 0.0\nsamples = 1\nvalue = [0, 0, 1, 0, 0, 0, 0, 0, 0, 0]\nclass = 2"] ;
59 -> 60 ;
61 [label="gini = 0.0\nsamples = 1\nvalue = [0, 0, 0, 0, 2, 0, 0, 0, 0, 0]\nclass = 4"] ;
59 -> 61 ;
62 [label="gini = 0.0\nsamples = 1\nvalue = [0, 0, 0, 0, 0, 0, 0, 0, 2, 0]\nclass = 8"] ;
58 -> 62 ;
63 [label="gini = 0.0\nsamples = 2\nvalue = [0, 0, 0, 4, 0, 0, 0, 0, 0, 0]\nclass = 3"] ;
57 -> 63 ;
64 [label="x[657] <= 118.5\ngini = 0.54\nsamples = 7\nvalue = [0, 0, 0, 0, 0, 1, 0, 3, 0, 6]\nclass = 9"] ;
56 -> 64 ;
65 [label="x[257] <= 33.5\ngini = 0.375\nsamples = 4\nvalue = [0, 0, 0, 0, 0, 1, 0, 3, 0, 0]\nclass = 7"] ;
64 -> 65 ;
66 [label="gini = 0.0\nsamples = 1\nvalue = [0, 0, 0, 0, 0, 1, 0, 0, 0, 0]\nclass = 5"] ;
65 -> 66 ;
67 [label="gini = 0.0\nsamples = 3\nvalue = [0, 0, 0, 0, 0, 0, 0, 3, 0, 0]\nclass = 7"] ;
65 -> 67 ;
68 [label="gini = 0.0\nsamples = 3\nvalue = [0, 0, 0, 0, 0, 0, 0, 0, 0, 6]\nclass = 9"] ;
64 -> 68 ;
69 [label="x[380] <= 2.0\ngini = 0.776\nsamples = 51\nvalue = [30, 1, 3, 7, 0, 12, 8, 0, 22, 3]\nclass = 0"] ;
7 -> 69 ;
70 [label="x[374] <= 40.5\ngini = 0.624\nsamples = 29\nvalue = [30, 1, 3, 4, 0, 11, 3, 0, 1, 0]\nclass = 0"] ;
69 -> 70 ;
71 [label="x[411] <= 177.0\ngini = 0.673\nsamples = 9\nvalue = [0, 1, 3, 2, 0, 7, 0, 0, 1, 0]\nclass = 5"] ;
70 -> 71 ;
72 [label="x[631] <= 253.5\ngini = 0.545\nsamples = 7\nvalue = [0, 1, 0, 2, 0, 7, 0, 0, 1, 0]\nclass = 5"] ;
71 -> 72 ;
73 [label="x[347] <= 14.5\ngini = 0.72\nsamples = 5\nvalue = [0, 1, 0, 2, 0, 1, 0, 0, 1, 0]\nclass = 3"] ;
72 -> 73 ;
74 [label="x[321] <= 95.5\ngini = 0.667\nsamples = 3\nvalue = [0, 1, 0, 0, 0, 1, 0, 0, 1, 0]\nclass = 1"] ;
73 -> 74 ;
75 [label="gini = 0.0\nsamples = 1\nvalue = [0, 1, 0, 0, 0, 0, 0, 0, 0, 0]\nclass = 1"] ;
74 -> 75 ;
76 [label="x[208] <= 173.0\ngini = 0.5\nsamples = 2\nvalue = [0, 0, 0, 0, 0, 1, 0, 0, 1, 0]\nclass = 5"] ;
74 -> 76 ;
77 [label="gini = 0.0\nsamples = 1\nvalue = [0, 0, 0, 0, 0, 0, 0, 0, 1, 0]\nclass = 8"] ;
76 -> 77 ;
78 [label="gini = 0.0\nsamples = 1\nvalue = [0, 0, 0, 0, 0, 1, 0, 0, 0, 0]\nclass = 5"] ;
76 -> 78 ;
79 [label="gini = 0.0\nsamples = 2\nvalue = [0, 0, 0, 2, 0, 0, 0, 0, 0, 0]\nclass = 3"] ;
73 -> 79 ;
80 [label="gini = 0.0\nsamples = 2\nvalue = [0, 0, 0, 0, 0, 6, 0, 0, 0, 0]\nclass = 5"] ;
72 -> 80 ;
81 [label="gini = 0.0\nsamples = 2\nvalue = [0, 0, 3, 0, 0, 0, 0, 0, 0, 0]\nclass = 2"] ;
71 -> 81 ;
82 [label="x[610] <= 12.5\ngini = 0.389\nsamples = 20\nvalue = [30, 0, 0, 2, 0, 4, 3, 0, 0, 0]\nclass = 0"] ;
70 -> 82 ;
83 [label="x[493] <= 66.0\ngini = 0.213\nsamples = 18\nvalue = [30, 0, 0, 0, 0, 1, 3, 0, 0, 0]\nclass = 0"] ;
82 -> 83 ;
84 [label="gini = 0.0\nsamples = 15\nvalue = [29, 0, 0, 0, 0, 0, 0, 0, 0, 0]\nclass = 0"] ;
83 -> 84 ;
85 [label="x[575] <= 229.5\ngini = 0.56\nsamples = 3\nvalue = [1, 0, 0, 0, 0, 1, 3, 0, 0, 0]\nclass = 6"] ;
83 -> 85 ;
86 [label="x[156] <= 75.0\ngini = 0.5\nsamples = 2\nvalue = [1, 0, 0, 0, 0, 1, 0, 0, 0, 0]\nclass = 0"] ;
85 -> 86 ;
87 [label="gini = 0.0\nsamples = 1\nvalue = [1, 0, 0, 0, 0, 0, 0, 0, 0, 0]\nclass = 0"] ;
86 -> 87 ;
88 [label="gini = 0.0\nsamples = 1\nvalue = [0, 0, 0, 0, 0, 1, 0, 0, 0, 0]\nclass = 5"] ;
86 -> 88 ;
89 [label="gini = 0.0\nsamples = 1\nvalue = [0, 0, 0, 0, 0, 0, 3, 0, 0, 0]\nclass = 6"] ;
85 -> 89 ;
90 [label="x[401] <= 28.5\ngini = 0.48\nsamples = 2\nvalue = [0, 0, 0, 2, 0, 3, 0, 0, 0, 0]\nclass = 5"] ;
82 -> 90 ;
91 [label="gini = 0.0\nsamples = 1\nvalue = [0, 0, 0, 2, 0, 0, 0, 0, 0, 0]\nclass = 3"] ;
90 -> 91 ;
92 [label="gini = 0.0\nsamples = 1\nvalue = [0, 0, 0, 0, 0, 3, 0, 0, 0, 0]\nclass = 5"] ;
90 -> 92 ;
93 [label="x[402] <= 7.5\ngini = 0.555\nsamples = 22\nvalue = [0, 0, 0, 3, 0, 1, 5, 0, 21, 3]\nclass = 8"] ;
69 -> 93 ;
94 [label="x[458] <= 64.0\ngini = 0.376\nsamples = 18\nvalue = [0, 0, 0, 2, 0, 1, 0, 0, 21, 3]\nclass = 8"] ;
93 -> 94 ;
95 [label="x[467] <= 145.0\ngini = 0.226\nsamples = 17\nvalue = [0, 0, 0, 2, 0, 1, 0, 0, 21, 0]\nclass = 8"] ;
94 -> 95 ;
96 [label="x[574] <= 226.0\ngini = 0.087\nsamples = 16\nvalue = [0, 0, 0, 0, 0, 1, 0, 0, 21, 0]\nclass = 8"] ;
95 -> 96 ;
97 [label="gini = 0.0\nsamples = 15\nvalue = [0, 0, 0, 0, 0, 0, 0, 0, 21, 0]\nclass = 8"] ;
96 -> 97 ;
98 [label="gini = 0.0\nsamples = 1\nvalue = [0, 0, 0, 0, 0, 1, 0, 0, 0, 0]\nclass = 5"] ;
96 -> 98 ;
99 [label="gini = 0.0\nsamples = 1\nvalue = [0, 0, 0, 2, 0, 0, 0, 0, 0, 0]\nclass = 3"] ;
95 -> 99 ;
100 [label="gini = 0.0\nsamples = 1\nvalue = [0, 0, 0, 0, 0, 0, 0, 0, 0, 3]\nclass = 9"] ;
94 -> 100 ;
101 [label="x[606] <= 185.5\ngini = 0.278\nsamples = 4\nvalue = [0, 0, 0, 1, 0, 0, 5, 0, 0, 0]\nclass = 6"] ;
93 -> 101 ;
102 [label="gini = 0.0\nsamples = 3\nvalue = [0, 0, 0, 0, 0, 0, 5, 0, 0, 0]\nclass = 6"] ;
101 -> 102 ;
103 [label="gini = 0.0\nsamples = 1\nvalue = [0, 0, 0, 1, 0, 0, 0, 0, 0, 0]\nclass = 3"] ;
101 -> 103 ;
104 [label="x[371] <= 22.0\ngini = 0.744\nsamples = 212\nvalue = [118, 9, 15, 41, 2, 96, 0, 10, 22, 4]\nclass = 0"] ;
6 -> 104 ;
105 [label="x[461] <= 52.0\ngini = 0.781\nsamples = 113\nvalue = [15, 9, 13, 38, 2, 60, 0, 3, 22, 4]\nclass = 5"] ;
104 -> 105 ;
106 [label="x[318] <= 6.0\ngini = 0.672\nsamples = 87\nvalue = [15, 0, 5, 38, 0, 59, 0, 3, 2, 4]\nclass = 5"] ;
105 -> 106 ;
107 [label="x[257] <= 125.0\ngini = 0.447\nsamples = 35\nvalue = [0, 0, 5, 32, 0, 4, 0, 2, 1, 0]\nclass = 3"] ;
106 -> 107 ;
108 [label="x[737] <= 63.5\ngini = 0.346\nsamples = 33\nvalue = [0, 0, 1, 32, 0, 4, 0, 2, 1, 0]\nclass = 3"] ;
107 -> 108 ;
109 [label="x[486] <= 5.5\ngini = 0.278\nsamples = 31\nvalue = [0, 0, 1, 32, 0, 4, 0, 0, 1, 0]\nclass = 3"] ;
108 -> 109 ;
110 [label="x[634] <= 60.5\ngini = 0.24\nsamples = 30\nvalue = [0, 0, 1, 32, 0, 4, 0, 0, 0, 0]\nclass = 3"] ;
109 -> 110 ;
111 [label="x[265] <= 223.5\ngini = 0.16\nsamples = 28\nvalue = [0, 0, 1, 32, 0, 2, 0, 0, 0, 0]\nclass = 3"] ;
110 -> 111 ;
112 [label="x[148] <= 83.0\ngini = 0.064\nsamples = 24\nvalue = [0, 0, 1, 29, 0, 0, 0, 0, 0, 0]\nclass = 3"] ;
111 -> 112 ;
113 [label="gini = 0.0\nsamples = 21\nvalue = [0, 0, 0, 27, 0, 0, 0, 0, 0, 0]\nclass = 3"] ;
112 -> 113 ;
114 [label="x[600] <= 156.0\ngini = 0.444\nsamples = 3\nvalue = [0, 0, 1, 2, 0, 0, 0, 0, 0, 0]\nclass = 3"] ;
112 -> 114 ;
115 [label="gini = 0.0\nsamples = 2\nvalue = [0, 0, 0, 2, 0, 0, 0, 0, 0, 0]\nclass = 3"] ;
114 -> 115 ;
116 [label="gini = 0.0\nsamples = 1\nvalue = [0, 0, 1, 0, 0, 0, 0, 0, 0, 0]\nclass = 2"] ;
114 -> 116 ;
117 [label="x[439] <= 113.0\ngini = 0.48\nsamples = 4\nvalue = [0, 0, 0, 3, 0, 2, 0, 0, 0, 0]\nclass = 3"] ;
111 -> 117 ;
118 [label="gini = 0.0\nsamples = 2\nvalue = [0, 0, 0, 0, 0, 2, 0, 0, 0, 0]\nclass = 5"] ;
117 -> 118 ;
119 [label="gini = 0.0\nsamples = 2\nvalue = [0, 0, 0, 3, 0, 0, 0, 0, 0, 0]\nclass = 3"] ;
117 -> 119 ;
120 [label="gini = 0.0\nsamples = 2\nvalue = [0, 0, 0, 0, 0, 2, 0, 0, 0, 0]\nclass = 5"] ;
110 -> 120 ;
121 [label="gini = 0.0\nsamples = 1\nvalue = [0, 0, 0, 0, 0, 0, 0, 0, 1, 0]\nclass = 8"] ;
109 -> 121 ;
122 [label="gini = 0.0\nsamples = 2\nvalue = [0, 0, 0, 0, 0, 0, 0, 2, 0, 0]\nclass = 7"] ;
108 -> 122 ;
123 [label="gini = 0.0\nsamples = 2\nvalue = [0, 0, 4, 0, 0, 0, 0, 0, 0, 0]\nclass = 2"] ;
107 -> 123 ;
124 [label="x[329] <= 50.5\ngini = 0.509\nsamples = 52\nvalue = [15, 0, 0, 6, 0, 55, 0, 1, 1, 4]\nclass = 5"] ;
106 -> 124 ;
125 [label="x[430] <= 28.5\ngini = 0.396\nsamples = 44\nvalue = [9, 0, 0, 4, 0, 55, 0, 0, 1, 3]\nclass = 5"] ;
124 -> 125 ;
126 [label="x[656] <= 153.5\ngini = 0.245\nsamples = 37\nvalue = [0, 0, 0, 4, 0, 51, 0, 0, 1, 3]\nclass = 5"] ;
125 -> 126 ;
127 [label="x[266] <= 124.5\ngini = 0.625\nsamples = 4\nvalue = [0, 0, 0, 2, 0, 0, 0, 0, 1, 1]\nclass = 3"] ;
126 -> 127 ;
128 [label="x[713] <= 120.5\ngini = 0.5\nsamples = 2\nvalue = [0, 0, 0, 0, 0, 0, 0, 0, 1, 1]\nclass = 8"] ;
127 -> 128 ;
129 [label="gini = 0.0\nsamples = 1\nvalue = [0, 0, 0, 0, 0, 0, 0, 0, 1, 0]\nclass = 8"] ;
128 -> 129 ;
130 [label="gini = 0.0\nsamples = 1\nvalue = [0, 0, 0, 0, 0, 0, 0, 0, 0, 1]\nclass = 9"] ;
128 -> 130 ;
131 [label="gini = 0.0\nsamples = 2\nvalue = [0, 0, 0, 2, 0, 0, 0, 0, 0, 0]\nclass = 3"] ;
127 -> 131 ;
132 [label="x[148] <= 128.5\ngini = 0.138\nsamples = 33\nvalue = [0, 0, 0, 2, 0, 51, 0, 0, 0, 2]\nclass = 5"] ;
126 -> 132 ;
133 [label="x[328] <= 110.5\ngini = 0.073\nsamples = 31\nvalue = [0, 0, 0, 0, 0, 51, 0, 0, 0, 2]\nclass = 5"] ;
132 -> 133 ;
134 [label="gini = 0.0\nsamples = 30\nvalue = [0, 0, 0, 0, 0, 51, 0, 0, 0, 0]\nclass = 5"] ;
133 -> 134 ;
135 [label="gini = 0.0\nsamples = 1\nvalue = [0, 0, 0, 0, 0, 0, 0, 0, 0, 2]\nclass = 9"] ;
133 -> 135 ;
136 [label="gini = 0.0\nsamples = 2\nvalue = [0, 0, 0, 2, 0, 0, 0, 0, 0, 0]\nclass = 3"] ;
132 -> 136 ;
137 [label="x[629] <= 252.0\ngini = 0.426\nsamples = 7\nvalue = [9, 0, 0, 0, 0, 4, 0, 0, 0, 0]\nclass = 0"] ;
125 -> 137 ;
138 [label="x[542] <= 19.0\ngini = 0.18\nsamples = 5\nvalue = [9, 0, 0, 0, 0, 1, 0, 0, 0, 0]\nclass = 0"] ;
137 -> 138 ;
139 [label="gini = 0.0\nsamples = 1\nvalue = [0, 0, 0, 0, 0, 1, 0, 0, 0, 0]\nclass = 5"] ;
138 -> 139 ;
140 [label="gini = 0.0\nsamples = 4\nvalue = [9, 0, 0, 0, 0, 0, 0, 0, 0, 0]\nclass = 0"] ;
138 -> 140 ;
141 [label="gini = 0.0\nsamples = 2\nvalue = [0, 0, 0, 0, 0, 3, 0, 0, 0, 0]\nclass = 5"] ;
137 -> 141 ;
142 [label="x[157] <= 11.0\ngini = 0.58\nsamples = 8\nvalue = [6, 0, 0, 2, 0, 0, 0, 1, 0, 1]\nclass = 0"] ;
124 -> 142 ;
143 [label="x[288] <= 126.0\ngini = 0.625\nsamples = 3\nvalue = [0, 0, 0, 2, 0, 0, 0, 1, 0, 1]\nclass = 3"] ;
142 -> 143 ;
144 [label="gini = 0.0\nsamples = 1\nvalue = [0, 0, 0, 2, 0, 0, 0, 0, 0, 0]\nclass = 3"] ;
143 -> 144 ;
145 [label="x[302] <= 186.0\ngini = 0.5\nsamples = 2\nvalue = [0, 0, 0, 0, 0, 0, 0, 1, 0, 1]\nclass = 7"] ;
143 -> 145 ;
146 [label="gini = 0.0\nsamples = 1\nvalue = [0, 0, 0, 0, 0, 0, 0, 0, 0, 1]\nclass = 9"] ;
145 -> 146 ;
147 [label="gini = 0.0\nsamples = 1\nvalue = [0, 0, 0, 0, 0, 0, 0, 1, 0, 0]\nclass = 7"] ;
145 -> 147 ;
148 [label="gini = 0.0\nsamples = 5\nvalue = [6, 0, 0, 0, 0, 0, 0, 0, 0, 0]\nclass = 0"] ;
142 -> 148 ;
149 [label="x[492] <= 3.5\ngini = 0.656\nsamples = 26\nvalue = [0, 9, 8, 0, 2, 1, 0, 0, 20, 0]\nclass = 8"] ;
105 -> 149 ;
150 [label="x[630] <= 63.5\ngini = 0.625\nsamples = 12\nvalue = [0, 9, 8, 0, 2, 0, 0, 0, 1, 0]\nclass = 1"] ;
149 -> 150 ;
151 [label="x[354] <= 24.0\ngini = 0.403\nsamples = 8\nvalue = [0, 9, 0, 0, 2, 0, 0, 0, 1, 0]\nclass = 1"] ;
150 -> 151 ;
152 [label="gini = 0.0\nsamples = 6\nvalue = [0, 9, 0, 0, 0, 0, 0, 0, 0, 0]\nclass = 1"] ;
151 -> 152 ;
153 [label="x[185] <= 127.5\ngini = 0.444\nsamples = 2\nvalue = [0, 0, 0, 0, 2, 0, 0, 0, 1, 0]\nclass = 4"] ;
151 -> 153 ;
154 [label="gini = 0.0\nsamples = 1\nvalue = [0, 0, 0, 0, 2, 0, 0, 0, 0, 0]\nclass = 4"] ;
153 -> 154 ;
155 [label="gini = 0.0\nsamples = 1\nvalue = [0, 0, 0, 0, 0, 0, 0, 0, 1, 0]\nclass = 8"] ;
153 -> 155 ;
156 [label="gini = 0.0\nsamples = 4\nvalue = [0, 0, 8, 0, 0, 0, 0, 0, 0, 0]\nclass = 2"] ;
150 -> 156 ;
157 [label="x[380] <= 0.5\ngini = 0.095\nsamples = 14\nvalue = [0, 0, 0, 0, 0, 1, 0, 0, 19, 0]\nclass = 8"] ;
149 -> 157 ;
158 [label="x[462] <= 57.5\ngini = 0.375\nsamples = 4\nvalue = [0, 0, 0, 0, 0, 1, 0, 0, 3, 0]\nclass = 8"] ;
157 -> 158 ;
159 [label="gini = 0.0\nsamples = 3\nvalue = [0, 0, 0, 0, 0, 0, 0, 0, 3, 0]\nclass = 8"] ;
158 -> 159 ;
160 [label="gini = 0.0\nsamples = 1\nvalue = [0, 0, 0, 0, 0, 1, 0, 0, 0, 0]\nclass = 5"] ;
158 -> 160 ;
161 [label="gini = 0.0\nsamples = 10\nvalue = [0, 0, 0, 0, 0, 0, 0, 0, 16, 0]\nclass = 8"] ;
157 -> 161 ;
162 [label="x[376] <= 2.5\ngini = 0.475\nsamples = 99\nvalue = [103, 0, 2, 3, 0, 36, 0, 7, 0, 0]\nclass = 0"] ;
104 -> 162 ;
163 [label="x[233] <= 238.0\ngini = 0.158\nsamples = 73\nvalue = [98, 0, 2, 0, 0, 2, 0, 5, 0, 0]\nclass = 0"] ;
162 -> 163 ;
164 [label="x[596] <= 3.0\ngini = 0.06\nsamples = 67\nvalue = [94, 0, 0, 0, 0, 0, 0, 3, 0, 0]\nclass = 0"] ;
163 -> 164 ;
165 [label="x[629] <= 82.0\ngini = 0.305\nsamples = 14\nvalue = [13, 0, 0, 0, 0, 0, 0, 3, 0, 0]\nclass = 0"] ;
164 -> 165 ;
166 [label="gini = 0.0\nsamples = 2\nvalue = [0, 0, 0, 0, 0, 0, 0, 2, 0, 0]\nclass = 7"] ;
165 -> 166 ;
167 [label="x[546] <= 35.5\ngini = 0.133\nsamples = 12\nvalue = [13, 0, 0, 0, 0, 0, 0, 1, 0, 0]\nclass = 0"] ;
165 -> 167 ;
168 [label="gini = 0.0\nsamples = 11\nvalue = [13, 0, 0, 0, 0, 0, 0, 0, 0, 0]\nclass = 0"] ;
167 -> 168 ;
169 [label="gini = 0.0\nsamples = 1\nvalue = [0, 0, 0, 0, 0, 0, 0, 1, 0, 0]\nclass = 7"] ;
167 -> 169 ;
170 [label="gini = 0.0\nsamples = 53\nvalue = [81, 0, 0, 0, 0, 0, 0, 0, 0, 0]\nclass = 0"] ;
164 -> 170 ;
171 [label="x[426] <= 52.0\ngini = 0.72\nsamples = 6\nvalue = [4, 0, 2, 0, 0, 2, 0, 2, 0, 0]\nclass = 0"] ;
163 -> 171 ;
172 [label="x[347] <= 99.0\ngini = 0.667\nsamples = 3\nvalue = [0, 0, 2, 0, 0, 2, 0, 2, 0, 0]\nclass = 2"] ;
171 -> 172 ;
173 [label="x[181] <= 142.0\ngini = 0.5\nsamples = 2\nvalue = [0, 0, 2, 0, 0, 0, 0, 2, 0, 0]\nclass = 2"] ;
172 -> 173 ;
174 [label="gini = 0.0\nsamples = 1\nvalue = [0, 0, 0, 0, 0, 0, 0, 2, 0, 0]\nclass = 7"] ;
173 -> 174 ;
175 [label="gini = 0.0\nsamples = 1\nvalue = [0, 0, 2, 0, 0, 0, 0, 0, 0, 0]\nclass = 2"] ;
173 -> 175 ;
176 [label="gini = 0.0\nsamples = 1\nvalue = [0, 0, 0, 0, 0, 2, 0, 0, 0, 0]\nclass = 5"] ;
172 -> 176 ;
177 [label="gini = 0.0\nsamples = 3\nvalue = [4, 0, 0, 0, 0, 0, 0, 0, 0, 0]\nclass = 0"] ;
171 -> 177 ;
178 [label="x[294] <= 116.5\ngini = 0.383\nsamples = 26\nvalue = [5, 0, 0, 3, 0, 34, 0, 2, 0, 0]\nclass = 5"] ;
162 -> 178 ;
179 [label="x[303] <= 4.0\ngini = 0.152\nsamples = 20\nvalue = [0, 0, 0, 1, 0, 34, 0, 2, 0, 0]\nclass = 5"] ;
178 -> 179 ;
180 [label="x[453] <= 30.5\ngini = 0.056\nsamples = 19\nvalue = [0, 0, 0, 1, 0, 34, 0, 0, 0, 0]\nclass = 5"] ;
179 -> 180 ;
181 [label="gini = 0.0\nsamples = 18\nvalue = [0, 0, 0, 0, 0, 34, 0, 0, 0, 0]\nclass = 5"] ;
180 -> 181 ;
182 [label="gini = 0.0\nsamples = 1\nvalue = [0, 0, 0, 1, 0, 0, 0, 0, 0, 0]\nclass = 3"] ;
180 -> 182 ;
183 [label="gini = 0.0\nsamples = 1\nvalue = [0, 0, 0, 0, 0, 0, 0, 2, 0, 0]\nclass = 7"] ;
179 -> 183 ;
184 [label="x[145] <= 14.5\ngini = 0.408\nsamples = 6\nvalue = [5, 0, 0, 2, 0, 0, 0, 0, 0, 0]\nclass = 0"] ;
178 -> 184 ;
185 [label="gini = 0.0\nsamples = 4\nvalue = [5, 0, 0, 0, 0, 0, 0, 0, 0, 0]\nclass = 0"] ;
184 -> 185 ;
186 [label="gini = 0.0\nsamples = 2\nvalue = [0, 0, 0, 2, 0, 0, 0, 0, 0, 0]\nclass = 3"] ;
184 -> 186 ;
187 [label="x[407] <= 8.5\ngini = 0.308\nsamples = 120\nvalue = [154, 0, 4, 0, 1, 9, 8, 4, 0, 6]\nclass = 0"] ;
5 -> 187 ;
188 [label="x[427] <= 4.0\ngini = 0.256\nsamples = 114\nvalue = [154, 0, 4, 0, 1, 6, 4, 4, 0, 6]\nclass = 0"] ;
187 -> 188 ;
189 [label="x[518] <= 3.5\ngini = 0.53\nsamples = 28\nvalue = [29, 0, 4, 0, 0, 1, 4, 0, 0, 6]\nclass = 0"] ;
188 -> 189 ;
190 [label="x[404] <= 37.5\ngini = 0.067\nsamples = 20\nvalue = [28, 0, 0, 0, 0, 0, 1, 0, 0, 0]\nclass = 0"] ;
189 -> 190 ;
191 [label="gini = 0.0\nsamples = 19\nvalue = [28, 0, 0, 0, 0, 0, 0, 0, 0, 0]\nclass = 0"] ;
190 -> 191 ;
192 [label="gini = 0.0\nsamples = 1\nvalue = [0, 0, 0, 0, 0, 0, 1, 0, 0, 0]\nclass = 6"] ;
190 -> 192 ;
193 [label="x[259] <= 3.5\ngini = 0.72\nsamples = 8\nvalue = [1, 0, 4, 0, 0, 1, 3, 0, 0, 6]\nclass = 9"] ;
189 -> 193 ;
194 [label="x[570] <= 44.0\ngini = 0.667\nsamples = 6\nvalue = [1, 0, 4, 0, 0, 1, 3, 0, 0, 0]\nclass = 2"] ;
193 -> 194 ;
195 [label="gini = 0.0\nsamples = 3\nvalue = [0, 0, 4, 0, 0, 0, 0, 0, 0, 0]\nclass = 2"] ;
194 -> 195 ;
196 [label="x[319] <= 113.0\ngini = 0.56\nsamples = 3\nvalue = [1, 0, 0, 0, 0, 1, 3, 0, 0, 0]\nclass = 6"] ;
194 -> 196 ;
197 [label="gini = 0.0\nsamples = 1\nvalue = [0, 0, 0, 0, 0, 0, 3, 0, 0, 0]\nclass = 6"] ;
196 -> 197 ;
198 [label="x[178] <= 13.0\ngini = 0.5\nsamples = 2\nvalue = [1, 0, 0, 0, 0, 1, 0, 0, 0, 0]\nclass = 0"] ;
196 -> 198 ;
199 [label="gini = 0.0\nsamples = 1\nvalue = [1, 0, 0, 0, 0, 0, 0, 0, 0, 0]\nclass = 0"] ;
198 -> 199 ;
200 [label="gini = 0.0\nsamples = 1\nvalue = [0, 0, 0, 0, 0, 1, 0, 0, 0, 0]\nclass = 5"] ;
198 -> 200 ;
201 [label="gini = 0.0\nsamples = 2\nvalue = [0, 0, 0, 0, 0, 0, 0, 0, 0, 6]\nclass = 9"] ;
193 -> 201 ;
202 [label="x[746] <= 32.0\ngini = 0.14\nsamples = 86\nvalue = [125, 0, 0, 0, 1, 5, 0, 4, 0, 0]\nclass = 0"] ;
188 -> 202 ;
203 [label="x[715] <= 78.0\ngini = 0.089\nsamples = 84\nvalue = [125, 0, 0, 0, 1, 2, 0, 3, 0, 0]\nclass = 0"] ;
202 -> 203 ;
204 [label="x[411] <= 249.5\ngini = 0.031\nsamples = 81\nvalue = [125, 0, 0, 0, 1, 1, 0, 0, 0, 0]\nclass = 0"] ;
203 -> 204 ;
205 [label="x[357] <= 3.5\ngini = 0.016\nsamples = 76\nvalue = [120, 0, 0, 0, 0, 1, 0, 0, 0, 0]\nclass = 0"] ;
204 -> 205 ;
206 [label="x[517] <= 126.0\ngini = 0.165\nsamples = 7\nvalue = [10, 0, 0, 0, 0, 1, 0, 0, 0, 0]\nclass = 0"] ;
205 -> 206 ;
207 [label="gini = 0.0\nsamples = 6\nvalue = [10, 0, 0, 0, 0, 0, 0, 0, 0, 0]\nclass = 0"] ;
206 -> 207 ;
208 [label="gini = 0.0\nsamples = 1\nvalue = [0, 0, 0, 0, 0, 1, 0, 0, 0, 0]\nclass = 5"] ;
206 -> 208 ;
209 [label="gini = 0.0\nsamples = 69\nvalue = [110, 0, 0, 0, 0, 0, 0, 0, 0, 0]\nclass = 0"] ;
205 -> 209 ;
210 [label="x[130] <= 66.0\ngini = 0.278\nsamples = 5\nvalue = [5, 0, 0, 0, 1, 0, 0, 0, 0, 0]\nclass = 0"] ;
204 -> 210 ;
211 [label="gini = 0.0\nsamples = 4\nvalue = [5, 0, 0, 0, 0, 0, 0, 0, 0, 0]\nclass = 0"] ;
210 -> 211 ;
212 [label="gini = 0.0\nsamples = 1\nvalue = [0, 0, 0, 0, 1, 0, 0, 0, 0, 0]\nclass = 4"] ;
210 -> 212 ;
213 [label="x[237] <= 208.5\ngini = 0.375\nsamples = 3\nvalue = [0, 0, 0, 0, 0, 1, 0, 3, 0, 0]\nclass = 7"] ;
203 -> 213 ;
214 [label="gini = 0.0\nsamples = 1\nvalue = [0, 0, 0, 0, 0, 1, 0, 0, 0, 0]\nclass = 5"] ;
213 -> 214 ;
215 [label="gini = 0.0\nsamples = 2\nvalue = [0, 0, 0, 0, 0, 0, 0, 3, 0, 0]\nclass = 7"] ;
213 -> 215 ;
216 [label="x[246] <= 124.0\ngini = 0.375\nsamples = 2\nvalue = [0, 0, 0, 0, 0, 3, 0, 1, 0, 0]\nclass = 5"] ;
202 -> 216 ;
217 [label="gini = 0.0\nsamples = 1\nvalue = [0, 0, 0, 0, 0, 0, 0, 1, 0, 0]\nclass = 7"] ;
216 -> 217 ;
218 [label="gini = 0.0\nsamples = 1\nvalue = [0, 0, 0, 0, 0, 3, 0, 0, 0, 0]\nclass = 5"] ;
216 -> 218 ;
219 [label="x[261] <= 9.0\ngini = 0.49\nsamples = 6\nvalue = [0, 0, 0, 0, 0, 3, 4, 0, 0, 0]\nclass = 6"] ;
187 -> 219 ;
220 [label="x[496] <= 97.0\ngini = 0.375\nsamples = 3\nvalue = [0, 0, 0, 0, 0, 3, 1, 0, 0, 0]\nclass = 5"] ;
219 -> 220 ;
221 [label="gini = 0.0\nsamples = 2\nvalue = [0, 0, 0, 0, 0, 3, 0, 0, 0, 0]\nclass = 5"] ;
220 -> 221 ;
222 [label="gini = 0.0\nsamples = 1\nvalue = [0, 0, 0, 0, 0, 0, 1, 0, 0, 0]\nclass = 6"] ;
220 -> 222 ;
223 [label="gini = 0.0\nsamples = 3\nvalue = [0, 0, 0, 0, 0, 0, 3, 0, 0, 0]\nclass = 6"] ;
219 -> 223 ;
224 [label="x[465] <= 1.0\ngini = 0.702\nsamples = 817\nvalue = [8, 645, 74, 31, 69, 56, 90, 65, 171, 53]\nclass = 1"] ;
4 -> 224 ;
225 [label="x[542] <= 1.5\ngini = 0.571\nsamples = 623\nvalue = [2, 619, 53, 19, 11, 31, 67, 54, 90, 24]\nclass = 1"] ;
224 -> 225 ;
226 [label="x[265] <= 138.0\ngini = 0.393\nsamples = 454\nvalue = [0, 544, 9, 18, 7, 28, 0, 46, 35, 17]\nclass = 1"] ;
225 -> 226 ;
227 [label="x[378] <= 66.5\ngini = 0.739\nsamples = 140\nvalue = [0, 95, 7, 16, 7, 11, 0, 34, 28, 13]\nclass = 1"] ;
226 -> 227 ;
228 [label="x[520] <= 195.5\ngini = 0.679\nsamples = 38\nvalue = [0, 5, 3, 0, 1, 8, 0, 27, 6, 2]\nclass = 7"] ;
227 -> 228 ;
229 [label="x[269] <= 34.5\ngini = 0.484\nsamples = 27\nvalue = [0, 4, 3, 0, 1, 0, 0, 26, 1, 2]\nclass = 7"] ;
228 -> 229 ;
230 [label="gini = 0.0\nsamples = 2\nvalue = [0, 4, 0, 0, 0, 0, 0, 0, 0, 0]\nclass = 1"] ;
229 -> 230 ;
231 [label="x[488] <= 212.5\ngini = 0.365\nsamples = 25\nvalue = [0, 0, 3, 0, 1, 0, 0, 26, 1, 2]\nclass = 7"] ;
229 -> 231 ;
232 [label="x[266] <= 12.0\ngini = 0.133\nsamples = 21\nvalue = [0, 0, 0, 0, 0, 0, 0, 26, 0, 2]\nclass = 7"] ;
231 -> 232 ;
233 [label="gini = 0.0\nsamples = 12\nvalue = [0, 0, 0, 0, 0, 0, 0, 14, 0, 0]\nclass = 7"] ;
232 -> 233 ;
234 [label="x[516] <= 5.5\ngini = 0.245\nsamples = 9\nvalue = [0, 0, 0, 0, 0, 0, 0, 12, 0, 2]\nclass = 7"] ;
232 -> 234 ;
235 [label="x[685] <= 233.5\ngini = 0.346\nsamples = 6\nvalue = [0, 0, 0, 0, 0, 0, 0, 7, 0, 2]\nclass = 7"] ;
234 -> 235 ;
236 [label="gini = 0.0\nsamples = 5\nvalue = [0, 0, 0, 0, 0, 0, 0, 7, 0, 0]\nclass = 7"] ;
235 -> 236 ;
237 [label="gini = 0.0\nsamples = 1\nvalue = [0, 0, 0, 0, 0, 0, 0, 0, 0, 2]\nclass = 9"] ;
235 -> 237 ;
238 [label="gini = 0.0\nsamples = 3\nvalue = [0, 0, 0, 0, 0, 0, 0, 5, 0, 0]\nclass = 7"] ;
234 -> 238 ;
239 [label="x[326] <= 148.5\ngini = 0.56\nsamples = 4\nvalue = [0, 0, 3, 0, 1, 0, 0, 0, 1, 0]\nclass = 2"] ;
231 -> 239 ;
240 [label="x[243] <= 2.5\ngini = 0.5\nsamples = 2\nvalue = [0, 0, 0, 0, 1, 0, 0, 0, 1, 0]\nclass = 4"] ;
239 -> 240 ;
241 [label="gini = 0.0\nsamples = 1\nvalue = [0, 0, 0, 0, 0, 0, 0, 0, 1, 0]\nclass = 8"] ;
240 -> 241 ;
242 [label="gini = 0.0\nsamples = 1\nvalue = [0, 0, 0, 0, 1, 0, 0, 0, 0, 0]\nclass = 4"] ;
240 -> 242 ;
243 [label="gini = 0.0\nsamples = 2\nvalue = [0, 0, 3, 0, 0, 0, 0, 0, 0, 0]\nclass = 2"] ;
239 -> 243 ;
244 [label="x[545] <= 73.5\ngini = 0.596\nsamples = 11\nvalue = [0, 1, 0, 0, 0, 8, 0, 1, 5, 0]\nclass = 5"] ;
228 -> 244 ;
245 [label="x[455] <= 202.5\ngini = 0.34\nsamples = 7\nvalue = [0, 1, 0, 0, 0, 8, 0, 1, 0, 0]\nclass = 5"] ;
244 -> 245 ;
246 [label="x[185] <= 46.5\ngini = 0.198\nsamples = 6\nvalue = [0, 1, 0, 0, 0, 8, 0, 0, 0, 0]\nclass = 5"] ;
245 -> 246 ;
247 [label="gini = 0.0\nsamples = 1\nvalue = [0, 1, 0, 0, 0, 0, 0, 0, 0, 0]\nclass = 1"] ;
246 -> 247 ;
248 [label="gini = 0.0\nsamples = 5\nvalue = [0, 0, 0, 0, 0, 8, 0, 0, 0, 0]\nclass = 5"] ;
246 -> 248 ;
249 [label="gini = 0.0\nsamples = 1\nvalue = [0, 0, 0, 0, 0, 0, 0, 1, 0, 0]\nclass = 7"] ;
245 -> 249 ;
250 [label="gini = 0.0\nsamples = 4\nvalue = [0, 0, 0, 0, 0, 0, 0, 0, 5, 0]\nclass = 8"] ;
244 -> 250 ;
251 [label="x[346] <= 1.0\ngini = 0.641\nsamples = 102\nvalue = [0, 90, 4, 16, 6, 3, 0, 7, 22, 11]\nclass = 1"] ;
227 -> 251 ;
252 [label="x[178] <= 0.5\ngini = 0.48\nsamples = 78\nvalue = [0, 88, 4, 16, 0, 1, 0, 4, 9, 3]\nclass = 1"] ;
251 -> 252 ;
253 [label="x[404] <= 19.5\ngini = 0.343\nsamples = 60\nvalue = [0, 79, 3, 5, 0, 1, 0, 4, 3, 3]\nclass = 1"] ;
252 -> 253 ;
254 [label="x[548] <= 132.0\ngini = 0.215\nsamples = 52\nvalue = [0, 76, 3, 0, 0, 0, 0, 4, 1, 2]\nclass = 1"] ;
253 -> 254 ;
255 [label="x[741] <= 87.0\ngini = 0.159\nsamples = 50\nvalue = [0, 76, 1, 0, 0, 0, 0, 4, 0, 2]\nclass = 1"] ;
254 -> 255 ;
256 [label="x[406] <= 15.5\ngini = 0.118\nsamples = 48\nvalue = [0, 76, 1, 0, 0, 0, 0, 2, 0, 2]\nclass = 1"] ;
255 -> 256 ;
257 [label="gini = 0.0\nsamples = 1\nvalue = [0, 0, 0, 0, 0, 0, 0, 0, 0, 2]\nclass = 9"] ;
256 -> 257 ;
258 [label="x[203] <= 98.5\ngini = 0.074\nsamples = 47\nvalue = [0, 76, 1, 0, 0, 0, 0, 2, 0, 0]\nclass = 1"] ;
256 -> 258 ;
259 [label="x[239] <= 237.5\ngini = 0.05\nsamples = 46\nvalue = [0, 76, 0, 0, 0, 0, 0, 2, 0, 0]\nclass = 1"] ;
258 -> 259 ;
260 [label="x[712] <= 58.0\ngini = 0.026\nsamples = 45\nvalue = [0, 76, 0, 0, 0, 0, 0, 1, 0, 0]\nclass = 1"] ;
259 -> 260 ;
261 [label="gini = 0.0\nsamples = 44\nvalue = [0, 76, 0, 0, 0, 0, 0, 0, 0, 0]\nclass = 1"] ;
260 -> 261 ;
262 [label="gini = 0.0\nsamples = 1\nvalue = [0, 0, 0, 0, 0, 0, 0, 1, 0, 0]\nclass = 7"] ;
260 -> 262 ;
263 [label="gini = 0.0\nsamples = 1\nvalue = [0, 0, 0, 0, 0, 0, 0, 1, 0, 0]\nclass = 7"] ;
259 -> 263 ;
264 [label="gini = 0.0\nsamples = 1\nvalue = [0, 0, 1, 0, 0, 0, 0, 0, 0, 0]\nclass = 2"] ;
258 -> 264 ;
265 [label="gini = 0.0\nsamples = 2\nvalue = [0, 0, 0, 0, 0, 0, 0, 2, 0, 0]\nclass = 7"] ;
255 -> 265 ;
266 [label="x[179] <= 10.5\ngini = 0.444\nsamples = 2\nvalue = [0, 0, 2, 0, 0, 0, 0, 0, 1, 0]\nclass = 2"] ;
254 -> 266 ;
267 [label="gini = 0.0\nsamples = 1\nvalue = [0, 0, 2, 0, 0, 0, 0, 0, 0, 0]\nclass = 2"] ;
266 -> 267 ;
268 [label="gini = 0.0\nsamples = 1\nvalue = [0, 0, 0, 0, 0, 0, 0, 0, 1, 0]\nclass = 8"] ;
266 -> 268 ;
269 [label="x[156] <= 7.0\ngini = 0.722\nsamples = 8\nvalue = [0, 3, 0, 5, 0, 1, 0, 0, 2, 1]\nclass = 3"] ;
253 -> 269 ;
270 [label="x[240] <= 119.0\ngini = 0.449\nsamples = 4\nvalue = [0, 0, 0, 5, 0, 1, 0, 0, 0, 1]\nclass = 3"] ;
269 -> 270 ;
271 [label="x[624] <= 31.5\ngini = 0.5\nsamples = 2\nvalue = [0, 0, 0, 0, 0, 1, 0, 0, 0, 1]\nclass = 5"] ;
270 -> 271 ;
272 [label="gini = 0.0\nsamples = 1\nvalue = [0, 0, 0, 0, 0, 0, 0, 0, 0, 1]\nclass = 9"] ;
271 -> 272 ;
273 [label="gini = 0.0\nsamples = 1\nvalue = [0, 0, 0, 0, 0, 1, 0, 0, 0, 0]\nclass = 5"] ;
271 -> 273 ;
274 [label="gini = 0.0\nsamples = 2\nvalue = [0, 0, 0, 5, 0, 0, 0, 0, 0, 0]\nclass = 3"] ;
270 -> 274 ;
275 [label="x[241] <= 54.5\ngini = 0.48\nsamples = 4\nvalue = [0, 3, 0, 0, 0, 0, 0, 0, 2, 0]\nclass = 1"] ;
269 -> 275 ;
276 [label="gini = 0.0\nsamples = 2\nvalue = [0, 3, 0, 0, 0, 0, 0, 0, 0, 0]\nclass = 1"] ;
275 -> 276 ;
277 [label="gini = 0.0\nsamples = 2\nvalue = [0, 0, 0, 0, 0, 0, 0, 0, 2, 0]\nclass = 8"] ;
275 -> 277 ;
278 [label="x[655] <= 186.0\ngini = 0.672\nsamples = 18\nvalue = [0, 9, 1, 11, 0, 0, 0, 0, 6, 0]\nclass = 3"] ;
252 -> 278 ;
279 [label="x[658] <= 31.0\ngini = 0.623\nsamples = 13\nvalue = [0, 9, 1, 2, 0, 0, 0, 0, 6, 0]\nclass = 1"] ;
278 -> 279 ;
280 [label="gini = 0.0\nsamples = 6\nvalue = [0, 9, 0, 0, 0, 0, 0, 0, 0, 0]\nclass = 1"] ;
279 -> 280 ;
281 [label="x[487] <= 96.5\ngini = 0.494\nsamples = 7\nvalue = [0, 0, 1, 2, 0, 0, 0, 0, 6, 0]\nclass = 8"] ;
279 -> 281 ;
282 [label="x[180] <= 157.5\ngini = 0.375\nsamples = 6\nvalue = [0, 0, 0, 2, 0, 0, 0, 0, 6, 0]\nclass = 8"] ;
281 -> 282 ;
283 [label="gini = 0.0\nsamples = 1\nvalue = [0, 0, 0, 2, 0, 0, 0, 0, 0, 0]\nclass = 3"] ;
282 -> 283 ;
284 [label="gini = 0.0\nsamples = 5\nvalue = [0, 0, 0, 0, 0, 0, 0, 0, 6, 0]\nclass = 8"] ;
282 -> 284 ;
285 [label="gini = 0.0\nsamples = 1\nvalue = [0, 0, 1, 0, 0, 0, 0, 0, 0, 0]\nclass = 2"] ;
281 -> 285 ;
286 [label="gini = 0.0\nsamples = 5\nvalue = [0, 0, 0, 9, 0, 0, 0, 0, 0, 0]\nclass = 3"] ;
278 -> 286 ;
287 [label="x[713] <= 187.0\ngini = 0.753\nsamples = 24\nvalue = [0, 2, 0, 0, 6, 2, 0, 3, 13, 8]\nclass = 8"] ;
251 -> 287 ;
288 [label="x[572] <= 156.0\ngini = 0.672\nsamples = 18\nvalue = [0, 2, 0, 0, 6, 2, 0, 3, 13, 0]\nclass = 8"] ;
287 -> 288 ;
289 [label="x[351] <= 147.5\ngini = 0.746\nsamples = 8\nvalue = [0, 2, 0, 0, 5, 1, 0, 3, 2, 0]\nclass = 4"] ;
288 -> 289 ;
290 [label="x[603] <= 2.5\ngini = 0.611\nsamples = 3\nvalue = [0, 2, 0, 0, 0, 1, 0, 3, 0, 0]\nclass = 7"] ;
289 -> 290 ;
291 [label="gini = 0.0\nsamples = 1\nvalue = [0, 0, 0, 0, 0, 0, 0, 3, 0, 0]\nclass = 7"] ;
290 -> 291 ;
292 [label="x[549] <= 254.0\ngini = 0.444\nsamples = 2\nvalue = [0, 2, 0, 0, 0, 1, 0, 0, 0, 0]\nclass = 1"] ;
290 -> 292 ;
293 [label="gini = 0.0\nsamples = 1\nvalue = [0, 2, 0, 0, 0, 0, 0, 0, 0, 0]\nclass = 1"] ;
292 -> 293 ;
294 [label="gini = 0.0\nsamples = 1\nvalue = [0, 0, 0, 0, 0, 1, 0, 0, 0, 0]\nclass = 5"] ;
292 -> 294 ;
295 [label="x[491] <= 144.5\ngini = 0.408\nsamples = 5\nvalue = [0, 0, 0, 0, 5, 0, 0, 0, 2, 0]\nclass = 4"] ;
289 -> 295 ;
296 [label="gini = 0.0\nsamples = 1\nvalue = [0, 0, 0, 0, 0, 0, 0, 0, 1, 0]\nclass = 8"] ;
295 -> 296 ;
297 [label="x[238] <= 24.0\ngini = 0.278\nsamples = 4\nvalue = [0, 0, 0, 0, 5, 0, 0, 0, 1, 0]\nclass = 4"] ;
295 -> 297 ;
298 [label="gini = 0.0\nsamples = 3\nvalue = [0, 0, 0, 0, 5, 0, 0, 0, 0, 0]\nclass = 4"] ;
297 -> 298 ;
299 [label="gini = 0.0\nsamples = 1\nvalue = [0, 0, 0, 0, 0, 0, 0, 0, 1, 0]\nclass = 8"] ;
297 -> 299 ;
300 [label="x[188] <= 253.5\ngini = 0.272\nsamples = 10\nvalue = [0, 0, 0, 0, 1, 1, 0, 0, 11, 0]\nclass = 8"] ;
288 -> 300 ;
301 [label="gini = 0.0\nsamples = 8\nvalue = [0, 0, 0, 0, 0, 0, 0, 0, 11, 0]\nclass = 8"] ;
300 -> 301 ;
302 [label="x[269] <= 127.5\ngini = 0.5\nsamples = 2\nvalue = [0, 0, 0, 0, 1, 1, 0, 0, 0, 0]\nclass = 4"] ;
300 -> 302 ;
303 [label="gini = 0.0\nsamples = 1\nvalue = [0, 0, 0, 0, 0, 1, 0, 0, 0, 0]\nclass = 5"] ;
302 -> 303 ;
304 [label="gini = 0.0\nsamples = 1\nvalue = [0, 0, 0, 0, 1, 0, 0, 0, 0, 0]\nclass = 4"] ;
302 -> 304 ;
305 [label="gini = 0.0\nsamples = 6\nvalue = [0, 0, 0, 0, 0, 0, 0, 0, 0, 8]\nclass = 9"] ;
287 -> 305 ;
306 [label="x[269] <= 0.5\ngini = 0.168\nsamples = 314\nvalue = [0, 449, 2, 2, 0, 17, 0, 12, 7, 4]\nclass = 1"] ;
226 -> 306 ;
307 [label="x[217] <= 3.0\ngini = 0.06\nsamples = 290\nvalue = [0, 446, 2, 2, 0, 9, 0, 0, 0, 1]\nclass = 1"] ;
306 -> 307 ;
308 [label="x[651] <= 2.5\ngini = 0.009\nsamples = 282\nvalue = [0, 446, 0, 0, 0, 1, 0, 0, 0, 1]\nclass = 1"] ;
307 -> 308 ;
309 [label="x[602] <= 0.5\ngini = 0.004\nsamples = 281\nvalue = [0, 446, 0, 0, 0, 0, 0, 0, 0, 1]\nclass = 1"] ;
308 -> 309 ;
310 [label="x[603] <= 92.0\ngini = 0.033\nsamples = 39\nvalue = [0, 59, 0, 0, 0, 0, 0, 0, 0, 1]\nclass = 1"] ;
309 -> 310 ;
311 [label="x[574] <= 29.5\ngini = 0.1\nsamples = 13\nvalue = [0, 18, 0, 0, 0, 0, 0, 0, 0, 1]\nclass = 1"] ;
310 -> 311 ;
312 [label="gini = 0.0\nsamples = 12\nvalue = [0, 18, 0, 0, 0, 0, 0, 0, 0, 0]\nclass = 1"] ;
311 -> 312 ;
313 [label="gini = 0.0\nsamples = 1\nvalue = [0, 0, 0, 0, 0, 0, 0, 0, 0, 1]\nclass = 9"] ;
311 -> 313 ;
314 [label="gini = 0.0\nsamples = 26\nvalue = [0, 41, 0, 0, 0, 0, 0, 0, 0, 0]\nclass = 1"] ;
310 -> 314 ;
315 [label="gini = 0.0\nsamples = 242\nvalue = [0, 387, 0, 0, 0, 0, 0, 0, 0, 0]\nclass = 1"] ;
309 -> 315 ;
316 [label="gini = 0.0\nsamples = 1\nvalue = [0, 0, 0, 0, 0, 1, 0, 0, 0, 0]\nclass = 5"] ;
308 -> 316 ;
317 [label="x[373] <= 143.5\ngini = 0.5\nsamples = 8\nvalue = [0, 0, 2, 2, 0, 8, 0, 0, 0, 0]\nclass = 5"] ;
307 -> 317 ;
318 [label="x[598] <= 167.5\ngini = 0.32\nsamples = 7\nvalue = [0, 0, 0, 2, 0, 8, 0, 0, 0, 0]\nclass = 5"] ;
317 -> 318 ;
319 [label="gini = 0.0\nsamples = 6\nvalue = [0, 0, 0, 0, 0, 8, 0, 0, 0, 0]\nclass = 5"] ;
318 -> 319 ;
320 [label="gini = 0.0\nsamples = 1\nvalue = [0, 0, 0, 2, 0, 0, 0, 0, 0, 0]\nclass = 3"] ;
318 -> 320 ;
321 [label="gini = 0.0\nsamples = 1\nvalue = [0, 0, 2, 0, 0, 0, 0, 0, 0, 0]\nclass = 2"] ;
317 -> 321 ;
322 [label="x[492] <= 6.5\ngini = 0.747\nsamples = 24\nvalue = [0, 3, 0, 0, 0, 8, 0, 12, 7, 3]\nclass = 7"] ;
306 -> 322 ;
323 [label="x[407] <= 134.5\ngini = 0.56\nsamples = 13\nvalue = [0, 3, 0, 0, 0, 2, 0, 12, 1, 1]\nclass = 7"] ;
322 -> 323 ;
324 [label="x[189] <= 66.5\ngini = 0.72\nsamples = 5\nvalue = [0, 1, 0, 0, 0, 2, 0, 0, 1, 1]\nclass = 5"] ;
323 -> 324 ;
325 [label="x[491] <= 29.0\ngini = 0.667\nsamples = 3\nvalue = [0, 1, 0, 0, 0, 0, 0, 0, 1, 1]\nclass = 1"] ;
324 -> 325 ;
326 [label="gini = 0.0\nsamples = 1\nvalue = [0, 0, 0, 0, 0, 0, 0, 0, 1, 0]\nclass = 8"] ;
325 -> 326 ;
327 [label="x[242] <= 126.0\ngini = 0.5\nsamples = 2\nvalue = [0, 1, 0, 0, 0, 0, 0, 0, 0, 1]\nclass = 1"] ;
325 -> 327 ;
328 [label="gini = 0.0\nsamples = 1\nvalue = [0, 1, 0, 0, 0, 0, 0, 0, 0, 0]\nclass = 1"] ;
327 -> 328 ;
329 [label="gini = 0.0\nsamples = 1\nvalue = [0, 0, 0, 0, 0, 0, 0, 0, 0, 1]\nclass = 9"] ;
327 -> 329 ;
330 [label="gini = 0.0\nsamples = 2\nvalue = [0, 0, 0, 0, 0, 2, 0, 0, 0, 0]\nclass = 5"] ;
324 -> 330 ;
331 [label="x[634] <= 28.0\ngini = 0.245\nsamples = 8\nvalue = [0, 2, 0, 0, 0, 0, 0, 12, 0, 0]\nclass = 7"] ;
323 -> 331 ;
332 [label="gini = 0.0\nsamples = 7\nvalue = [0, 0, 0, 0, 0, 0, 0, 12, 0, 0]\nclass = 7"] ;
331 -> 332 ;
333 [label="gini = 0.0\nsamples = 1\nvalue = [0, 2, 0, 0, 0, 0, 0, 0, 0, 0]\nclass = 1"] ;
331 -> 333 ;
334 [label="x[353] <= 22.0\ngini = 0.612\nsamples = 11\nvalue = [0, 0, 0, 0, 0, 6, 0, 0, 6, 2]\nclass = 5"] ;
322 -> 334 ;
335 [label="x[710] <= 198.0\ngini = 0.245\nsamples = 6\nvalue = [0, 0, 0, 0, 0, 6, 0, 0, 0, 1]\nclass = 5"] ;
334 -> 335 ;
336 [label="gini = 0.0\nsamples = 5\nvalue = [0, 0, 0, 0, 0, 6, 0, 0, 0, 0]\nclass = 5"] ;
335 -> 336 ;
337 [label="gini = 0.0\nsamples = 1\nvalue = [0, 0, 0, 0, 0, 0, 0, 0, 0, 1]\nclass = 9"] ;
335 -> 337 ;
338 [label="x[352] <= 194.0\ngini = 0.245\nsamples = 5\nvalue = [0, 0, 0, 0, 0, 0, 0, 0, 6, 1]\nclass = 8"] ;
334 -> 338 ;
339 [label="gini = 0.0\nsamples = 1\nvalue = [0, 0, 0, 0, 0, 0, 0, 0, 0, 1]\nclass = 9"] ;
338 -> 339 ;
340 [label="gini = 0.0\nsamples = 4\nvalue = [0, 0, 0, 0, 0, 0, 0, 0, 6, 0]\nclass = 8"] ;
338 -> 340 ;
341 [label="x[344] <= 11.0\ngini = 0.785\nsamples = 169\nvalue = [2, 75, 44, 1, 4, 3, 67, 8, 55, 7]\nclass = 1"] ;
225 -> 341 ;
342 [label="x[208] <= 1.0\ngini = 0.748\nsamples = 130\nvalue = [0, 75, 44, 1, 2, 3, 15, 8, 53, 5]\nclass = 1"] ;
341 -> 342 ;
343 [label="x[606] <= 4.5\ngini = 0.586\nsamples = 81\nvalue = [0, 75, 16, 0, 0, 2, 6, 3, 18, 3]\nclass = 1"] ;
342 -> 343 ;
344 [label="x[236] <= 7.5\ngini = 0.429\nsamples = 68\nvalue = [0, 75, 0, 0, 0, 2, 2, 3, 17, 3]\nclass = 1"] ;
343 -> 344 ;
345 [label="x[632] <= 24.0\ngini = 0.363\nsamples = 64\nvalue = [0, 75, 0, 0, 0, 2, 2, 3, 10, 3]\nclass = 1"] ;
344 -> 345 ;
346 [label="x[571] <= 149.0\ngini = 0.285\nsamples = 61\nvalue = [0, 75, 0, 0, 0, 2, 2, 3, 4, 3]\nclass = 1"] ;
345 -> 346 ;
347 [label="x[651] <= 123.0\ngini = 0.719\nsamples = 5\nvalue = [0, 0, 0, 0, 0, 2, 1, 0, 2, 3]\nclass = 9"] ;
346 -> 347 ;
348 [label="x[361] <= 31.5\ngini = 0.64\nsamples = 4\nvalue = [0, 0, 0, 0, 0, 2, 1, 0, 2, 0]\nclass = 5"] ;
347 -> 348 ;
349 [label="x[453] <= 21.0\ngini = 0.444\nsamples = 3\nvalue = [0, 0, 0, 0, 0, 0, 1, 0, 2, 0]\nclass = 8"] ;
348 -> 349 ;
350 [label="gini = 0.0\nsamples = 2\nvalue = [0, 0, 0, 0, 0, 0, 0, 0, 2, 0]\nclass = 8"] ;
349 -> 350 ;
351 [label="gini = 0.0\nsamples = 1\nvalue = [0, 0, 0, 0, 0, 0, 1, 0, 0, 0]\nclass = 6"] ;
349 -> 351 ;
352 [label="gini = 0.0\nsamples = 1\nvalue = [0, 0, 0, 0, 0, 2, 0, 0, 0, 0]\nclass = 5"] ;
348 -> 352 ;
353 [label="gini = 0.0\nsamples = 1\nvalue = [0, 0, 0, 0, 0, 0, 0, 0, 0, 3]\nclass = 9"] ;
347 -> 353 ;
354 [label="x[124] <= 22.0\ngini = 0.141\nsamples = 56\nvalue = [0, 75, 0, 0, 0, 0, 1, 3, 2, 0]\nclass = 1"] ;
346 -> 354 ;
355 [label="x[576] <= 1.0\ngini = 0.119\nsamples = 55\nvalue = [0, 75, 0, 0, 0, 0, 0, 3, 2, 0]\nclass = 1"] ;
354 -> 355 ;
356 [label="x[597] <= 254.0\ngini = 0.074\nsamples = 53\nvalue = [0, 75, 0, 0, 0, 0, 0, 3, 0, 0]\nclass = 1"] ;
355 -> 356 ;
357 [label="x[181] <= 75.5\ngini = 0.028\nsamples = 49\nvalue = [0, 69, 0, 0, 0, 0, 0, 1, 0, 0]\nclass = 1"] ;
356 -> 357 ;
358 [label="gini = 0.0\nsamples = 48\nvalue = [0, 69, 0, 0, 0, 0, 0, 0, 0, 0]\nclass = 1"] ;
357 -> 358 ;
359 [label="gini = 0.0\nsamples = 1\nvalue = [0, 0, 0, 0, 0, 0, 0, 1, 0, 0]\nclass = 7"] ;
357 -> 359 ;
360 [label="x[181] <= 14.5\ngini = 0.375\nsamples = 4\nvalue = [0, 6, 0, 0, 0, 0, 0, 2, 0, 0]\nclass = 1"] ;
356 -> 360 ;
361 [label="gini = 0.0\nsamples = 3\nvalue = [0, 6, 0, 0, 0, 0, 0, 0, 0, 0]\nclass = 1"] ;
360 -> 361 ;
362 [label="gini = 0.0\nsamples = 1\nvalue = [0, 0, 0, 0, 0, 0, 0, 2, 0, 0]\nclass = 7"] ;
360 -> 362 ;
363 [label="gini = 0.0\nsamples = 2\nvalue = [0, 0, 0, 0, 0, 0, 0, 0, 2, 0]\nclass = 8"] ;
355 -> 363 ;
364 [label="gini = 0.0\nsamples = 1\nvalue = [0, 0, 0, 0, 0, 0, 1, 0, 0, 0]\nclass = 6"] ;
354 -> 364 ;
365 [label="gini = 0.0\nsamples = 3\nvalue = [0, 0, 0, 0, 0, 0, 0, 0, 6, 0]\nclass = 8"] ;
345 -> 365 ;
366 [label="gini = 0.0\nsamples = 4\nvalue = [0, 0, 0, 0, 0, 0, 0, 0, 7, 0]\nclass = 8"] ;
344 -> 366 ;
367 [label="x[241] <= 79.5\ngini = 0.381\nsamples = 13\nvalue = [0, 0, 16, 0, 0, 0, 4, 0, 1, 0]\nclass = 2"] ;
343 -> 367 ;
368 [label="x[397] <= 62.5\ngini = 0.32\nsamples = 4\nvalue = [0, 0, 0, 0, 0, 0, 4, 0, 1, 0]\nclass = 6"] ;
367 -> 368 ;
369 [label="gini = 0.0\nsamples = 1\nvalue = [0, 0, 0, 0, 0, 0, 0, 0, 1, 0]\nclass = 8"] ;
368 -> 369 ;
370 [label="gini = 0.0\nsamples = 3\nvalue = [0, 0, 0, 0, 0, 0, 4, 0, 0, 0]\nclass = 6"] ;
368 -> 370 ;
371 [label="gini = 0.0\nsamples = 9\nvalue = [0, 0, 16, 0, 0, 0, 0, 0, 0, 0]\nclass = 2"] ;
367 -> 371 ;
372 [label="x[320] <= 5.5\ngini = 0.692\nsamples = 49\nvalue = [0, 0, 28, 1, 2, 1, 9, 5, 35, 2]\nclass = 8"] ;
342 -> 372 ;
373 [label="x[329] <= 33.0\ngini = 0.535\nsamples = 24\nvalue = [0, 0, 27, 1, 0, 0, 3, 5, 4, 1]\nclass = 2"] ;
372 -> 373 ;
374 [label="x[657] <= 187.0\ngini = 0.417\nsamples = 20\nvalue = [0, 0, 27, 1, 0, 0, 0, 3, 4, 1]\nclass = 2"] ;
373 -> 374 ;
375 [label="x[496] <= 127.0\ngini = 0.293\nsamples = 17\nvalue = [0, 0, 25, 1, 0, 0, 0, 3, 0, 1]\nclass = 2"] ;
374 -> 375 ;
376 [label="x[266] <= 75.5\ngini = 0.245\nsamples = 16\nvalue = [0, 0, 25, 1, 0, 0, 0, 3, 0, 0]\nclass = 2"] ;
375 -> 376 ;
377 [label="x[241] <= 40.0\ngini = 0.074\nsamples = 13\nvalue = [0, 0, 25, 1, 0, 0, 0, 0, 0, 0]\nclass = 2"] ;
376 -> 377 ;
378 [label="gini = 0.0\nsamples = 1\nvalue = [0, 0, 0, 1, 0, 0, 0, 0, 0, 0]\nclass = 3"] ;
377 -> 378 ;
379 [label="gini = 0.0\nsamples = 12\nvalue = [0, 0, 25, 0, 0, 0, 0, 0, 0, 0]\nclass = 2"] ;
377 -> 379 ;
380 [label="gini = 0.0\nsamples = 3\nvalue = [0, 0, 0, 0, 0, 0, 0, 3, 0, 0]\nclass = 7"] ;
376 -> 380 ;
381 [label="gini = 0.0\nsamples = 1\nvalue = [0, 0, 0, 0, 0, 0, 0, 0, 0, 1]\nclass = 9"] ;
375 -> 381 ;
382 [label="x[576] <= 145.5\ngini = 0.444\nsamples = 3\nvalue = [0, 0, 2, 0, 0, 0, 0, 0, 4, 0]\nclass = 8"] ;
374 -> 382 ;
383 [label="gini = 0.0\nsamples = 2\nvalue = [0, 0, 0, 0, 0, 0, 0, 0, 4, 0]\nclass = 8"] ;
382 -> 383 ;
384 [label="gini = 0.0\nsamples = 1\nvalue = [0, 0, 2, 0, 0, 0, 0, 0, 0, 0]\nclass = 2"] ;
382 -> 384 ;
385 [label="x[519] <= 65.0\ngini = 0.48\nsamples = 4\nvalue = [0, 0, 0, 0, 0, 0, 3, 2, 0, 0]\nclass = 6"] ;
373 -> 385 ;
386 [label="gini = 0.0\nsamples = 1\nvalue = [0, 0, 0, 0, 0, 0, 0, 2, 0, 0]\nclass = 7"] ;
385 -> 386 ;
387 [label="gini = 0.0\nsamples = 3\nvalue = [0, 0, 0, 0, 0, 0, 3, 0, 0, 0]\nclass = 6"] ;
385 -> 387 ;
388 [label="x[486] <= 48.0\ngini = 0.431\nsamples = 25\nvalue = [0, 0, 1, 0, 2, 1, 6, 0, 31, 1]\nclass = 8"] ;
372 -> 388 ;
389 [label="x[475] <= 71.0\ngini = 0.166\nsamples = 20\nvalue = [0, 0, 1, 0, 1, 0, 0, 0, 31, 1]\nclass = 8"] ;
388 -> 389 ;
390 [label="x[322] <= 221.0\ngini = 0.116\nsamples = 19\nvalue = [0, 0, 0, 0, 1, 0, 0, 0, 31, 1]\nclass = 8"] ;
389 -> 390 ;
391 [label="x[492] <= 13.5\ngini = 0.061\nsamples = 18\nvalue = [0, 0, 0, 0, 0, 0, 0, 0, 31, 1]\nclass = 8"] ;
390 -> 391 ;
392 [label="x[351] <= 233.5\ngini = 0.245\nsamples = 4\nvalue = [0, 0, 0, 0, 0, 0, 0, 0, 6, 1]\nclass = 8"] ;
391 -> 392 ;
393 [label="gini = 0.0\nsamples = 3\nvalue = [0, 0, 0, 0, 0, 0, 0, 0, 6, 0]\nclass = 8"] ;
392 -> 393 ;
394 [label="gini = 0.0\nsamples = 1\nvalue = [0, 0, 0, 0, 0, 0, 0, 0, 0, 1]\nclass = 9"] ;
392 -> 394 ;
395 [label="gini = 0.0\nsamples = 14\nvalue = [0, 0, 0, 0, 0, 0, 0, 0, 25, 0]\nclass = 8"] ;
391 -> 395 ;
396 [label="gini = 0.0\nsamples = 1\nvalue = [0, 0, 0, 0, 1, 0, 0, 0, 0, 0]\nclass = 4"] ;
390 -> 396 ;
397 [label="gini = 0.0\nsamples = 1\nvalue = [0, 0, 1, 0, 0, 0, 0, 0, 0, 0]\nclass = 2"] ;
389 -> 397 ;
398 [label="x[411] <= 198.5\ngini = 0.406\nsamples = 5\nvalue = [0, 0, 0, 0, 1, 1, 6, 0, 0, 0]\nclass = 6"] ;
388 -> 398 ;
399 [label="x[374] <= 125.5\ngini = 0.245\nsamples = 4\nvalue = [0, 0, 0, 0, 0, 1, 6, 0, 0, 0]\nclass = 6"] ;
398 -> 399 ;
400 [label="gini = 0.0\nsamples = 1\nvalue = [0, 0, 0, 0, 0, 1, 0, 0, 0, 0]\nclass = 5"] ;
399 -> 400 ;
401 [label="gini = 0.0\nsamples = 3\nvalue = [0, 0, 0, 0, 0, 0, 6, 0, 0, 0]\nclass = 6"] ;
399 -> 401 ;
402 [label="gini = 0.0\nsamples = 1\nvalue = [0, 0, 0, 0, 1, 0, 0, 0, 0, 0]\nclass = 4"] ;
398 -> 402 ;
403 [label="x[576] <= 46.0\ngini = 0.244\nsamples = 39\nvalue = [2, 0, 0, 0, 2, 0, 52, 0, 2, 2]\nclass = 6"] ;
341 -> 403 ;
404 [label="x[265] <= 18.0\ngini = 0.722\nsamples = 5\nvalue = [1, 0, 0, 0, 2, 0, 1, 0, 2, 0]\nclass = 4"] ;
403 -> 404 ;
405 [label="x[549] <= 25.5\ngini = 0.625\nsamples = 3\nvalue = [1, 0, 0, 0, 2, 0, 1, 0, 0, 0]\nclass = 4"] ;
404 -> 405 ;
406 [label="gini = 0.0\nsamples = 1\nvalue = [0, 0, 0, 0, 2, 0, 0, 0, 0, 0]\nclass = 4"] ;
405 -> 406 ;
407 [label="x[263] <= 194.5\ngini = 0.5\nsamples = 2\nvalue = [1, 0, 0, 0, 0, 0, 1, 0, 0, 0]\nclass = 0"] ;
405 -> 407 ;
408 [label="gini = 0.0\nsamples = 1\nvalue = [0, 0, 0, 0, 0, 0, 1, 0, 0, 0]\nclass = 6"] ;
407 -> 408 ;
409 [label="gini = 0.0\nsamples = 1\nvalue = [1, 0, 0, 0, 0, 0, 0, 0, 0, 0]\nclass = 0"] ;
407 -> 409 ;
410 [label="gini = 0.0\nsamples = 2\nvalue = [0, 0, 0, 0, 0, 0, 0, 0, 2, 0]\nclass = 8"] ;
404 -> 410 ;
411 [label="x[174] <= 167.0\ngini = 0.106\nsamples = 34\nvalue = [1, 0, 0, 0, 0, 0, 51, 0, 0, 2]\nclass = 6"] ;
403 -> 411 ;
412 [label="x[716] <= 59.5\ngini = 0.073\nsamples = 33\nvalue = [0, 0, 0, 0, 0, 0, 51, 0, 0, 2]\nclass = 6"] ;
411 -> 412 ;
413 [label="gini = 0.0\nsamples = 32\nvalue = [0, 0, 0, 0, 0, 0, 51, 0, 0, 0]\nclass = 6"] ;
412 -> 413 ;
414 [label="gini = 0.0\nsamples = 1\nvalue = [0, 0, 0, 0, 0, 0, 0, 0, 0, 2]\nclass = 9"] ;
412 -> 414 ;
415 [label="gini = 0.0\nsamples = 1\nvalue = [1, 0, 0, 0, 0, 0, 0, 0, 0, 0]\nclass = 0"] ;
411 -> 415 ;
416 [label="x[657] <= 3.0\ngini = 0.844\nsamples = 194\nvalue = [6, 26, 21, 12, 58, 25, 23, 11, 81, 29]\nclass = 8"] ;
224 -> 416 ;
417 [label="x[211] <= 5.0\ngini = 0.816\nsamples = 115\nvalue = [6, 26, 20, 1, 55, 5, 22, 5, 5, 26]\nclass = 4"] ;
416 -> 417 ;
418 [label="x[411] <= 2.0\ngini = 0.698\nsamples = 72\nvalue = [2, 22, 15, 0, 51, 3, 14, 0, 0, 1]\nclass = 4"] ;
417 -> 418 ;
419 [label="x[322] <= 197.0\ngini = 0.737\nsamples = 41\nvalue = [0, 22, 13, 0, 7, 3, 12, 0, 0, 0]\nclass = 1"] ;
418 -> 419 ;
420 [label="x[573] <= 102.5\ngini = 0.737\nsamples = 29\nvalue = [0, 3, 13, 0, 7, 3, 12, 0, 0, 0]\nclass = 2"] ;
419 -> 420 ;
421 [label="x[517] <= 25.0\ngini = 0.686\nsamples = 19\nvalue = [0, 3, 12, 0, 7, 3, 1, 0, 0, 0]\nclass = 2"] ;
420 -> 421 ;
422 [label="gini = 0.0\nsamples = 3\nvalue = [0, 3, 0, 0, 0, 0, 0, 0, 0, 0]\nclass = 1"] ;
421 -> 422 ;
423 [label="x[523] <= 9.5\ngini = 0.616\nsamples = 16\nvalue = [0, 0, 12, 0, 7, 3, 1, 0, 0, 0]\nclass = 2"] ;
421 -> 423 ;
424 [label="x[434] <= 104.5\ngini = 0.625\nsamples = 9\nvalue = [0, 0, 3, 0, 6, 3, 0, 0, 0, 0]\nclass = 4"] ;
423 -> 424 ;
425 [label="x[266] <= 106.0\ngini = 0.612\nsamples = 5\nvalue = [0, 0, 3, 0, 1, 3, 0, 0, 0, 0]\nclass = 2"] ;
424 -> 425 ;
426 [label="x[609] <= 14.5\ngini = 0.375\nsamples = 3\nvalue = [0, 0, 3, 0, 1, 0, 0, 0, 0, 0]\nclass = 2"] ;
425 -> 426 ;
427 [label="gini = 0.0\nsamples = 2\nvalue = [0, 0, 3, 0, 0, 0, 0, 0, 0, 0]\nclass = 2"] ;
426 -> 427 ;
428 [label="gini = 0.0\nsamples = 1\nvalue = [0, 0, 0, 0, 1, 0, 0, 0, 0, 0]\nclass = 4"] ;
426 -> 428 ;
429 [label="gini = 0.0\nsamples = 2\nvalue = [0, 0, 0, 0, 0, 3, 0, 0, 0, 0]\nclass = 5"] ;
425 -> 429 ;
430 [label="gini = 0.0\nsamples = 4\nvalue = [0, 0, 0, 0, 5, 0, 0, 0, 0, 0]\nclass = 4"] ;
424 -> 430 ;
431 [label="x[385] <= 51.5\ngini = 0.314\nsamples = 7\nvalue = [0, 0, 9, 0, 1, 0, 1, 0, 0, 0]\nclass = 2"] ;
423 -> 431 ;
432 [label="gini = 0.0\nsamples = 5\nvalue = [0, 0, 9, 0, 0, 0, 0, 0, 0, 0]\nclass = 2"] ;
431 -> 432 ;
433 [label="x[458] <= 125.0\ngini = 0.5\nsamples = 2\nvalue = [0, 0, 0, 0, 1, 0, 1, 0, 0, 0]\nclass = 4"] ;
431 -> 433 ;
434 [label="gini = 0.0\nsamples = 1\nvalue = [0, 0, 0, 0, 1, 0, 0, 0, 0, 0]\nclass = 4"] ;
433 -> 434 ;
435 [label="gini = 0.0\nsamples = 1\nvalue = [0, 0, 0, 0, 0, 0, 1, 0, 0, 0]\nclass = 6"] ;
433 -> 435 ;
436 [label="x[444] <= 98.5\ngini = 0.153\nsamples = 10\nvalue = [0, 0, 1, 0, 0, 0, 11, 0, 0, 0]\nclass = 6"] ;
420 -> 436 ;
437 [label="gini = 0.0\nsamples = 9\nvalue = [0, 0, 0, 0, 0, 0, 11, 0, 0, 0]\nclass = 6"] ;
436 -> 437 ;
438 [label="gini = 0.0\nsamples = 1\nvalue = [0, 0, 1, 0, 0, 0, 0, 0, 0, 0]\nclass = 2"] ;
436 -> 438 ;
439 [label="gini = 0.0\nsamples = 12\nvalue = [0, 19, 0, 0, 0, 0, 0, 0, 0, 0]\nclass = 1"] ;
419 -> 439 ;
440 [label="x[96] <= 0.5\ngini = 0.251\nsamples = 31\nvalue = [2, 0, 2, 0, 44, 0, 2, 0, 0, 1]\nclass = 4"] ;
418 -> 440 ;
441 [label="x[304] <= 25.5\ngini = 0.191\nsamples = 29\nvalue = [2, 0, 1, 0, 44, 0, 1, 0, 0, 1]\nclass = 4"] ;
440 -> 441 ;
442 [label="x[536] <= 73.0\ngini = 0.122\nsamples = 28\nvalue = [0, 0, 1, 0, 44, 0, 1, 0, 0, 1]\nclass = 4"] ;
441 -> 442 ;
443 [label="x[181] <= 137.5\ngini = 0.084\nsamples = 27\nvalue = [0, 0, 0, 0, 44, 0, 1, 0, 0, 1]\nclass = 4"] ;
442 -> 443 ;
444 [label="gini = 0.0\nsamples = 24\nvalue = [0, 0, 0, 0, 42, 0, 0, 0, 0, 0]\nclass = 4"] ;
443 -> 444 ;
445 [label="x[633] <= 129.5\ngini = 0.625\nsamples = 3\nvalue = [0, 0, 0, 0, 2, 0, 1, 0, 0, 1]\nclass = 4"] ;
443 -> 445 ;
446 [label="x[486] <= 120.0\ngini = 0.5\nsamples = 2\nvalue = [0, 0, 0, 0, 0, 0, 1, 0, 0, 1]\nclass = 6"] ;
445 -> 446 ;
447 [label="gini = 0.0\nsamples = 1\nvalue = [0, 0, 0, 0, 0, 0, 0, 0, 0, 1]\nclass = 9"] ;
446 -> 447 ;
448 [label="gini = 0.0\nsamples = 1\nvalue = [0, 0, 0, 0, 0, 0, 1, 0, 0, 0]\nclass = 6"] ;
446 -> 448 ;
449 [label="gini = 0.0\nsamples = 1\nvalue = [0, 0, 0, 0, 2, 0, 0, 0, 0, 0]\nclass = 4"] ;
445 -> 449 ;
450 [label="gini = 0.0\nsamples = 1\nvalue = [0, 0, 1, 0, 0, 0, 0, 0, 0, 0]\nclass = 2"] ;
442 -> 450 ;
451 [label="gini = 0.0\nsamples = 1\nvalue = [2, 0, 0, 0, 0, 0, 0, 0, 0, 0]\nclass = 0"] ;
441 -> 451 ;
452 [label="x[583] <= 97.0\ngini = 0.5\nsamples = 2\nvalue = [0, 0, 1, 0, 0, 0, 1, 0, 0, 0]\nclass = 2"] ;
440 -> 452 ;
453 [label="gini = 0.0\nsamples = 1\nvalue = [0, 0, 0, 0, 0, 0, 1, 0, 0, 0]\nclass = 6"] ;
452 -> 453 ;
454 [label="gini = 0.0\nsamples = 1\nvalue = [0, 0, 1, 0, 0, 0, 0, 0, 0, 0]\nclass = 2"] ;
452 -> 454 ;
455 [label="x[348] <= 4.5\ngini = 0.794\nsamples = 43\nvalue = [4, 4, 5, 1, 4, 2, 8, 5, 5, 25]\nclass = 9"] ;
417 -> 455 ;
456 [label="x[411] <= 28.0\ngini = 0.634\nsamples = 29\nvalue = [4, 0, 5, 1, 0, 1, 6, 2, 0, 25]\nclass = 9"] ;
455 -> 456 ;
457 [label="x[213] <= 0.5\ngini = 0.782\nsamples = 11\nvalue = [4, 0, 1, 1, 0, 1, 5, 2, 0, 1]\nclass = 6"] ;
456 -> 457 ;
458 [label="x[580] <= 6.0\ngini = 0.278\nsamples = 4\nvalue = [0, 0, 0, 0, 0, 0, 5, 1, 0, 0]\nclass = 6"] ;
457 -> 458 ;
459 [label="gini = 0.0\nsamples = 1\nvalue = [0, 0, 0, 0, 0, 0, 0, 1, 0, 0]\nclass = 7"] ;
458 -> 459 ;
460 [label="gini = 0.0\nsamples = 3\nvalue = [0, 0, 0, 0, 0, 0, 5, 0, 0, 0]\nclass = 6"] ;
458 -> 460 ;
461 [label="x[543] <= 109.0\ngini = 0.741\nsamples = 7\nvalue = [4, 0, 1, 1, 0, 1, 0, 1, 0, 1]\nclass = 0"] ;
457 -> 461 ;
462 [label="x[608] <= 112.5\ngini = 0.8\nsamples = 5\nvalue = [0, 0, 1, 1, 0, 1, 0, 1, 0, 1]\nclass = 2"] ;
461 -> 462 ;
463 [label="x[565] <= 118.5\ngini = 0.667\nsamples = 3\nvalue = [0, 0, 1, 1, 0, 0, 0, 1, 0, 0]\nclass = 2"] ;
462 -> 463 ;
464 [label="x[488] <= 127.0\ngini = 0.5\nsamples = 2\nvalue = [0, 0, 0, 1, 0, 0, 0, 1, 0, 0]\nclass = 3"] ;
463 -> 464 ;
465 [label="gini = 0.0\nsamples = 1\nvalue = [0, 0, 0, 1, 0, 0, 0, 0, 0, 0]\nclass = 3"] ;
464 -> 465 ;
466 [label="gini = 0.0\nsamples = 1\nvalue = [0, 0, 0, 0, 0, 0, 0, 1, 0, 0]\nclass = 7"] ;
464 -> 466 ;
467 [label="gini = 0.0\nsamples = 1\nvalue = [0, 0, 1, 0, 0, 0, 0, 0, 0, 0]\nclass = 2"] ;
463 -> 467 ;
468 [label="x[345] <= 109.0\ngini = 0.5\nsamples = 2\nvalue = [0, 0, 0, 0, 0, 1, 0, 0, 0, 1]\nclass = 5"] ;
462 -> 468 ;
469 [label="gini = 0.0\nsamples = 1\nvalue = [0, 0, 0, 0, 0, 0, 0, 0, 0, 1]\nclass = 9"] ;
468 -> 469 ;
470 [label="gini = 0.0\nsamples = 1\nvalue = [0, 0, 0, 0, 0, 1, 0, 0, 0, 0]\nclass = 5"] ;
468 -> 470 ;
471 [label="gini = 0.0\nsamples = 2\nvalue = [4, 0, 0, 0, 0, 0, 0, 0, 0, 0]\nclass = 0"] ;
461 -> 471 ;
472 [label="x[175] <= 166.0\ngini = 0.295\nsamples = 18\nvalue = [0, 0, 4, 0, 0, 0, 1, 0, 0, 24]\nclass = 9"] ;
456 -> 472 ;
473 [label="x[300] <= 253.0\ngini = 0.145\nsamples = 16\nvalue = [0, 0, 1, 0, 0, 0, 1, 0, 0, 24]\nclass = 9"] ;
472 -> 473 ;
474 [label="x[500] <= 124.5\ngini = 0.077\nsamples = 15\nvalue = [0, 0, 0, 0, 0, 0, 1, 0, 0, 24]\nclass = 9"] ;
473 -> 474 ;
475 [label="gini = 0.0\nsamples = 14\nvalue = [0, 0, 0, 0, 0, 0, 0, 0, 0, 24]\nclass = 9"] ;
474 -> 475 ;
476 [label="gini = 0.0\nsamples = 1\nvalue = [0, 0, 0, 0, 0, 0, 1, 0, 0, 0]\nclass = 6"] ;
474 -> 476 ;
477 [label="gini = 0.0\nsamples = 1\nvalue = [0, 0, 1, 0, 0, 0, 0, 0, 0, 0]\nclass = 2"] ;
473 -> 477 ;
478 [label="gini = 0.0\nsamples = 2\nvalue = [0, 0, 3, 0, 0, 0, 0, 0, 0, 0]\nclass = 2"] ;
472 -> 478 ;
479 [label="x[288] <= 120.0\ngini = 0.803\nsamples = 14\nvalue = [0, 4, 0, 0, 4, 1, 2, 3, 5, 0]\nclass = 8"] ;
455 -> 479 ;
480 [label="x[349] <= 252.5\ngini = 0.791\nsamples = 11\nvalue = [0, 4, 0, 0, 4, 1, 2, 3, 1, 0]\nclass = 1"] ;
479 -> 480 ;
481 [label="x[403] <= 16.0\ngini = 0.7\nsamples = 7\nvalue = [0, 0, 0, 0, 4, 1, 2, 3, 0, 0]\nclass = 4"] ;
480 -> 481 ;
482 [label="x[239] <= 161.5\ngini = 0.48\nsamples = 3\nvalue = [0, 0, 0, 0, 0, 0, 2, 3, 0, 0]\nclass = 7"] ;
481 -> 482 ;
483 [label="gini = 0.0\nsamples = 2\nvalue = [0, 0, 0, 0, 0, 0, 2, 0, 0, 0]\nclass = 6"] ;
482 -> 483 ;
484 [label="gini = 0.0\nsamples = 1\nvalue = [0, 0, 0, 0, 0, 0, 0, 3, 0, 0]\nclass = 7"] ;
482 -> 484 ;
485 [label="x[622] <= 46.0\ngini = 0.32\nsamples = 4\nvalue = [0, 0, 0, 0, 4, 1, 0, 0, 0, 0]\nclass = 4"] ;
481 -> 485 ;
486 [label="gini = 0.0\nsamples = 3\nvalue = [0, 0, 0, 0, 4, 0, 0, 0, 0, 0]\nclass = 4"] ;
485 -> 486 ;
487 [label="gini = 0.0\nsamples = 1\nvalue = [0, 0, 0, 0, 0, 1, 0, 0, 0, 0]\nclass = 5"] ;
485 -> 487 ;
488 [label="x[490] <= 162.0\ngini = 0.32\nsamples = 4\nvalue = [0, 4, 0, 0, 0, 0, 0, 0, 1, 0]\nclass = 1"] ;
480 -> 488 ;
489 [label="gini = 0.0\nsamples = 1\nvalue = [0, 0, 0, 0, 0, 0, 0, 0, 1, 0]\nclass = 8"] ;
488 -> 489 ;
490 [label="gini = 0.0\nsamples = 3\nvalue = [0, 4, 0, 0, 0, 0, 0, 0, 0, 0]\nclass = 1"] ;
488 -> 490 ;
491 [label="gini = 0.0\nsamples = 3\nvalue = [0, 0, 0, 0, 0, 0, 0, 0, 4, 0]\nclass = 8"] ;
479 -> 491 ;
492 [label="x[380] <= 26.5\ngini = 0.566\nsamples = 79\nvalue = [0, 0, 1, 11, 3, 20, 1, 6, 76, 3]\nclass = 8"] ;
416 -> 492 ;
493 [label="x[212] <= 66.5\ngini = 0.513\nsamples = 20\nvalue = [0, 0, 1, 3, 1, 19, 1, 0, 0, 3]\nclass = 5"] ;
492 -> 493 ;
494 [label="x[215] <= 192.0\ngini = 0.741\nsamples = 6\nvalue = [0, 0, 0, 3, 1, 1, 1, 0, 0, 3]\nclass = 3"] ;
493 -> 494 ;
495 [label="x[235] <= 116.0\ngini = 0.667\nsamples = 5\nvalue = [0, 0, 0, 3, 1, 1, 1, 0, 0, 0]\nclass = 3"] ;
494 -> 495 ;
496 [label="gini = 0.0\nsamples = 2\nvalue = [0, 0, 0, 3, 0, 0, 0, 0, 0, 0]\nclass = 3"] ;
495 -> 496 ;
497 [label="x[182] <= 111.5\ngini = 0.667\nsamples = 3\nvalue = [0, 0, 0, 0, 1, 1, 1, 0, 0, 0]\nclass = 4"] ;
495 -> 497 ;
498 [label="gini = 0.0\nsamples = 1\nvalue = [0, 0, 0, 0, 1, 0, 0, 0, 0, 0]\nclass = 4"] ;
497 -> 498 ;
499 [label="x[658] <= 249.0\ngini = 0.5\nsamples = 2\nvalue = [0, 0, 0, 0, 0, 1, 1, 0, 0, 0]\nclass = 5"] ;
497 -> 499 ;
500 [label="gini = 0.0\nsamples = 1\nvalue = [0, 0, 0, 0, 0, 0, 1, 0, 0, 0]\nclass = 6"] ;
499 -> 500 ;
501 [label="gini = 0.0\nsamples = 1\nvalue = [0, 0, 0, 0, 0, 1, 0, 0, 0, 0]\nclass = 5"] ;
499 -> 501 ;
502 [label="gini = 0.0\nsamples = 1\nvalue = [0, 0, 0, 0, 0, 0, 0, 0, 0, 3]\nclass = 9"] ;
494 -> 502 ;
503 [label="x[567] <= 5.0\ngini = 0.1\nsamples = 14\nvalue = [0, 0, 1, 0, 0, 18, 0, 0, 0, 0]\nclass = 5"] ;
493 -> 503 ;
504 [label="gini = 0.0\nsamples = 13\nvalue = [0, 0, 0, 0, 0, 18, 0, 0, 0, 0]\nclass = 5"] ;
503 -> 504 ;
505 [label="gini = 0.0\nsamples = 1\nvalue = [0, 0, 1, 0, 0, 0, 0, 0, 0, 0]\nclass = 2"] ;
503 -> 505 ;
506 [label="x[323] <= 214.5\ngini = 0.32\nsamples = 59\nvalue = [0, 0, 0, 8, 2, 1, 0, 6, 76, 0]\nclass = 8"] ;
492 -> 506 ;
507 [label="x[467] <= 26.5\ngini = 0.238\nsamples = 54\nvalue = [0, 0, 0, 2, 2, 1, 0, 6, 73, 0]\nclass = 8"] ;
506 -> 507 ;
508 [label="x[231] <= 248.5\ngini = 0.1\nsamples = 49\nvalue = [0, 0, 0, 2, 0, 1, 0, 1, 73, 0]\nclass = 8"] ;
507 -> 508 ;
509 [label="x[297] <= 9.5\ngini = 0.077\nsamples = 48\nvalue = [0, 0, 0, 2, 0, 1, 0, 0, 73, 0]\nclass = 8"] ;
508 -> 509 ;
510 [label="x[546] <= 142.0\ngini = 0.5\nsamples = 2\nvalue = [0, 0, 0, 0, 0, 1, 0, 0, 1, 0]\nclass = 5"] ;
509 -> 510 ;
511 [label="gini = 0.0\nsamples = 1\nvalue = [0, 0, 0, 0, 0, 0, 0, 0, 1, 0]\nclass = 8"] ;
510 -> 511 ;
512 [label="gini = 0.0\nsamples = 1\nvalue = [0, 0, 0, 0, 0, 1, 0, 0, 0, 0]\nclass = 5"] ;
510 -> 512 ;
513 [label="x[686] <= 2.0\ngini = 0.053\nsamples = 46\nvalue = [0, 0, 0, 2, 0, 0, 0, 0, 72, 0]\nclass = 8"] ;
509 -> 513 ;
514 [label="x[176] <= 168.5\ngini = 0.219\nsamples = 10\nvalue = [0, 0, 0, 2, 0, 0, 0, 0, 14, 0]\nclass = 8"] ;
513 -> 514 ;
515 [label="gini = 0.0\nsamples = 8\nvalue = [0, 0, 0, 0, 0, 0, 0, 0, 14, 0]\nclass = 8"] ;
514 -> 515 ;
516 [label="gini = 0.0\nsamples = 2\nvalue = [0, 0, 0, 2, 0, 0, 0, 0, 0, 0]\nclass = 3"] ;
514 -> 516 ;
517 [label="gini = 0.0\nsamples = 36\nvalue = [0, 0, 0, 0, 0, 0, 0, 0, 58, 0]\nclass = 8"] ;
513 -> 517 ;
518 [label="gini = 0.0\nsamples = 1\nvalue = [0, 0, 0, 0, 0, 0, 0, 1, 0, 0]\nclass = 7"] ;
508 -> 518 ;
519 [label="x[401] <= 126.5\ngini = 0.408\nsamples = 5\nvalue = [0, 0, 0, 0, 2, 0, 0, 5, 0, 0]\nclass = 7"] ;
507 -> 519 ;
520 [label="gini = 0.0\nsamples = 4\nvalue = [0, 0, 0, 0, 0, 0, 0, 5, 0, 0]\nclass = 7"] ;
519 -> 520 ;
521 [label="gini = 0.0\nsamples = 1\nvalue = [0, 0, 0, 0, 2, 0, 0, 0, 0, 0]\nclass = 4"] ;
519 -> 521 ;
522 [label="x[437] <= 1.0\ngini = 0.444\nsamples = 5\nvalue = [0, 0, 0, 6, 0, 0, 0, 0, 3, 0]\nclass = 3"] ;
506 -> 522 ;
523 [label="gini = 0.0\nsamples = 3\nvalue = [0, 0, 0, 6, 0, 0, 0, 0, 0, 0]\nclass = 3"] ;
522 -> 523 ;
524 [label="gini = 0.0\nsamples = 2\nvalue = [0, 0, 0, 0, 0, 0, 0, 0, 3, 0]\nclass = 8"] ;
522 -> 524 ;
525 [label="x[514] <= 8.5\ngini = 0.83\nsamples = 1372\nvalue = [145, 18, 111, 216, 162, 540, 473, 23, 395, 66]\nclass = 5"] ;
3 -> 525 ;
526 [label="x[379] <= 55.5\ngini = 0.754\nsamples = 708\nvalue = [14, 15, 45, 199, 102, 472, 47, 20, 123, 61]\nclass = 5"] ;
525 -> 526 ;
527 [label="x[657] <= 0.5\ngini = 0.53\nsamples = 426\nvalue = [13, 11, 38, 30, 56, 440, 33, 5, 8, 20]\nclass = 5"] ;
526 -> 527 ;
528 [label="x[663] <= 15.0\ngini = 0.799\nsamples = 135\nvalue = [2, 7, 26, 3, 51, 57, 31, 2, 6, 11]\nclass = 5"] ;
527 -> 528 ;
529 [label="x[412] <= 6.5\ngini = 0.776\nsamples = 98\nvalue = [2, 5, 26, 1, 17, 47, 31, 2, 1, 5]\nclass = 5"] ;
528 -> 529 ;
530 [label="x[652] <= 6.0\ngini = 0.699\nsamples = 77\nvalue = [0, 5, 17, 1, 4, 47, 31, 0, 1, 2]\nclass = 5"] ;
529 -> 530 ;
531 [label="x[243] <= 1.0\ngini = 0.742\nsamples = 59\nvalue = [0, 5, 17, 1, 4, 21, 31, 0, 1, 2]\nclass = 6"] ;
530 -> 531 ;
532 [label="x[322] <= 105.5\ngini = 0.695\nsamples = 47\nvalue = [0, 5, 16, 1, 2, 9, 31, 0, 1, 1]\nclass = 6"] ;
531 -> 532 ;
533 [label="x[185] <= 147.5\ngini = 0.592\nsamples = 38\nvalue = [0, 2, 5, 1, 2, 8, 31, 0, 1, 1]\nclass = 6"] ;
532 -> 533 ;
534 [label="x[499] <= 60.5\ngini = 0.426\nsamples = 30\nvalue = [0, 2, 5, 1, 0, 0, 29, 0, 1, 1]\nclass = 6"] ;
533 -> 534 ;
535 [label="x[326] <= 8.5\ngini = 0.266\nsamples = 26\nvalue = [0, 2, 0, 1, 0, 0, 29, 0, 1, 1]\nclass = 6"] ;
534 -> 535 ;
536 [label="x[239] <= 164.5\ngini = 0.222\nsamples = 25\nvalue = [0, 2, 0, 1, 0, 0, 29, 0, 1, 0]\nclass = 6"] ;
535 -> 536 ;
537 [label="x[377] <= 245.5\ngini = 0.121\nsamples = 23\nvalue = [0, 2, 0, 0, 0, 0, 29, 0, 0, 0]\nclass = 6"] ;
536 -> 537 ;
538 [label="x[320] <= 127.0\ngini = 0.069\nsamples = 21\nvalue = [0, 1, 0, 0, 0, 0, 27, 0, 0, 0]\nclass = 6"] ;
537 -> 538 ;
539 [label="x[322] <= 71.5\ngini = 0.32\nsamples = 5\nvalue = [0, 1, 0, 0, 0, 0, 4, 0, 0, 0]\nclass = 6"] ;
538 -> 539 ;
540 [label="gini = 0.0\nsamples = 4\nvalue = [0, 0, 0, 0, 0, 0, 4, 0, 0, 0]\nclass = 6"] ;
539 -> 540 ;
541 [label="gini = 0.0\nsamples = 1\nvalue = [0, 1, 0, 0, 0, 0, 0, 0, 0, 0]\nclass = 1"] ;
539 -> 541 ;
542 [label="gini = 0.0\nsamples = 16\nvalue = [0, 0, 0, 0, 0, 0, 23, 0, 0, 0]\nclass = 6"] ;
538 -> 542 ;
543 [label="x[631] <= 69.5\ngini = 0.444\nsamples = 2\nvalue = [0, 1, 0, 0, 0, 0, 2, 0, 0, 0]\nclass = 6"] ;
537 -> 543 ;
544 [label="gini = 0.0\nsamples = 1\nvalue = [0, 0, 0, 0, 0, 0, 2, 0, 0, 0]\nclass = 6"] ;
543 -> 544 ;
545 [label="gini = 0.0\nsamples = 1\nvalue = [0, 1, 0, 0, 0, 0, 0, 0, 0, 0]\nclass = 1"] ;
543 -> 545 ;
546 [label="x[495] <= 3.0\ngini = 0.5\nsamples = 2\nvalue = [0, 0, 0, 1, 0, 0, 0, 0, 1, 0]\nclass = 3"] ;
536 -> 546 ;
547 [label="gini = 0.0\nsamples = 1\nvalue = [0, 0, 0, 1, 0, 0, 0, 0, 0, 0]\nclass = 3"] ;
546 -> 547 ;
548 [label="gini = 0.0\nsamples = 1\nvalue = [0, 0, 0, 0, 0, 0, 0, 0, 1, 0]\nclass = 8"] ;
546 -> 548 ;
549 [label="gini = 0.0\nsamples = 1\nvalue = [0, 0, 0, 0, 0, 0, 0, 0, 0, 1]\nclass = 9"] ;
535 -> 549 ;
550 [label="gini = 0.0\nsamples = 4\nvalue = [0, 0, 5, 0, 0, 0, 0, 0, 0, 0]\nclass = 2"] ;
534 -> 550 ;
551 [label="x[487] <= 224.5\ngini = 0.5\nsamples = 8\nvalue = [0, 0, 0, 0, 2, 8, 2, 0, 0, 0]\nclass = 5"] ;
533 -> 551 ;
552 [label="x[631] <= 13.0\ngini = 0.32\nsamples = 6\nvalue = [0, 0, 0, 0, 2, 8, 0, 0, 0, 0]\nclass = 5"] ;
551 -> 552 ;
553 [label="x[344] <= 61.5\ngini = 0.444\nsamples = 2\nvalue = [0, 0, 0, 0, 2, 1, 0, 0, 0, 0]\nclass = 4"] ;
552 -> 553 ;
554 [label="gini = 0.0\nsamples = 1\nvalue = [0, 0, 0, 0, 0, 1, 0, 0, 0, 0]\nclass = 5"] ;
553 -> 554 ;
555 [label="gini = 0.0\nsamples = 1\nvalue = [0, 0, 0, 0, 2, 0, 0, 0, 0, 0]\nclass = 4"] ;
553 -> 555 ;
556 [label="gini = 0.0\nsamples = 4\nvalue = [0, 0, 0, 0, 0, 7, 0, 0, 0, 0]\nclass = 5"] ;
552 -> 556 ;
557 [label="gini = 0.0\nsamples = 2\nvalue = [0, 0, 0, 0, 0, 0, 2, 0, 0, 0]\nclass = 6"] ;
551 -> 557 ;
558 [label="x[378] <= 159.5\ngini = 0.418\nsamples = 9\nvalue = [0, 3, 11, 0, 0, 1, 0, 0, 0, 0]\nclass = 2"] ;
532 -> 558 ;
559 [label="x[328] <= 68.5\ngini = 0.18\nsamples = 6\nvalue = [0, 0, 9, 0, 0, 1, 0, 0, 0, 0]\nclass = 2"] ;
558 -> 559 ;
560 [label="gini = 0.0\nsamples = 5\nvalue = [0, 0, 9, 0, 0, 0, 0, 0, 0, 0]\nclass = 2"] ;
559 -> 560 ;
561 [label="gini = 0.0\nsamples = 1\nvalue = [0, 0, 0, 0, 0, 1, 0, 0, 0, 0]\nclass = 5"] ;
559 -> 561 ;
562 [label="x[473] <= 6.5\ngini = 0.48\nsamples = 3\nvalue = [0, 3, 2, 0, 0, 0, 0, 0, 0, 0]\nclass = 1"] ;
558 -> 562 ;
563 [label="gini = 0.0\nsamples = 2\nvalue = [0, 3, 0, 0, 0, 0, 0, 0, 0, 0]\nclass = 1"] ;
562 -> 563 ;
564 [label="gini = 0.0\nsamples = 1\nvalue = [0, 0, 2, 0, 0, 0, 0, 0, 0, 0]\nclass = 2"] ;
562 -> 564 ;
565 [label="x[408] <= 121.0\ngini = 0.414\nsamples = 12\nvalue = [0, 0, 1, 0, 2, 12, 0, 0, 0, 1]\nclass = 5"] ;
531 -> 565 ;
566 [label="x[484] <= 46.0\ngini = 0.255\nsamples = 11\nvalue = [0, 0, 1, 0, 0, 12, 0, 0, 0, 1]\nclass = 5"] ;
565 -> 566 ;
567 [label="gini = 0.0\nsamples = 9\nvalue = [0, 0, 0, 0, 0, 12, 0, 0, 0, 0]\nclass = 5"] ;
566 -> 567 ;
568 [label="x[273] <= 230.0\ngini = 0.5\nsamples = 2\nvalue = [0, 0, 1, 0, 0, 0, 0, 0, 0, 1]\nclass = 2"] ;
566 -> 568 ;
569 [label="gini = 0.0\nsamples = 1\nvalue = [0, 0, 1, 0, 0, 0, 0, 0, 0, 0]\nclass = 2"] ;
568 -> 569 ;
570 [label="gini = 0.0\nsamples = 1\nvalue = [0, 0, 0, 0, 0, 0, 0, 0, 0, 1]\nclass = 9"] ;
568 -> 570 ;
571 [label="gini = 0.0\nsamples = 1\nvalue = [0, 0, 0, 0, 2, 0, 0, 0, 0, 0]\nclass = 4"] ;
565 -> 571 ;
572 [label="gini = 0.0\nsamples = 18\nvalue = [0, 0, 0, 0, 0, 26, 0, 0, 0, 0]\nclass = 5"] ;
530 -> 572 ;
573 [label="x[547] <= 81.0\ngini = 0.683\nsamples = 21\nvalue = [2, 0, 9, 0, 13, 0, 0, 2, 0, 3]\nclass = 4"] ;
529 -> 573 ;
574 [label="x[267] <= 33.0\ngini = 0.457\nsamples = 12\nvalue = [0, 0, 0, 0, 12, 0, 0, 2, 0, 3]\nclass = 4"] ;
573 -> 574 ;
575 [label="x[575] <= 58.5\ngini = 0.245\nsamples = 10\nvalue = [0, 0, 0, 0, 12, 0, 0, 0, 0, 2]\nclass = 4"] ;
574 -> 575 ;
576 [label="gini = 0.0\nsamples = 9\nvalue = [0, 0, 0, 0, 12, 0, 0, 0, 0, 0]\nclass = 4"] ;
575 -> 576 ;
577 [label="gini = 0.0\nsamples = 1\nvalue = [0, 0, 0, 0, 0, 0, 0, 0, 0, 2]\nclass = 9"] ;
575 -> 577 ;
578 [label="x[354] <= 73.5\ngini = 0.444\nsamples = 2\nvalue = [0, 0, 0, 0, 0, 0, 0, 2, 0, 1]\nclass = 7"] ;
574 -> 578 ;
579 [label="gini = 0.0\nsamples = 1\nvalue = [0, 0, 0, 0, 0, 0, 0, 2, 0, 0]\nclass = 7"] ;
578 -> 579 ;
580 [label="gini = 0.0\nsamples = 1\nvalue = [0, 0, 0, 0, 0, 0, 0, 0, 0, 1]\nclass = 9"] ;
578 -> 580 ;
581 [label="x[219] <= 2.5\ngini = 0.403\nsamples = 9\nvalue = [2, 0, 9, 0, 1, 0, 0, 0, 0, 0]\nclass = 2"] ;
573 -> 581 ;
582 [label="gini = 0.0\nsamples = 6\nvalue = [0, 0, 9, 0, 0, 0, 0, 0, 0, 0]\nclass = 2"] ;
581 -> 582 ;
583 [label="x[660] <= 126.5\ngini = 0.444\nsamples = 3\nvalue = [2, 0, 0, 0, 1, 0, 0, 0, 0, 0]\nclass = 0"] ;
581 -> 583 ;
584 [label="gini = 0.0\nsamples = 2\nvalue = [2, 0, 0, 0, 0, 0, 0, 0, 0, 0]\nclass = 0"] ;
583 -> 584 ;
585 [label="gini = 0.0\nsamples = 1\nvalue = [0, 0, 0, 0, 1, 0, 0, 0, 0, 0]\nclass = 4"] ;
583 -> 585 ;
586 [label="x[355] <= 6.0\ngini = 0.619\nsamples = 37\nvalue = [0, 2, 0, 2, 34, 10, 0, 0, 5, 6]\nclass = 4"] ;
528 -> 586 ;
587 [label="x[211] <= 176.5\ngini = 0.778\nsamples = 19\nvalue = [0, 2, 0, 2, 5, 10, 0, 0, 5, 4]\nclass = 5"] ;
586 -> 587 ;
588 [label="x[516] <= 158.0\ngini = 0.79\nsamples = 12\nvalue = [0, 2, 0, 2, 5, 1, 0, 0, 5, 3]\nclass = 4"] ;
587 -> 588 ;
589 [label="x[690] <= 252.5\ngini = 0.722\nsamples = 9\nvalue = [0, 1, 0, 2, 5, 1, 0, 0, 0, 3]\nclass = 4"] ;
588 -> 589 ;
590 [label="x[238] <= 130.0\ngini = 0.617\nsamples = 7\nvalue = [0, 1, 0, 2, 5, 1, 0, 0, 0, 0]\nclass = 4"] ;
589 -> 590 ;
591 [label="x[548] <= 211.0\ngini = 0.278\nsamples = 5\nvalue = [0, 1, 0, 0, 5, 0, 0, 0, 0, 0]\nclass = 4"] ;
590 -> 591 ;
592 [label="gini = 0.0\nsamples = 4\nvalue = [0, 0, 0, 0, 5, 0, 0, 0, 0, 0]\nclass = 4"] ;
591 -> 592 ;
593 [label="gini = 0.0\nsamples = 1\nvalue = [0, 1, 0, 0, 0, 0, 0, 0, 0, 0]\nclass = 1"] ;
591 -> 593 ;
594 [label="x[146] <= 60.0\ngini = 0.444\nsamples = 2\nvalue = [0, 0, 0, 2, 0, 1, 0, 0, 0, 0]\nclass = 3"] ;
590 -> 594 ;
595 [label="gini = 0.0\nsamples = 1\nvalue = [0, 0, 0, 0, 0, 1, 0, 0, 0, 0]\nclass = 5"] ;
594 -> 595 ;
596 [label="gini = 0.0\nsamples = 1\nvalue = [0, 0, 0, 2, 0, 0, 0, 0, 0, 0]\nclass = 3"] ;
594 -> 596 ;
597 [label="gini = 0.0\nsamples = 2\nvalue = [0, 0, 0, 0, 0, 0, 0, 0, 0, 3]\nclass = 9"] ;
589 -> 597 ;
598 [label="x[631] <= 128.5\ngini = 0.278\nsamples = 3\nvalue = [0, 1, 0, 0, 0, 0, 0, 0, 5, 0]\nclass = 8"] ;
588 -> 598 ;
599 [label="gini = 0.0\nsamples = 2\nvalue = [0, 0, 0, 0, 0, 0, 0, 0, 5, 0]\nclass = 8"] ;
598 -> 599 ;
600 [label="gini = 0.0\nsamples = 1\nvalue = [0, 1, 0, 0, 0, 0, 0, 0, 0, 0]\nclass = 1"] ;
598 -> 600 ;
601 [label="x[374] <= 52.0\ngini = 0.18\nsamples = 7\nvalue = [0, 0, 0, 0, 0, 9, 0, 0, 0, 1]\nclass = 5"] ;
587 -> 601 ;
602 [label="gini = 0.0\nsamples = 1\nvalue = [0, 0, 0, 0, 0, 0, 0, 0, 0, 1]\nclass = 9"] ;
601 -> 602 ;
603 [label="gini = 0.0\nsamples = 6\nvalue = [0, 0, 0, 0, 0, 9, 0, 0, 0, 0]\nclass = 5"] ;
601 -> 603 ;
604 [label="x[211] <= 127.5\ngini = 0.121\nsamples = 18\nvalue = [0, 0, 0, 0, 29, 0, 0, 0, 0, 2]\nclass = 4"] ;
586 -> 604 ;
605 [label="gini = 0.0\nsamples = 17\nvalue = [0, 0, 0, 0, 29, 0, 0, 0, 0, 0]\nclass = 4"] ;
604 -> 605 ;
606 [label="gini = 0.0\nsamples = 1\nvalue = [0, 0, 0, 0, 0, 0, 0, 0, 0, 2]\nclass = 9"] ;
604 -> 606 ;
607 [label="x[511] <= 1.0\ngini = 0.295\nsamples = 291\nvalue = [11, 4, 12, 27, 5, 383, 2, 3, 2, 9]\nclass = 5"] ;
527 -> 607 ;
608 [label="x[290] <= 0.5\ngini = 0.222\nsamples = 274\nvalue = [1, 4, 0, 27, 4, 380, 2, 3, 2, 9]\nclass = 5"] ;
607 -> 608 ;
609 [label="x[201] <= 10.5\ngini = 0.564\nsamples = 59\nvalue = [0, 4, 0, 26, 2, 48, 1, 0, 2, 0]\nclass = 5"] ;
608 -> 609 ;
610 [label="x[190] <= 20.0\ngini = 0.534\nsamples = 55\nvalue = [0, 4, 0, 19, 2, 48, 1, 0, 2, 0]\nclass = 5"] ;
609 -> 610 ;
611 [label="x[347] <= 25.0\ngini = 0.644\nsamples = 37\nvalue = [0, 4, 0, 19, 2, 24, 1, 0, 2, 0]\nclass = 5"] ;
610 -> 611 ;
612 [label="x[324] <= 49.0\ngini = 0.719\nsamples = 11\nvalue = [0, 4, 0, 7, 1, 1, 1, 0, 2, 0]\nclass = 3"] ;
611 -> 612 ;
613 [label="x[572] <= 25.0\ngini = 0.716\nsamples = 7\nvalue = [0, 4, 0, 0, 1, 1, 1, 0, 2, 0]\nclass = 1"] ;
612 -> 613 ;
614 [label="x[371] <= 158.5\ngini = 0.625\nsamples = 3\nvalue = [0, 0, 0, 0, 1, 1, 0, 0, 2, 0]\nclass = 8"] ;
613 -> 614 ;
615 [label="gini = 0.0\nsamples = 1\nvalue = [0, 0, 0, 0, 0, 0, 0, 0, 2, 0]\nclass = 8"] ;
614 -> 615 ;
616 [label="x[220] <= 63.5\ngini = 0.5\nsamples = 2\nvalue = [0, 0, 0, 0, 1, 1, 0, 0, 0, 0]\nclass = 4"] ;
614 -> 616 ;
617 [label="gini = 0.0\nsamples = 1\nvalue = [0, 0, 0, 0, 0, 1, 0, 0, 0, 0]\nclass = 5"] ;
616 -> 617 ;
618 [label="gini = 0.0\nsamples = 1\nvalue = [0, 0, 0, 0, 1, 0, 0, 0, 0, 0]\nclass = 4"] ;
616 -> 618 ;
619 [label="x[432] <= 253.5\ngini = 0.32\nsamples = 4\nvalue = [0, 4, 0, 0, 0, 0, 1, 0, 0, 0]\nclass = 1"] ;
613 -> 619 ;
620 [label="gini = 0.0\nsamples = 3\nvalue = [0, 4, 0, 0, 0, 0, 0, 0, 0, 0]\nclass = 1"] ;
619 -> 620 ;
621 [label="gini = 0.0\nsamples = 1\nvalue = [0, 0, 0, 0, 0, 0, 1, 0, 0, 0]\nclass = 6"] ;
619 -> 621 ;
622 [label="gini = 0.0\nsamples = 4\nvalue = [0, 0, 0, 7, 0, 0, 0, 0, 0, 0]\nclass = 3"] ;
612 -> 622 ;
623 [label="x[605] <= 187.5\ngini = 0.48\nsamples = 26\nvalue = [0, 0, 0, 12, 1, 23, 0, 0, 0, 0]\nclass = 5"] ;
611 -> 623 ;
624 [label="x[207] <= 121.5\ngini = 0.288\nsamples = 16\nvalue = [0, 0, 0, 3, 1, 20, 0, 0, 0, 0]\nclass = 5"] ;
623 -> 624 ;
625 [label="x[178] <= 54.5\ngini = 0.165\nsamples = 14\nvalue = [0, 0, 0, 2, 0, 20, 0, 0, 0, 0]\nclass = 5"] ;
624 -> 625 ;
626 [label="gini = 0.0\nsamples = 12\nvalue = [0, 0, 0, 0, 0, 20, 0, 0, 0, 0]\nclass = 5"] ;
625 -> 626 ;
627 [label="gini = 0.0\nsamples = 2\nvalue = [0, 0, 0, 2, 0, 0, 0, 0, 0, 0]\nclass = 3"] ;
625 -> 627 ;
628 [label="x[438] <= 44.5\ngini = 0.5\nsamples = 2\nvalue = [0, 0, 0, 1, 1, 0, 0, 0, 0, 0]\nclass = 3"] ;
624 -> 628 ;
629 [label="gini = 0.0\nsamples = 1\nvalue = [0, 0, 0, 1, 0, 0, 0, 0, 0, 0]\nclass = 3"] ;
628 -> 629 ;
630 [label="gini = 0.0\nsamples = 1\nvalue = [0, 0, 0, 0, 1, 0, 0, 0, 0, 0]\nclass = 4"] ;
628 -> 630 ;
631 [label="x[158] <= 84.5\ngini = 0.375\nsamples = 10\nvalue = [0, 0, 0, 9, 0, 3, 0, 0, 0, 0]\nclass = 3"] ;
623 -> 631 ;
632 [label="gini = 0.0\nsamples = 6\nvalue = [0, 0, 0, 8, 0, 0, 0, 0, 0, 0]\nclass = 3"] ;
631 -> 632 ;
633 [label="x[344] <= 4.0\ngini = 0.375\nsamples = 4\nvalue = [0, 0, 0, 1, 0, 3, 0, 0, 0, 0]\nclass = 5"] ;
631 -> 633 ;
634 [label="gini = 0.0\nsamples = 3\nvalue = [0, 0, 0, 0, 0, 3, 0, 0, 0, 0]\nclass = 5"] ;
633 -> 634 ;
635 [label="gini = 0.0\nsamples = 1\nvalue = [0, 0, 0, 1, 0, 0, 0, 0, 0, 0]\nclass = 3"] ;
633 -> 635 ;
636 [label="gini = 0.0\nsamples = 18\nvalue = [0, 0, 0, 0, 0, 24, 0, 0, 0, 0]\nclass = 5"] ;
610 -> 636 ;
637 [label="gini = 0.0\nsamples = 4\nvalue = [0, 0, 0, 7, 0, 0, 0, 0, 0, 0]\nclass = 3"] ;
609 -> 637 ;
638 [label="x[468] <= 49.5\ngini = 0.094\nsamples = 215\nvalue = [1, 0, 0, 1, 2, 332, 1, 3, 0, 9]\nclass = 5"] ;
608 -> 638 ;
639 [label="x[487] <= 236.5\ngini = 0.012\nsamples = 202\nvalue = [0, 0, 0, 0, 1, 320, 1, 0, 0, 0]\nclass = 5"] ;
638 -> 639 ;
640 [label="gini = 0.0\nsamples = 194\nvalue = [0, 0, 0, 0, 0, 313, 0, 0, 0, 0]\nclass = 5"] ;
639 -> 640 ;
641 [label="x[207] <= 1.5\ngini = 0.37\nsamples = 8\nvalue = [0, 0, 0, 0, 1, 7, 1, 0, 0, 0]\nclass = 5"] ;
639 -> 641 ;
642 [label="x[384] <= 97.0\ngini = 0.5\nsamples = 2\nvalue = [0, 0, 0, 0, 1, 0, 1, 0, 0, 0]\nclass = 4"] ;
641 -> 642 ;
643 [label="gini = 0.0\nsamples = 1\nvalue = [0, 0, 0, 0, 0, 0, 1, 0, 0, 0]\nclass = 6"] ;
642 -> 643 ;
644 [label="gini = 0.0\nsamples = 1\nvalue = [0, 0, 0, 0, 1, 0, 0, 0, 0, 0]\nclass = 4"] ;
642 -> 644 ;
645 [label="gini = 0.0\nsamples = 6\nvalue = [0, 0, 0, 0, 0, 7, 0, 0, 0, 0]\nclass = 5"] ;
641 -> 645 ;
646 [label="x[626] <= 2.5\ngini = 0.675\nsamples = 13\nvalue = [1, 0, 0, 1, 1, 12, 0, 3, 0, 9]\nclass = 5"] ;
638 -> 646 ;
647 [label="x[495] <= 121.0\ngini = 0.314\nsamples = 5\nvalue = [1, 0, 0, 0, 1, 0, 0, 0, 0, 9]\nclass = 9"] ;
646 -> 647 ;
648 [label="gini = 0.0\nsamples = 1\nvalue = [1, 0, 0, 0, 0, 0, 0, 0, 0, 0]\nclass = 0"] ;
647 -> 648 ;
649 [label="x[330] <= 76.0\ngini = 0.18\nsamples = 4\nvalue = [0, 0, 0, 0, 1, 0, 0, 0, 0, 9]\nclass = 9"] ;
647 -> 649 ;
650 [label="gini = 0.0\nsamples = 1\nvalue = [0, 0, 0, 0, 1, 0, 0, 0, 0, 0]\nclass = 4"] ;
649 -> 650 ;
651 [label="gini = 0.0\nsamples = 3\nvalue = [0, 0, 0, 0, 0, 0, 0, 0, 0, 9]\nclass = 9"] ;
649 -> 651 ;
652 [label="x[266] <= 232.0\ngini = 0.398\nsamples = 8\nvalue = [0, 0, 0, 1, 0, 12, 0, 3, 0, 0]\nclass = 5"] ;
646 -> 652 ;
653 [label="x[604] <= 253.5\ngini = 0.142\nsamples = 7\nvalue = [0, 0, 0, 1, 0, 12, 0, 0, 0, 0]\nclass = 5"] ;
652 -> 653 ;
654 [label="gini = 0.0\nsamples = 6\nvalue = [0, 0, 0, 0, 0, 12, 0, 0, 0, 0]\nclass = 5"] ;
653 -> 654 ;
655 [label="gini = 0.0\nsamples = 1\nvalue = [0, 0, 0, 1, 0, 0, 0, 0, 0, 0]\nclass = 3"] ;
653 -> 655 ;
656 [label="gini = 0.0\nsamples = 1\nvalue = [0, 0, 0, 0, 0, 0, 0, 3, 0, 0]\nclass = 7"] ;
652 -> 656 ;
657 [label="x[127] <= 66.0\ngini = 0.624\nsamples = 17\nvalue = [10, 0, 12, 0, 1, 3, 0, 0, 0, 0]\nclass = 2"] ;
607 -> 657 ;
658 [label="x[358] <= 112.5\ngini = 0.439\nsamples = 9\nvalue = [10, 0, 0, 0, 1, 3, 0, 0, 0, 0]\nclass = 0"] ;
657 -> 658 ;
659 [label="x[458] <= 127.5\ngini = 0.375\nsamples = 3\nvalue = [0, 0, 0, 0, 1, 3, 0, 0, 0, 0]\nclass = 5"] ;
658 -> 659 ;
660 [label="gini = 0.0\nsamples = 2\nvalue = [0, 0, 0, 0, 0, 3, 0, 0, 0, 0]\nclass = 5"] ;
659 -> 660 ;
661 [label="gini = 0.0\nsamples = 1\nvalue = [0, 0, 0, 0, 1, 0, 0, 0, 0, 0]\nclass = 4"] ;
659 -> 661 ;
662 [label="gini = 0.0\nsamples = 6\nvalue = [10, 0, 0, 0, 0, 0, 0, 0, 0, 0]\nclass = 0"] ;
658 -> 662 ;
663 [label="gini = 0.0\nsamples = 8\nvalue = [0, 0, 12, 0, 0, 0, 0, 0, 0, 0]\nclass = 2"] ;
657 -> 663 ;
664 [label="x[317] <= 3.5\ngini = 0.761\nsamples = 282\nvalue = [1, 4, 7, 169, 46, 32, 14, 15, 115, 41]\nclass = 3"] ;
526 -> 664 ;
665 [label="x[212] <= 23.0\ngini = 0.66\nsamples = 181\nvalue = [1, 4, 7, 155, 26, 12, 12, 11, 34, 18]\nclass = 3"] ;
664 -> 665 ;
666 [label="x[155] <= 4.0\ngini = 0.797\nsamples = 48\nvalue = [0, 2, 5, 17, 26, 3, 7, 3, 10, 3]\nclass = 4"] ;
665 -> 666 ;
667 [label="x[549] <= 32.5\ngini = 0.6\nsamples = 28\nvalue = [0, 2, 2, 3, 26, 0, 6, 1, 0, 3]\nclass = 4"] ;
666 -> 667 ;
668 [label="x[270] <= 10.5\ngini = 0.326\nsamples = 21\nvalue = [0, 0, 2, 0, 26, 0, 0, 1, 0, 3]\nclass = 4"] ;
667 -> 668 ;
669 [label="x[574] <= 126.5\ngini = 0.48\nsamples = 3\nvalue = [0, 0, 2, 0, 0, 0, 0, 0, 0, 3]\nclass = 9"] ;
668 -> 669 ;
670 [label="gini = 0.0\nsamples = 2\nvalue = [0, 0, 0, 0, 0, 0, 0, 0, 0, 3]\nclass = 9"] ;
669 -> 670 ;
671 [label="gini = 0.0\nsamples = 1\nvalue = [0, 0, 2, 0, 0, 0, 0, 0, 0, 0]\nclass = 2"] ;
669 -> 671 ;
672 [label="x[208] <= 227.0\ngini = 0.071\nsamples = 18\nvalue = [0, 0, 0, 0, 26, 0, 0, 1, 0, 0]\nclass = 4"] ;
668 -> 672 ;
673 [label="gini = 0.0\nsamples = 17\nvalue = [0, 0, 0, 0, 26, 0, 0, 0, 0, 0]\nclass = 4"] ;
672 -> 673 ;
674 [label="gini = 0.0\nsamples = 1\nvalue = [0, 0, 0, 0, 0, 0, 0, 1, 0, 0]\nclass = 7"] ;
672 -> 674 ;
675 [label="x[410] <= 7.0\ngini = 0.595\nsamples = 7\nvalue = [0, 2, 0, 3, 0, 0, 6, 0, 0, 0]\nclass = 6"] ;
667 -> 675 ;
676 [label="x[686] <= 5.5\ngini = 0.48\nsamples = 4\nvalue = [0, 2, 0, 3, 0, 0, 0, 0, 0, 0]\nclass = 3"] ;
675 -> 676 ;
677 [label="gini = 0.0\nsamples = 1\nvalue = [0, 2, 0, 0, 0, 0, 0, 0, 0, 0]\nclass = 1"] ;
676 -> 677 ;
678 [label="gini = 0.0\nsamples = 3\nvalue = [0, 0, 0, 3, 0, 0, 0, 0, 0, 0]\nclass = 3"] ;
676 -> 678 ;
679 [label="gini = 0.0\nsamples = 3\nvalue = [0, 0, 0, 0, 0, 0, 6, 0, 0, 0]\nclass = 6"] ;
675 -> 679 ;
680 [label="x[549] <= 206.5\ngini = 0.707\nsamples = 20\nvalue = [0, 0, 3, 14, 0, 3, 1, 2, 10, 0]\nclass = 3"] ;
666 -> 680 ;
681 [label="x[298] <= 139.5\ngini = 0.692\nsamples = 14\nvalue = [0, 0, 3, 7, 0, 1, 0, 2, 10, 0]\nclass = 8"] ;
680 -> 681 ;
682 [label="x[580] <= 205.0\ngini = 0.34\nsamples = 7\nvalue = [0, 0, 0, 1, 0, 1, 0, 0, 8, 0]\nclass = 8"] ;
681 -> 682 ;
683 [label="gini = 0.0\nsamples = 5\nvalue = [0, 0, 0, 0, 0, 0, 0, 0, 8, 0]\nclass = 8"] ;
682 -> 683 ;
684 [label="x[263] <= 14.5\ngini = 0.5\nsamples = 2\nvalue = [0, 0, 0, 1, 0, 1, 0, 0, 0, 0]\nclass = 3"] ;
682 -> 684 ;
685 [label="gini = 0.0\nsamples = 1\nvalue = [0, 0, 0, 0, 0, 1, 0, 0, 0, 0]\nclass = 5"] ;
684 -> 685 ;
686 [label="gini = 0.0\nsamples = 1\nvalue = [0, 0, 0, 1, 0, 0, 0, 0, 0, 0]\nclass = 3"] ;
684 -> 686 ;
687 [label="x[487] <= 33.5\ngini = 0.686\nsamples = 7\nvalue = [0, 0, 3, 6, 0, 0, 0, 2, 2, 0]\nclass = 3"] ;
681 -> 687 ;
688 [label="x[512] <= 93.0\ngini = 0.444\nsamples = 5\nvalue = [0, 0, 3, 6, 0, 0, 0, 0, 0, 0]\nclass = 3"] ;
687 -> 688 ;
689 [label="gini = 0.0\nsamples = 4\nvalue = [0, 0, 0, 6, 0, 0, 0, 0, 0, 0]\nclass = 3"] ;
688 -> 689 ;
690 [label="gini = 0.0\nsamples = 1\nvalue = [0, 0, 3, 0, 0, 0, 0, 0, 0, 0]\nclass = 2"] ;
688 -> 690 ;
691 [label="x[158] <= 138.5\ngini = 0.5\nsamples = 2\nvalue = [0, 0, 0, 0, 0, 0, 0, 2, 2, 0]\nclass = 7"] ;
687 -> 691 ;
692 [label="gini = 0.0\nsamples = 1\nvalue = [0, 0, 0, 0, 0, 0, 0, 0, 2, 0]\nclass = 8"] ;
691 -> 692 ;
693 [label="gini = 0.0\nsamples = 1\nvalue = [0, 0, 0, 0, 0, 0, 0, 2, 0, 0]\nclass = 7"] ;
691 -> 693 ;
694 [label="x[521] <= 252.5\ngini = 0.46\nsamples = 6\nvalue = [0, 0, 0, 7, 0, 2, 1, 0, 0, 0]\nclass = 3"] ;
680 -> 694 ;
695 [label="gini = 0.0\nsamples = 4\nvalue = [0, 0, 0, 7, 0, 0, 0, 0, 0, 0]\nclass = 3"] ;
694 -> 695 ;
696 [label="x[349] <= 123.5\ngini = 0.444\nsamples = 2\nvalue = [0, 0, 0, 0, 0, 2, 1, 0, 0, 0]\nclass = 5"] ;
694 -> 696 ;
697 [label="gini = 0.0\nsamples = 1\nvalue = [0, 0, 0, 0, 0, 2, 0, 0, 0, 0]\nclass = 5"] ;
696 -> 697 ;
698 [label="gini = 0.0\nsamples = 1\nvalue = [0, 0, 0, 0, 0, 0, 1, 0, 0, 0]\nclass = 6"] ;
696 -> 698 ;
699 [label="x[293] <= 0.5\ngini = 0.519\nsamples = 133\nvalue = [1, 2, 2, 138, 0, 9, 5, 8, 24, 15]\nclass = 3"] ;
665 -> 699 ;
700 [label="x[285] <= 225.0\ngini = 0.302\nsamples = 103\nvalue = [0, 0, 1, 131, 0, 3, 0, 7, 14, 2]\nclass = 3"] ;
699 -> 700 ;
701 [label="x[571] <= 139.5\ngini = 0.261\nsamples = 101\nvalue = [0, 0, 1, 131, 0, 3, 0, 7, 9, 2]\nclass = 3"] ;
700 -> 701 ;
702 [label="x[288] <= 201.5\ngini = 0.171\nsamples = 97\nvalue = [0, 0, 1, 131, 0, 3, 0, 4, 3, 2]\nclass = 3"] ;
701 -> 702 ;
703 [label="x[408] <= 192.0\ngini = 0.123\nsamples = 94\nvalue = [0, 0, 1, 131, 0, 1, 0, 4, 2, 1]\nclass = 3"] ;
702 -> 703 ;
704 [label="x[357] <= 232.0\ngini = 0.072\nsamples = 90\nvalue = [0, 0, 1, 130, 0, 1, 0, 1, 2, 0]\nclass = 3"] ;
703 -> 704 ;
705 [label="x[325] <= 27.5\ngini = 0.058\nsamples = 89\nvalue = [0, 0, 1, 130, 0, 0, 0, 1, 2, 0]\nclass = 3"] ;
704 -> 705 ;
706 [label="gini = 0.0\nsamples = 1\nvalue = [0, 0, 0, 0, 0, 0, 0, 0, 1, 0]\nclass = 8"] ;
705 -> 706 ;
707 [label="x[513] <= 21.0\ngini = 0.044\nsamples = 88\nvalue = [0, 0, 1, 130, 0, 0, 0, 1, 1, 0]\nclass = 3"] ;
705 -> 707 ;
708 [label="x[405] <= 4.0\ngini = 0.015\nsamples = 86\nvalue = [0, 0, 0, 130, 0, 0, 0, 0, 1, 0]\nclass = 3"] ;
707 -> 708 ;
709 [label="gini = 0.0\nsamples = 1\nvalue = [0, 0, 0, 0, 0, 0, 0, 0, 1, 0]\nclass = 8"] ;
708 -> 709 ;
710 [label="gini = 0.0\nsamples = 85\nvalue = [0, 0, 0, 130, 0, 0, 0, 0, 0, 0]\nclass = 3"] ;
708 -> 710 ;
711 [label="x[377] <= 126.5\ngini = 0.5\nsamples = 2\nvalue = [0, 0, 1, 0, 0, 0, 0, 1, 0, 0]\nclass = 2"] ;
707 -> 711 ;
712 [label="gini = 0.0\nsamples = 1\nvalue = [0, 0, 0, 0, 0, 0, 0, 1, 0, 0]\nclass = 7"] ;
711 -> 712 ;
713 [label="gini = 0.0\nsamples = 1\nvalue = [0, 0, 1, 0, 0, 0, 0, 0, 0, 0]\nclass = 2"] ;
711 -> 713 ;
714 [label="gini = 0.0\nsamples = 1\nvalue = [0, 0, 0, 0, 0, 1, 0, 0, 0, 0]\nclass = 5"] ;
704 -> 714 ;
715 [label="x[434] <= 215.5\ngini = 0.56\nsamples = 4\nvalue = [0, 0, 0, 1, 0, 0, 0, 3, 0, 1]\nclass = 7"] ;
703 -> 715 ;
716 [label="gini = 0.0\nsamples = 2\nvalue = [0, 0, 0, 0, 0, 0, 0, 3, 0, 0]\nclass = 7"] ;
715 -> 716 ;
717 [label="x[326] <= 127.5\ngini = 0.5\nsamples = 2\nvalue = [0, 0, 0, 1, 0, 0, 0, 0, 0, 1]\nclass = 3"] ;
715 -> 717 ;
718 [label="gini = 0.0\nsamples = 1\nvalue = [0, 0, 0, 1, 0, 0, 0, 0, 0, 0]\nclass = 3"] ;
717 -> 718 ;
719 [label="gini = 0.0\nsamples = 1\nvalue = [0, 0, 0, 0, 0, 0, 0, 0, 0, 1]\nclass = 9"] ;
717 -> 719 ;
720 [label="x[427] <= 126.5\ngini = 0.625\nsamples = 3\nvalue = [0, 0, 0, 0, 0, 2, 0, 0, 1, 1]\nclass = 5"] ;
702 -> 720 ;
721 [label="gini = 0.0\nsamples = 1\nvalue = [0, 0, 0, 0, 0, 2, 0, 0, 0, 0]\nclass = 5"] ;
720 -> 721 ;
722 [label="x[687] <= 126.5\ngini = 0.5\nsamples = 2\nvalue = [0, 0, 0, 0, 0, 0, 0, 0, 1, 1]\nclass = 8"] ;
720 -> 722 ;
723 [label="gini = 0.0\nsamples = 1\nvalue = [0, 0, 0, 0, 0, 0, 0, 0, 1, 0]\nclass = 8"] ;
722 -> 723 ;
724 [label="gini = 0.0\nsamples = 1\nvalue = [0, 0, 0, 0, 0, 0, 0, 0, 0, 1]\nclass = 9"] ;
722 -> 724 ;
725 [label="x[630] <= 6.5\ngini = 0.444\nsamples = 4\nvalue = [0, 0, 0, 0, 0, 0, 0, 3, 6, 0]\nclass = 8"] ;
701 -> 725 ;
726 [label="gini = 0.0\nsamples = 2\nvalue = [0, 0, 0, 0, 0, 0, 0, 3, 0, 0]\nclass = 7"] ;
725 -> 726 ;
727 [label="gini = 0.0\nsamples = 2\nvalue = [0, 0, 0, 0, 0, 0, 0, 0, 6, 0]\nclass = 8"] ;
725 -> 727 ;
728 [label="gini = 0.0\nsamples = 2\nvalue = [0, 0, 0, 0, 0, 0, 0, 0, 5, 0]\nclass = 8"] ;
700 -> 728 ;
729 [label="x[713] <= 20.5\ngini = 0.818\nsamples = 30\nvalue = [1, 2, 1, 7, 0, 6, 5, 1, 10, 13]\nclass = 9"] ;
699 -> 729 ;
730 [label="x[464] <= 32.0\ngini = 0.83\nsamples = 25\nvalue = [1, 2, 1, 7, 0, 6, 5, 1, 10, 4]\nclass = 8"] ;
729 -> 730 ;
731 [label="x[320] <= 254.5\ngini = 0.551\nsamples = 12\nvalue = [1, 2, 0, 0, 0, 1, 0, 0, 9, 1]\nclass = 8"] ;
730 -> 731 ;
732 [label="x[572] <= 21.0\ngini = 0.485\nsamples = 11\nvalue = [1, 2, 0, 0, 0, 1, 0, 0, 9, 0]\nclass = 8"] ;
731 -> 732 ;
733 [label="x[211] <= 251.0\ngini = 0.444\nsamples = 2\nvalue = [0, 2, 0, 0, 0, 1, 0, 0, 0, 0]\nclass = 1"] ;
732 -> 733 ;
734 [label="gini = 0.0\nsamples = 1\nvalue = [0, 2, 0, 0, 0, 0, 0, 0, 0, 0]\nclass = 1"] ;
733 -> 734 ;
735 [label="gini = 0.0\nsamples = 1\nvalue = [0, 0, 0, 0, 0, 1, 0, 0, 0, 0]\nclass = 5"] ;
733 -> 735 ;
736 [label="x[235] <= 200.0\ngini = 0.18\nsamples = 9\nvalue = [1, 0, 0, 0, 0, 0, 0, 0, 9, 0]\nclass = 8"] ;
732 -> 736 ;
737 [label="gini = 0.0\nsamples = 8\nvalue = [0, 0, 0, 0, 0, 0, 0, 0, 9, 0]\nclass = 8"] ;
736 -> 737 ;
738 [label="gini = 0.0\nsamples = 1\nvalue = [1, 0, 0, 0, 0, 0, 0, 0, 0, 0]\nclass = 0"] ;
736 -> 738 ;
739 [label="gini = 0.0\nsamples = 1\nvalue = [0, 0, 0, 0, 0, 0, 0, 0, 0, 1]\nclass = 9"] ;
731 -> 739 ;
740 [label="x[325] <= 10.5\ngini = 0.79\nsamples = 13\nvalue = [0, 0, 1, 7, 0, 5, 5, 1, 1, 3]\nclass = 3"] ;
730 -> 740 ;
741 [label="x[651] <= 64.0\ngini = 0.5\nsamples = 4\nvalue = [0, 0, 0, 0, 0, 5, 5, 0, 0, 0]\nclass = 5"] ;
740 -> 741 ;
742 [label="gini = 0.0\nsamples = 2\nvalue = [0, 0, 0, 0, 0, 0, 5, 0, 0, 0]\nclass = 6"] ;
741 -> 742 ;
743 [label="gini = 0.0\nsamples = 2\nvalue = [0, 0, 0, 0, 0, 5, 0, 0, 0, 0]\nclass = 5"] ;
741 -> 743 ;
744 [label="x[686] <= 123.5\ngini = 0.639\nsamples = 9\nvalue = [0, 0, 1, 7, 0, 0, 0, 1, 1, 3]\nclass = 3"] ;
740 -> 744 ;
745 [label="x[495] <= 23.0\ngini = 0.48\nsamples = 7\nvalue = [0, 0, 1, 7, 0, 0, 0, 1, 1, 0]\nclass = 3"] ;
744 -> 745 ;
746 [label="x[275] <= 21.0\ngini = 0.219\nsamples = 5\nvalue = [0, 0, 0, 7, 0, 0, 0, 0, 1, 0]\nclass = 3"] ;
745 -> 746 ;
747 [label="gini = 0.0\nsamples = 4\nvalue = [0, 0, 0, 7, 0, 0, 0, 0, 0, 0]\nclass = 3"] ;
746 -> 747 ;
748 [label="gini = 0.0\nsamples = 1\nvalue = [0, 0, 0, 0, 0, 0, 0, 0, 1, 0]\nclass = 8"] ;
746 -> 748 ;
749 [label="x[184] <= 48.0\ngini = 0.5\nsamples = 2\nvalue = [0, 0, 1, 0, 0, 0, 0, 1, 0, 0]\nclass = 2"] ;
745 -> 749 ;
750 [label="gini = 0.0\nsamples = 1\nvalue = [0, 0, 0, 0, 0, 0, 0, 1, 0, 0]\nclass = 7"] ;
749 -> 750 ;
751 [label="gini = 0.0\nsamples = 1\nvalue = [0, 0, 1, 0, 0, 0, 0, 0, 0, 0]\nclass = 2"] ;
749 -> 751 ;
752 [label="gini = 0.0\nsamples = 2\nvalue = [0, 0, 0, 0, 0, 0, 0, 0, 0, 3]\nclass = 9"] ;
744 -> 752 ;
753 [label="gini = 0.0\nsamples = 5\nvalue = [0, 0, 0, 0, 0, 0, 0, 0, 0, 9]\nclass = 9"] ;
729 -> 753 ;
754 [label="x[515] <= 3.0\ngini = 0.699\nsamples = 101\nvalue = [0, 0, 0, 14, 20, 20, 2, 4, 81, 23]\nclass = 8"] ;
664 -> 754 ;
755 [label="x[299] <= 64.0\ngini = 0.799\nsamples = 57\nvalue = [0, 0, 0, 11, 16, 20, 1, 1, 14, 21]\nclass = 9"] ;
754 -> 755 ;
756 [label="x[462] <= 22.0\ngini = 0.714\nsamples = 38\nvalue = [0, 0, 0, 5, 16, 20, 0, 1, 0, 11]\nclass = 5"] ;
755 -> 756 ;
757 [label="x[575] <= 121.5\ngini = 0.1\nsamples = 15\nvalue = [0, 0, 0, 0, 0, 18, 0, 0, 0, 1]\nclass = 5"] ;
756 -> 757 ;
758 [label="gini = 0.0\nsamples = 14\nvalue = [0, 0, 0, 0, 0, 18, 0, 0, 0, 0]\nclass = 5"] ;
757 -> 758 ;
759 [label="gini = 0.0\nsamples = 1\nvalue = [0, 0, 0, 0, 0, 0, 0, 0, 0, 1]\nclass = 9"] ;
757 -> 759 ;
760 [label="x[381] <= 137.0\ngini = 0.666\nsamples = 23\nvalue = [0, 0, 0, 5, 16, 2, 0, 1, 0, 10]\nclass = 4"] ;
756 -> 760 ;
761 [label="x[630] <= 136.5\ngini = 0.62\nsamples = 22\nvalue = [0, 0, 0, 2, 16, 2, 0, 1, 0, 10]\nclass = 4"] ;
760 -> 761 ;
762 [label="x[600] <= 53.0\ngini = 0.493\nsamples = 14\nvalue = [0, 0, 0, 2, 13, 0, 0, 1, 0, 3]\nclass = 4"] ;
761 -> 762 ;
763 [label="x[405] <= 123.0\ngini = 0.716\nsamples = 7\nvalue = [0, 0, 0, 2, 3, 0, 0, 1, 0, 3]\nclass = 4"] ;
762 -> 763 ;
764 [label="x[288] <= 18.5\ngini = 0.612\nsamples = 5\nvalue = [0, 0, 0, 0, 3, 0, 0, 1, 0, 3]\nclass = 4"] ;
763 -> 764 ;
765 [label="gini = 0.0\nsamples = 2\nvalue = [0, 0, 0, 0, 3, 0, 0, 0, 0, 0]\nclass = 4"] ;
764 -> 765 ;
766 [label="x[214] <= 45.5\ngini = 0.375\nsamples = 3\nvalue = [0, 0, 0, 0, 0, 0, 0, 1, 0, 3]\nclass = 9"] ;
764 -> 766 ;
767 [label="gini = 0.0\nsamples = 2\nvalue = [0, 0, 0, 0, 0, 0, 0, 0, 0, 3]\nclass = 9"] ;
766 -> 767 ;
768 [label="gini = 0.0\nsamples = 1\nvalue = [0, 0, 0, 0, 0, 0, 0, 1, 0, 0]\nclass = 7"] ;
766 -> 768 ;
769 [label="gini = 0.0\nsamples = 2\nvalue = [0, 0, 0, 2, 0, 0, 0, 0, 0, 0]\nclass = 3"] ;
763 -> 769 ;
770 [label="gini = 0.0\nsamples = 7\nvalue = [0, 0, 0, 0, 10, 0, 0, 0, 0, 0]\nclass = 4"] ;
762 -> 770 ;
771 [label="x[215] <= 85.0\ngini = 0.569\nsamples = 8\nvalue = [0, 0, 0, 0, 3, 2, 0, 0, 0, 7]\nclass = 9"] ;
761 -> 771 ;
772 [label="gini = 0.0\nsamples = 4\nvalue = [0, 0, 0, 0, 0, 0, 0, 0, 0, 7]\nclass = 9"] ;
771 -> 772 ;
773 [label="x[379] <= 171.0\ngini = 0.48\nsamples = 4\nvalue = [0, 0, 0, 0, 3, 2, 0, 0, 0, 0]\nclass = 4"] ;
771 -> 773 ;
774 [label="gini = 0.0\nsamples = 2\nvalue = [0, 0, 0, 0, 0, 2, 0, 0, 0, 0]\nclass = 5"] ;
773 -> 774 ;
775 [label="gini = 0.0\nsamples = 2\nvalue = [0, 0, 0, 0, 3, 0, 0, 0, 0, 0]\nclass = 4"] ;
773 -> 775 ;
776 [label="gini = 0.0\nsamples = 1\nvalue = [0, 0, 0, 3, 0, 0, 0, 0, 0, 0]\nclass = 3"] ;
760 -> 776 ;
777 [label="x[434] <= 253.5\ngini = 0.653\nsamples = 19\nvalue = [0, 0, 0, 6, 0, 0, 1, 0, 14, 10]\nclass = 8"] ;
755 -> 777 ;
778 [label="x[264] <= 215.5\ngini = 0.581\nsamples = 12\nvalue = [0, 0, 0, 2, 0, 0, 1, 0, 4, 10]\nclass = 9"] ;
777 -> 778 ;
779 [label="x[180] <= 107.5\ngini = 0.656\nsamples = 5\nvalue = [0, 0, 0, 2, 0, 0, 1, 0, 4, 1]\nclass = 8"] ;
778 -> 779 ;
780 [label="gini = 0.0\nsamples = 2\nvalue = [0, 0, 0, 0, 0, 0, 0, 0, 4, 0]\nclass = 8"] ;
779 -> 780 ;
781 [label="x[548] <= 87.5\ngini = 0.625\nsamples = 3\nvalue = [0, 0, 0, 2, 0, 0, 1, 0, 0, 1]\nclass = 3"] ;
779 -> 781 ;
782 [label="gini = 0.0\nsamples = 1\nvalue = [0, 0, 0, 2, 0, 0, 0, 0, 0, 0]\nclass = 3"] ;
781 -> 782 ;
783 [label="x[520] <= 17.0\ngini = 0.5\nsamples = 2\nvalue = [0, 0, 0, 0, 0, 0, 1, 0, 0, 1]\nclass = 6"] ;
781 -> 783 ;
784 [label="gini = 0.0\nsamples = 1\nvalue = [0, 0, 0, 0, 0, 0, 1, 0, 0, 0]\nclass = 6"] ;
783 -> 784 ;
785 [label="gini = 0.0\nsamples = 1\nvalue = [0, 0, 0, 0, 0, 0, 0, 0, 0, 1]\nclass = 9"] ;
783 -> 785 ;
786 [label="gini = 0.0\nsamples = 7\nvalue = [0, 0, 0, 0, 0, 0, 0, 0, 0, 9]\nclass = 9"] ;
778 -> 786 ;
787 [label="x[209] <= 250.0\ngini = 0.408\nsamples = 7\nvalue = [0, 0, 0, 4, 0, 0, 0, 0, 10, 0]\nclass = 8"] ;
777 -> 787 ;
788 [label="gini = 0.0\nsamples = 3\nvalue = [0, 0, 0, 0, 0, 0, 0, 0, 7, 0]\nclass = 8"] ;
787 -> 788 ;
789 [label="x[273] <= 34.0\ngini = 0.49\nsamples = 4\nvalue = [0, 0, 0, 4, 0, 0, 0, 0, 3, 0]\nclass = 3"] ;
787 -> 789 ;
790 [label="gini = 0.0\nsamples = 2\nvalue = [0, 0, 0, 4, 0, 0, 0, 0, 0, 0]\nclass = 3"] ;
789 -> 790 ;
791 [label="gini = 0.0\nsamples = 2\nvalue = [0, 0, 0, 0, 0, 0, 0, 0, 3, 0]\nclass = 8"] ;
789 -> 791 ;
792 [label="x[440] <= 7.5\ngini = 0.292\nsamples = 44\nvalue = [0, 0, 0, 3, 4, 0, 1, 3, 67, 2]\nclass = 8"] ;
754 -> 792 ;
793 [label="x[651] <= 8.5\ngini = 0.198\nsamples = 40\nvalue = [0, 0, 0, 3, 0, 0, 0, 3, 67, 2]\nclass = 8"] ;
792 -> 793 ;
794 [label="x[659] <= 14.5\ngini = 0.132\nsamples = 39\nvalue = [0, 0, 0, 0, 0, 0, 0, 3, 67, 2]\nclass = 8"] ;
793 -> 794 ;
795 [label="x[517] <= 214.5\ngini = 0.653\nsamples = 5\nvalue = [0, 0, 0, 0, 0, 0, 0, 3, 2, 2]\nclass = 7"] ;
794 -> 795 ;
796 [label="x[354] <= 13.0\ngini = 0.48\nsamples = 3\nvalue = [0, 0, 0, 0, 0, 0, 0, 3, 0, 2]\nclass = 7"] ;
795 -> 796 ;
797 [label="gini = 0.0\nsamples = 2\nvalue = [0, 0, 0, 0, 0, 0, 0, 3, 0, 0]\nclass = 7"] ;
796 -> 797 ;
798 [label="gini = 0.0\nsamples = 1\nvalue = [0, 0, 0, 0, 0, 0, 0, 0, 0, 2]\nclass = 9"] ;
796 -> 798 ;
799 [label="gini = 0.0\nsamples = 2\nvalue = [0, 0, 0, 0, 0, 0, 0, 0, 2, 0]\nclass = 8"] ;
795 -> 799 ;
800 [label="gini = 0.0\nsamples = 34\nvalue = [0, 0, 0, 0, 0, 0, 0, 0, 65, 0]\nclass = 8"] ;
794 -> 800 ;
801 [label="gini = 0.0\nsamples = 1\nvalue = [0, 0, 0, 3, 0, 0, 0, 0, 0, 0]\nclass = 3"] ;
793 -> 801 ;
802 [label="x[632] <= 126.0\ngini = 0.32\nsamples = 4\nvalue = [0, 0, 0, 0, 4, 0, 1, 0, 0, 0]\nclass = 4"] ;
792 -> 802 ;
803 [label="gini = 0.0\nsamples = 3\nvalue = [0, 0, 0, 0, 4, 0, 0, 0, 0, 0]\nclass = 4"] ;
802 -> 803 ;
804 [label="gini = 0.0\nsamples = 1\nvalue = [0, 0, 0, 0, 0, 0, 1, 0, 0, 0]\nclass = 6"] ;
802 -> 804 ;
805 [label="x[659] <= 1.0\ngini = 0.742\nsamples = 664\nvalue = [131, 3, 66, 17, 60, 68, 426, 3, 272, 5]\nclass = 6"] ;
525 -> 805 ;
806 [label="x[572] <= 90.5\ngini = 0.553\nsamples = 389\nvalue = [23, 3, 54, 8, 54, 23, 391, 2, 38, 5]\nclass = 6"] ;
805 -> 806 ;
807 [label="x[257] <= 4.5\ngini = 0.824\nsamples = 126\nvalue = [8, 3, 34, 7, 48, 14, 46, 2, 30, 5]\nclass = 4"] ;
806 -> 807 ;
808 [label="x[570] <= 88.5\ngini = 0.826\nsamples = 111\nvalue = [8, 3, 32, 7, 25, 10, 46, 2, 29, 5]\nclass = 6"] ;
807 -> 808 ;
809 [label="x[344] <= 36.5\ngini = 0.786\nsamples = 59\nvalue = [2, 0, 30, 7, 20, 8, 16, 1, 0, 5]\nclass = 2"] ;
808 -> 809 ;
810 [label="x[302] <= 1.0\ngini = 0.677\nsamples = 39\nvalue = [0, 0, 30, 7, 6, 8, 6, 1, 0, 0]\nclass = 2"] ;
809 -> 810 ;
811 [label="x[126] <= 112.5\ngini = 0.584\nsamples = 34\nvalue = [0, 0, 30, 5, 6, 1, 6, 1, 0, 0]\nclass = 2"] ;
810 -> 811 ;
812 [label="x[213] <= 148.0\ngini = 0.391\nsamples = 28\nvalue = [0, 0, 30, 4, 3, 1, 0, 1, 0, 0]\nclass = 2"] ;
811 -> 812 ;
813 [label="x[190] <= 92.5\ngini = 0.127\nsamples = 22\nvalue = [0, 0, 28, 0, 1, 1, 0, 0, 0, 0]\nclass = 2"] ;
812 -> 813 ;
814 [label="x[435] <= 254.5\ngini = 0.067\nsamples = 21\nvalue = [0, 0, 28, 0, 1, 0, 0, 0, 0, 0]\nclass = 2"] ;
813 -> 814 ;
815 [label="gini = 0.0\nsamples = 20\nvalue = [0, 0, 28, 0, 0, 0, 0, 0, 0, 0]\nclass = 2"] ;
814 -> 815 ;
816 [label="gini = 0.0\nsamples = 1\nvalue = [0, 0, 0, 0, 1, 0, 0, 0, 0, 0]\nclass = 4"] ;
814 -> 816 ;
817 [label="gini = 0.0\nsamples = 1\nvalue = [0, 0, 0, 0, 0, 1, 0, 0, 0, 0]\nclass = 5"] ;
813 -> 817 ;
818 [label="x[346] <= 64.0\ngini = 0.691\nsamples = 6\nvalue = [0, 0, 2, 4, 2, 0, 0, 1, 0, 0]\nclass = 3"] ;
812 -> 818 ;
819 [label="x[499] <= 20.0\ngini = 0.571\nsamples = 5\nvalue = [0, 0, 2, 4, 0, 0, 0, 1, 0, 0]\nclass = 3"] ;
818 -> 819 ;
820 [label="x[379] <= 239.5\ngini = 0.32\nsamples = 3\nvalue = [0, 0, 0, 4, 0, 0, 0, 1, 0, 0]\nclass = 3"] ;
819 -> 820 ;
821 [label="gini = 0.0\nsamples = 1\nvalue = [0, 0, 0, 0, 0, 0, 0, 1, 0, 0]\nclass = 7"] ;
820 -> 821 ;
822 [label="gini = 0.0\nsamples = 2\nvalue = [0, 0, 0, 4, 0, 0, 0, 0, 0, 0]\nclass = 3"] ;
820 -> 822 ;
823 [label="gini = 0.0\nsamples = 2\nvalue = [0, 0, 2, 0, 0, 0, 0, 0, 0, 0]\nclass = 2"] ;
819 -> 823 ;
824 [label="gini = 0.0\nsamples = 1\nvalue = [0, 0, 0, 0, 2, 0, 0, 0, 0, 0]\nclass = 4"] ;
818 -> 824 ;
825 [label="x[547] <= 70.5\ngini = 0.54\nsamples = 6\nvalue = [0, 0, 0, 1, 3, 0, 6, 0, 0, 0]\nclass = 6"] ;
811 -> 825 ;
826 [label="gini = 0.0\nsamples = 2\nvalue = [0, 0, 0, 0, 3, 0, 0, 0, 0, 0]\nclass = 4"] ;
825 -> 826 ;
827 [label="x[243] <= 114.0\ngini = 0.245\nsamples = 4\nvalue = [0, 0, 0, 1, 0, 0, 6, 0, 0, 0]\nclass = 6"] ;
825 -> 827 ;
828 [label="gini = 0.0\nsamples = 3\nvalue = [0, 0, 0, 0, 0, 0, 6, 0, 0, 0]\nclass = 6"] ;
827 -> 828 ;
829 [label="gini = 0.0\nsamples = 1\nvalue = [0, 0, 0, 1, 0, 0, 0, 0, 0, 0]\nclass = 3"] ;
827 -> 829 ;
830 [label="x[322] <= 20.5\ngini = 0.346\nsamples = 5\nvalue = [0, 0, 0, 2, 0, 7, 0, 0, 0, 0]\nclass = 5"] ;
810 -> 830 ;
831 [label="gini = 0.0\nsamples = 1\nvalue = [0, 0, 0, 2, 0, 0, 0, 0, 0, 0]\nclass = 3"] ;
830 -> 831 ;
832 [label="gini = 0.0\nsamples = 4\nvalue = [0, 0, 0, 0, 0, 7, 0, 0, 0, 0]\nclass = 5"] ;
830 -> 832 ;
833 [label="x[300] <= 19.5\ngini = 0.662\nsamples = 20\nvalue = [2, 0, 0, 0, 14, 0, 10, 0, 0, 5]\nclass = 4"] ;
809 -> 833 ;
834 [label="x[209] <= 2.0\ngini = 0.599\nsamples = 13\nvalue = [2, 0, 0, 0, 1, 0, 10, 0, 0, 5]\nclass = 6"] ;
833 -> 834 ;
835 [label="gini = 0.0\nsamples = 7\nvalue = [0, 0, 0, 0, 0, 0, 8, 0, 0, 0]\nclass = 6"] ;
834 -> 835 ;
836 [label="x[374] <= 44.0\ngini = 0.66\nsamples = 6\nvalue = [2, 0, 0, 0, 1, 0, 2, 0, 0, 5]\nclass = 9"] ;
834 -> 836 ;
837 [label="gini = 0.0\nsamples = 3\nvalue = [0, 0, 0, 0, 0, 0, 0, 0, 0, 5]\nclass = 9"] ;
836 -> 837 ;
838 [label="x[185] <= 127.0\ngini = 0.64\nsamples = 3\nvalue = [2, 0, 0, 0, 1, 0, 2, 0, 0, 0]\nclass = 0"] ;
836 -> 838 ;
839 [label="x[550] <= 248.0\ngini = 0.444\nsamples = 2\nvalue = [0, 0, 0, 0, 1, 0, 2, 0, 0, 0]\nclass = 6"] ;
838 -> 839 ;
840 [label="gini = 0.0\nsamples = 1\nvalue = [0, 0, 0, 0, 1, 0, 0, 0, 0, 0]\nclass = 4"] ;
839 -> 840 ;
841 [label="gini = 0.0\nsamples = 1\nvalue = [0, 0, 0, 0, 0, 0, 2, 0, 0, 0]\nclass = 6"] ;
839 -> 841 ;
842 [label="gini = 0.0\nsamples = 1\nvalue = [2, 0, 0, 0, 0, 0, 0, 0, 0, 0]\nclass = 0"] ;
838 -> 842 ;
843 [label="gini = 0.0\nsamples = 7\nvalue = [0, 0, 0, 0, 13, 0, 0, 0, 0, 0]\nclass = 4"] ;
833 -> 843 ;
844 [label="x[486] <= 146.5\ngini = 0.701\nsamples = 52\nvalue = [6, 3, 2, 0, 5, 2, 30, 1, 29, 0]\nclass = 6"] ;
808 -> 844 ;
845 [label="x[629] <= 5.0\ngini = 0.478\nsamples = 22\nvalue = [0, 3, 0, 0, 5, 0, 2, 1, 26, 0]\nclass = 8"] ;
844 -> 845 ;
846 [label="x[570] <= 252.5\ngini = 0.722\nsamples = 8\nvalue = [0, 3, 0, 0, 5, 0, 1, 1, 2, 0]\nclass = 4"] ;
845 -> 846 ;
847 [label="x[520] <= 80.0\ngini = 0.449\nsamples = 5\nvalue = [0, 0, 0, 0, 5, 0, 1, 1, 0, 0]\nclass = 4"] ;
846 -> 847 ;
848 [label="x[433] <= 238.5\ngini = 0.278\nsamples = 4\nvalue = [0, 0, 0, 0, 5, 0, 0, 1, 0, 0]\nclass = 4"] ;
847 -> 848 ;
849 [label="x[371] <= 90.5\ngini = 0.5\nsamples = 2\nvalue = [0, 0, 0, 0, 1, 0, 0, 1, 0, 0]\nclass = 4"] ;
848 -> 849 ;
850 [label="gini = 0.0\nsamples = 1\nvalue = [0, 0, 0, 0, 0, 0, 0, 1, 0, 0]\nclass = 7"] ;
849 -> 850 ;
851 [label="gini = 0.0\nsamples = 1\nvalue = [0, 0, 0, 0, 1, 0, 0, 0, 0, 0]\nclass = 4"] ;
849 -> 851 ;
852 [label="gini = 0.0\nsamples = 2\nvalue = [0, 0, 0, 0, 4, 0, 0, 0, 0, 0]\nclass = 4"] ;
848 -> 852 ;
853 [label="gini = 0.0\nsamples = 1\nvalue = [0, 0, 0, 0, 0, 0, 1, 0, 0, 0]\nclass = 6"] ;
847 -> 853 ;
854 [label="x[347] <= 127.5\ngini = 0.48\nsamples = 3\nvalue = [0, 3, 0, 0, 0, 0, 0, 0, 2, 0]\nclass = 1"] ;
846 -> 854 ;
855 [label="gini = 0.0\nsamples = 2\nvalue = [0, 3, 0, 0, 0, 0, 0, 0, 0, 0]\nclass = 1"] ;
854 -> 855 ;
856 [label="gini = 0.0\nsamples = 1\nvalue = [0, 0, 0, 0, 0, 0, 0, 0, 2, 0]\nclass = 8"] ;
854 -> 856 ;
857 [label="x[324] <= 28.5\ngini = 0.077\nsamples = 14\nvalue = [0, 0, 0, 0, 0, 0, 1, 0, 24, 0]\nclass = 8"] ;
845 -> 857 ;
858 [label="gini = 0.0\nsamples = 1\nvalue = [0, 0, 0, 0, 0, 0, 1, 0, 0, 0]\nclass = 6"] ;
857 -> 858 ;
859 [label="gini = 0.0\nsamples = 13\nvalue = [0, 0, 0, 0, 0, 0, 0, 0, 24, 0]\nclass = 8"] ;
857 -> 859 ;
860 [label="x[300] <= 55.5\ngini = 0.502\nsamples = 30\nvalue = [6, 0, 2, 0, 0, 2, 28, 0, 3, 0]\nclass = 6"] ;
844 -> 860 ;
861 [label="x[269] <= 91.5\ngini = 0.272\nsamples = 23\nvalue = [0, 0, 2, 0, 0, 2, 28, 0, 1, 0]\nclass = 6"] ;
860 -> 861 ;
862 [label="gini = 0.0\nsamples = 20\nvalue = [0, 0, 0, 0, 0, 0, 28, 0, 0, 0]\nclass = 6"] ;
861 -> 862 ;
863 [label="x[268] <= 182.5\ngini = 0.64\nsamples = 3\nvalue = [0, 0, 2, 0, 0, 2, 0, 0, 1, 0]\nclass = 2"] ;
861 -> 863 ;
864 [label="x[128] <= 88.0\ngini = 0.444\nsamples = 2\nvalue = [0, 0, 0, 0, 0, 2, 0, 0, 1, 0]\nclass = 5"] ;
863 -> 864 ;
865 [label="gini = 0.0\nsamples = 1\nvalue = [0, 0, 0, 0, 0, 2, 0, 0, 0, 0]\nclass = 5"] ;
864 -> 865 ;
866 [label="gini = 0.0\nsamples = 1\nvalue = [0, 0, 0, 0, 0, 0, 0, 0, 1, 0]\nclass = 8"] ;
864 -> 866 ;
867 [label="gini = 0.0\nsamples = 1\nvalue = [0, 0, 2, 0, 0, 0, 0, 0, 0, 0]\nclass = 2"] ;
863 -> 867 ;
868 [label="x[467] <= 81.5\ngini = 0.375\nsamples = 7\nvalue = [6, 0, 0, 0, 0, 0, 0, 0, 2, 0]\nclass = 0"] ;
860 -> 868 ;
869 [label="gini = 0.0\nsamples = 2\nvalue = [0, 0, 0, 0, 0, 0, 0, 0, 2, 0]\nclass = 8"] ;
868 -> 869 ;
870 [label="gini = 0.0\nsamples = 5\nvalue = [6, 0, 0, 0, 0, 0, 0, 0, 0, 0]\nclass = 0"] ;
868 -> 870 ;
871 [label="x[369] <= 7.5\ngini = 0.389\nsamples = 15\nvalue = [0, 0, 2, 0, 23, 4, 0, 0, 1, 0]\nclass = 4"] ;
807 -> 871 ;
872 [label="x[455] <= 18.5\ngini = 0.571\nsamples = 3\nvalue = [0, 0, 2, 0, 0, 4, 0, 0, 1, 0]\nclass = 5"] ;
871 -> 872 ;
873 [label="x[286] <= 252.5\ngini = 0.444\nsamples = 2\nvalue = [0, 0, 2, 0, 0, 0, 0, 0, 1, 0]\nclass = 2"] ;
872 -> 873 ;
874 [label="gini = 0.0\nsamples = 1\nvalue = [0, 0, 0, 0, 0, 0, 0, 0, 1, 0]\nclass = 8"] ;
873 -> 874 ;
875 [label="gini = 0.0\nsamples = 1\nvalue = [0, 0, 2, 0, 0, 0, 0, 0, 0, 0]\nclass = 2"] ;
873 -> 875 ;
876 [label="gini = 0.0\nsamples = 1\nvalue = [0, 0, 0, 0, 0, 4, 0, 0, 0, 0]\nclass = 5"] ;
872 -> 876 ;
877 [label="gini = 0.0\nsamples = 12\nvalue = [0, 0, 0, 0, 23, 0, 0, 0, 0, 0]\nclass = 4"] ;
871 -> 877 ;
