digraph Tree {
node [shape=box, style="filled", color="black"] ;
0 [label="oldpeak <= 0.9\ngini = 0.467\nsamples = 166\nvalue = [164, 97]\nclass = 0", fillcolor="#f4ccae"] ;
1 [label="exang <= 0.5\ngini = 0.24\nsamples = 99\nvalue = [142, 23]\nclass = 0", fillcolor="#e99559"] ;
0 -> 1 [labeldistance=2.5, labelangle=45, headlabel="True"] ;
2 [label="cp <= 3.5\ngini = 0.204\nsamples = 94\nvalue = [138, 18]\nclass = 0", fillcolor="#e89153"] ;
1 -> 2 ;
3 [label="fbs <= 0.5\ngini = 0.07\nsamples = 66\nvalue = [106, 4]\nclass = 0", fillcolor="#e68640"] ;
2 -> 3 ;
4 [label="chol <= 456.0\ngini = 0.038\nsamples = 63\nvalue = [102, 2]\nclass = 0", fillcolor="#e6833d"] ;
3 -> 4 ;
5 [label="trestbps <= 115.0\ngini = 0.019\nsamples = 62\nvalue = [102, 1]\nclass = 0", fillcolor="#e5823b"] ;
4 -> 5 ;
6 [label="restecg <= 0.5\ngini = 0.142\nsamples = 8\nvalue = [12, 1]\nclass = 0", fillcolor="#e78c49"] ;
5 -> 6 ;
7 [label="thalach <= 141.0\ngini = 0.18\nsamples = 6\nvalue = [9, 1]\nclass = 0", fillcolor="#e88f4f"] ;
6 -> 7 ;
8 [label="gini = 0.0\nsamples = 1\nvalue = [0, 1]\nclass = 1", fillcolor="#399de5"] ;
7 -> 8 ;
9 [label="gini = 0.0\nsamples = 5\nvalue = [9, 0]\nclass = 0", fillcolor="#e58139"] ;
7 -> 9 ;
10 [label="gini = 0.0\nsamples = 2\nvalue = [3, 0]\nclass = 0", fillcolor="#e58139"] ;
6 -> 10 ;
11 [label="gini = 0.0\nsamples = 54\nvalue = [90, 0]\nclass = 0", fillcolor="#e58139"] ;
5 -> 11 ;
12 [label="gini = 0.0\nsamples = 1\nvalue = [0, 1]\nclass = 1", fillcolor="#399de5"] ;
4 -> 12 ;
13 [label="restecg <= 0.5\ngini = 0.444\nsamples = 3\nvalue = [4, 2]\nclass = 0", fillcolor="#f2c09c"] ;
3 -> 13 ;
14 [label="gini = 0.0\nsamples = 2\nvalue = [4, 0]\nclass = 0", fillcolor="#e58139"] ;
13 -> 14 ;
15 [label="gini = 0.0\nsamples = 1\nvalue = [0, 2]\nclass = 1", fillcolor="#399de5"] ;
13 -> 15 ;
16 [label="sex <= 0.5\ngini = 0.423\nsamples = 28\nvalue = [32, 14]\nclass = 0", fillcolor="#f0b890"] ;
2 -> 16 ;
17 [label="gini = 0.0\nsamples = 5\nvalue = [9, 0]\nclass = 0", fillcolor="#e58139"] ;
16 -> 17 ;
18 [label="trestbps <= 125.0\ngini = 0.47\nsamples = 23\nvalue = [23, 14]\nclass = 0", fillcolor="#f5ceb2"] ;
16 -> 18 ;
19 [label="chol <= 210.5\ngini = 0.408\nsamples = 10\nvalue = [4, 10]\nclass = 1", fillcolor="#88c4ef"] ;
18 -> 19 ;
20 [label="gini = 0.0\nsamples = 3\nvalue = [0, 6]\nclass = 1", fillcolor="#399de5"] ;
19 -> 20 ;
21 [label="fbs <= 0.5\ngini = 0.5\nsamples = 7\nvalue = [4, 4]\nclass = 0", fillcolor="#ffffff"] ;
19 -> 21 ;
22 [label="age <= 35.5\ngini = 0.49\nsamples = 6\nvalue = [4, 3]\nclass = 0", fillcolor="#f8e0ce"] ;
21 -> 22 ;
23 [label="gini = 0.0\nsamples = 1\nvalue = [0, 1]\nclass = 1", fillcolor="#399de5"] ;
22 -> 23 ;
24 [label="chol <= 276.5\ngini = 0.444\nsamples = 5\nvalue = [4, 2]\nclass = 0", fillcolor="#f2c09c"] ;
22 -> 24 ;
25 [label="gini = 0.0\nsamples = 3\nvalue = [4, 0]\nclass = 0", fillcolor="#e58139"] ;
24 -> 25 ;
26 [label="gini = 0.0\nsamples = 2\nvalue = [0, 2]\nclass = 1", fillcolor="#399de5"] ;
24 -> 26 ;
27 [label="gini = 0.0\nsamples = 1\nvalue = [0, 1]\nclass = 1", fillcolor="#399de5"] ;
21 -> 27 ;
28 [label="trestbps <= 142.5\ngini = 0.287\nsamples = 13\nvalue = [19, 4]\nclass = 0", fillcolor="#ea9c63"] ;
18 -> 28 ;
29 [label="thalach <= 137.5\ngini = 0.111\nsamples = 9\nvalue = [16, 1]\nclass = 0", fillcolor="#e78945"] ;
28 -> 29 ;
30 [label="chol <= 356.5\ngini = 0.375\nsamples = 3\nvalue = [3, 1]\nclass = 0", fillcolor="#eeab7b"] ;
29 -> 30 ;
31 [label="gini = 0.0\nsamples = 2\nvalue = [3, 0]\nclass = 0", fillcolor="#e58139"] ;
30 -> 31 ;
32 [label="gini = 0.0\nsamples = 1\nvalue = [0, 1]\nclass = 1", fillcolor="#399de5"] ;
30 -> 32 ;
33 [label="gini = 0.0\nsamples = 6\nvalue = [13, 0]\nclass = 0", fillcolor="#e58139"] ;
29 -> 33 ;
34 [label="age <= 48.0\ngini = 0.5\nsamples = 4\nvalue = [3, 3]\nclass = 0", fillcolor="#ffffff"] ;
28 -> 34 ;
35 [label="gini = 0.0\nsamples = 2\nvalue = [3, 0]\nclass = 0", fillcolor="#e58139"] ;
34 -> 35 ;
36 [label="gini = 0.0\nsamples = 2\nvalue = [0, 3]\nclass = 1", fillcolor="#399de5"] ;
34 -> 36 ;
37 [label="thalach <= 120.0\ngini = 0.494\nsamples = 5\nvalue = [4, 5]\nclass = 1", fillcolor="#d7ebfa"] ;
1 -> 37 ;
38 [label="gini = 0.0\nsamples = 2\nvalue = [0, 3]\nclass = 1", fillcolor="#399de5"] ;
37 -> 38 ;
39 [label="trestbps <= 160.0\ngini = 0.444\nsamples = 3\nvalue = [4, 2]\nclass = 0", fillcolor="#f2c09c"] ;
37 -> 39 ;
40 [label="chol <= 282.0\ngini = 0.5\nsamples = 2\nvalue = [2, 2]\nclass = 0", fillcolor="#ffffff"] ;
39 -> 40 ;
41 [label="gini = 0.0\nsamples = 1\nvalue = [2, 0]\nclass = 0", fillcolor="#e58139"] ;
40 -> 41 ;
42 [label="gini = 0.0\nsamples = 1\nvalue = [0, 2]\nclass = 1", fillcolor="#399de5"] ;
40 -> 42 ;
43 [label="gini = 0.0\nsamples = 1\nvalue = [2, 0]\nclass = 0", fillcolor="#e58139"] ;
39 -> 43 ;
44 [label="thalach <= 126.5\ngini = 0.353\nsamples = 67\nvalue = [22, 74]\nclass = 1", fillcolor="#74baed"] ;
0 -> 44 [labeldistance=2.5, labelangle=-45, headlabel="False"] ;
45 [label="sex <= 0.5\ngini = 0.147\nsamples = 36\nvalue = [4, 46]\nclass = 1", fillcolor="#4aa6e7"] ;
44 -> 45 ;
46 [label="age <= 58.5\ngini = 0.48\nsamples = 5\nvalue = [3, 2]\nclass = 0", fillcolor="#f6d5bd"] ;
45 -> 46 ;
47 [label="trestbps <= 129.0\ngini = 0.444\nsamples = 3\nvalue = [1, 2]\nclass = 1", fillcolor="#9ccef2"] ;
46 -> 47 ;
48 [label="gini = 0.0\nsamples = 1\nvalue = [1, 0]\nclass = 0", fillcolor="#e58139"] ;
47 -> 48 ;
49 [label="gini = 0.0\nsamples = 2\nvalue = [0, 2]\nclass = 1", fillcolor="#399de5"] ;
47 -> 49 ;
50 [label="gini = 0.0\nsamples = 2\nvalue = [2, 0]\nclass = 0", fillcolor="#e58139"] ;
46 -> 50 ;
51 [label="oldpeak <= 2.75\ngini = 0.043\nsamples = 31\nvalue = [1, 44]\nclass = 1", fillcolor="#3d9fe6"] ;
45 -> 51 ;
52 [label="gini = 0.0\nsamples = 27\nvalue = [0, 39]\nclass = 1", fillcolor="#399de5"] ;
51 -> 52 ;
53 [label="age <= 52.5\ngini = 0.278\nsamples = 4\nvalue = [1, 5]\nclass = 1", fillcolor="#61b1ea"] ;
51 -> 53 ;
54 [label="gini = 0.0\nsamples = 2\nvalue = [0, 3]\nclass = 1", fillcolor="#399de5"] ;
53 -> 54 ;
55 [label="chol <= 257.5\ngini = 0.444\nsamples = 2\nvalue = [1, 2]\nclass = 1", fillcolor="#9ccef2"] ;
53 -> 55 ;
56 [label="gini = 0.0\nsamples = 1\nvalue = [0, 2]\nclass = 1", fillcolor="#399de5"] ;
55 -> 56 ;
57 [label="gini = 0.0\nsamples = 1\nvalue = [1, 0]\nclass = 0", fillcolor="#e58139"] ;
55 -> 57 ;
58 [label="trestbps <= 132.5\ngini = 0.476\nsamples = 31\nvalue = [18, 28]\nclass = 1", fillcolor="#b8dcf6"] ;
44 -> 58 ;
59 [label="thalach <= 151.0\ngini = 0.444\nsamples = 14\nvalue = [12, 6]\nclass = 0", fillcolor="#f2c09c"] ;
58 -> 59 ;
60 [label="chol <= 277.5\ngini = 0.49\nsamples = 11\nvalue = [8, 6]\nclass = 0", fillcolor="#f8e0ce"] ;
59 -> 60 ;
61 [label="age <= 50.0\ngini = 0.397\nsamples = 9\nvalue = [8, 3]\nclass = 0", fillcolor="#efb083"] ;
60 -> 61 ;
62 [label="exang <= 0.5\ngini = 0.48\nsamples = 4\nvalue = [2, 3]\nclass = 1", fillcolor="#bddef6"] ;
61 -> 62 ;
63 [label="gini = 0.0\nsamples = 1\nvalue = [2, 0]\nclass = 0", fillcolor="#e58139"] ;
62 -> 63 ;
64 [label="gini = 0.0\nsamples = 3\nvalue = [0, 3]\nclass = 1", fillcolor="#399de5"] ;
62 -> 64 ;
65 [label="gini = 0.0\nsamples = 5\nvalue = [6, 0]\nclass = 0", fillcolor="#e58139"] ;
61 -> 65 ;
66 [label="gini = 0.0\nsamples = 2\nvalue = [0, 3]\nclass = 1", fillcolor="#399de5"] ;
60 -> 66 ;
67 [label="gini = 0.0\nsamples = 3\nvalue = [4, 0]\nclass = 0", fillcolor="#e58139"] ;
59 -> 67 ;
68 [label="thalach <= 132.0\ngini = 0.337\nsamples = 17\nvalue = [6, 22]\nclass = 1", fillcolor="#6fb8ec"] ;
58 -> 68 ;
69 [label="oldpeak <= 1.25\ngini = 0.444\nsamples = 4\nvalue = [4, 2]\nclass = 0", fillcolor="#f2c09c"] ;
68 -> 69 ;
70 [label="gini = 0.0\nsamples = 2\nvalue = [4, 0]\nclass = 0", fillcolor="#e58139"] ;
69 -> 70 ;
71 [label="gini = 0.0\nsamples = 2\nvalue = [0, 2]\nclass = 1", fillcolor="#399de5"] ;
69 -> 71 ;
72 [label="age <= 59.5\ngini = 0.165\nsamples = 13\nvalue = [2, 20]\nclass = 1", fillcolor="#4da7e8"] ;
68 -> 72 ;
73 [label="chol <= 334.0\ngini = 0.091\nsamples = 12\nvalue = [1, 20]\nclass = 1", fillcolor="#43a2e6"] ;
72 -> 73 ;
74 [label="gini = 0.0\nsamples = 11\nvalue = [0, 20]\nclass = 1", fillcolor="#399de5"] ;
73 -> 74 ;
75 [label="gini = 0.0\nsamples = 1\nvalue = [1, 0]\nclass = 0", fillcolor="#e58139"] ;
73 -> 75 ;
76 [label="gini = 0.0\nsamples = 1\nvalue = [1, 0]\nclass = 0", fillcolor="#e58139"] ;
72 -> 76 ;
}