digraph Tree {
node [shape=box, style="filled, rounded", color="black", fontname="helvetica"] ;
edge [fontname="helvetica"] ;
0 [label="exang <= 0.5\ngini = 0.46\nsamples = 137\nvalue = [133, 75]\nclass = 0", fillcolor="#f4c8a9"] ;
1 [label="fbs <= 0.5\ngini = 0.21\nsamples = 89\nvalue = [120, 16]\nclass = 0", fillcolor="#e89253"] ;
0 -> 1 [labeldistance=2.5, labelangle=45, headlabel="True"] ;
2 [label="chol <= 465.0\ngini = 0.16\nsamples = 81\nvalue = [115, 11]\nclass = 0", fillcolor="#e78d4c"] ;
1 -> 2 ;
3 [label="cp <= 3.5\ngini = 0.13\nsamples = 79\nvalue = [115, 9]\nclass = 0", fillcolor="#e78b48"] ;
2 -> 3 ;
4 [label="thalach <= 157.5\ngini = 0.06\nsamples = 57\nvalue = [88, 3]\nclass = 0", fillcolor="#e68540"] ;
3 -> 4 ;
5 [label="restecg <= 0.5\ngini = 0.03\nsamples = 42\nvalue = [67, 1]\nclass = 0", fillcolor="#e5833c"] ;
4 -> 5 ;
6 [label="gini = 0.0\nsamples = 31\nvalue = [49, 0]\nclass = 0", fillcolor="#e58139"] ;
5 -> 6 ;
7 [label="cp <= 2.5\ngini = 0.1\nsamples = 11\nvalue = [18, 1]\nclass = 0", fillcolor="#e68844"] ;
5 -> 7 ;
8 [label="gini = 0.0\nsamples = 6\nvalue = [10, 0]\nclass = 0", fillcolor="#e58139"] ;
7 -> 8 ;
9 [label="trestbps <= 125.0\ngini = 0.2\nsamples = 5\nvalue = [8, 1]\nclass = 0", fillcolor="#e89152"] ;
7 -> 9 ;
10 [label="gini = 0.0\nsamples = 3\nvalue = [6, 0]\nclass = 0", fillcolor="#e58139"] ;
9 -> 10 ;
11 [label="age <= 53.5\ngini = 0.44\nsamples = 2\nvalue = [2, 1]\nclass = 0", fillcolor="#f2c09c"] ;
9 -> 11 ;
12 [label="gini = 0.0\nsamples = 1\nvalue = [2, 0]\nclass = 0", fillcolor="#e58139"] ;
11 -> 12 ;
13 [label="gini = 0.0\nsamples = 1\nvalue = [0, 1]\nclass = 1", fillcolor="#399de5"] ;
11 -> 13 ;
14 [label="oldpeak <= 1.5\ngini = 0.16\nsamples = 15\nvalue = [21, 2]\nclass = 0", fillcolor="#e78d4c"] ;
4 -> 14 ;
15 [label="gini = 0.0\nsamples = 14\nvalue = [21, 0]\nclass = 0", fillcolor="#e58139"] ;
14 -> 15 ;
16 [label="gini = 0.0\nsamples = 1\nvalue = [0, 2]\nclass = 1", fillcolor="#399de5"] ;
14 -> 16 ;
17 [label="chol <= 224.5\ngini = 0.3\nsamples = 22\nvalue = [27, 6]\nclass = 0", fillcolor="#eb9d65"] ;
3 -> 17 ;
18 [label="sex <= 0.5\ngini = 0.46\nsamples = 10\nvalue = [9, 5]\nclass = 0", fillcolor="#f3c7a7"] ;
17 -> 18 ;
19 [label="gini = 0.0\nsamples = 3\nvalue = [5, 0]\nclass = 0", fillcolor="#e58139"] ;
18 -> 19 ;
20 [label="oldpeak <= 1.0\ngini = 0.49\nsamples = 7\nvalue = [4, 5]\nclass = 1", fillcolor="#d7ebfa"] ;
18 -> 20 ;
21 [label="thalach <= 107.5\ngini = 0.5\nsamples = 6\nvalue = [4, 4]\nclass = 0", fillcolor="#ffffff"] ;
20 -> 21 ;
22 [label="gini = 0.0\nsamples = 1\nvalue = [2, 0]\nclass = 0", fillcolor="#e58139"] ;
21 -> 22 ;
23 [label="age <= 52.5\ngini = 0.44\nsamples = 5\nvalue = [2, 4]\nclass = 1", fillcolor="#9ccef2"] ;
21 -> 23 ;
24 [label="gini = 0.0\nsamples = 3\nvalue = [0, 3]\nclass = 1", fillcolor="#399de5"] ;
23 -> 24 ;
25 [label="chol <= 202.5\ngini = 0.44\nsamples = 2\nvalue = [2, 1]\nclass = 0", fillcolor="#f2c09c"] ;
23 -> 25 ;
26 [label="gini = 0.0\nsamples = 1\nvalue = [2, 0]\nclass = 0", fillcolor="#e58139"] ;
25 -> 26 ;
27 [label="gini = 0.0\nsamples = 1\nvalue = [0, 1]\nclass = 1", fillcolor="#399de5"] ;
25 -> 27 ;
28 [label="gini = 0.0\nsamples = 1\nvalue = [0, 1]\nclass = 1", fillcolor="#399de5"] ;
20 -> 28 ;
29 [label="thalach <= 147.0\ngini = 0.1\nsamples = 12\nvalue = [18, 1]\nclass = 0", fillcolor="#e68844"] ;
17 -> 29 ;
30 [label="gini = 0.0\nsamples = 8\nvalue = [15, 0]\nclass = 0", fillcolor="#e58139"] ;
29 -> 30 ;
31 [label="trestbps <= 125.0\ngini = 0.38\nsamples = 4\nvalue = [3, 1]\nclass = 0", fillcolor="#eeab7b"] ;
29 -> 31 ;
32 [label="gini = 0.0\nsamples = 1\nvalue = [0, 1]\nclass = 1", fillcolor="#399de5"] ;
31 -> 32 ;
33 [label="gini = 0.0\nsamples = 3\nvalue = [3, 0]\nclass = 0", fillcolor="#e58139"] ;
31 -> 33 ;
34 [label="gini = 0.0\nsamples = 2\nvalue = [0, 2]\nclass = 1", fillcolor="#399de5"] ;
2 -> 34 ;
35 [label="age <= 51.0\ngini = 0.5\nsamples = 8\nvalue = [5, 5]\nclass = 0", fillcolor="#ffffff"] ;
1 -> 35 ;
36 [label="oldpeak <= 1.0\ngini = 0.32\nsamples = 4\nvalue = [1, 4]\nclass = 1", fillcolor="#6ab6ec"] ;
35 -> 36 ;
37 [label="trestbps <= 137.5\ngini = 0.44\nsamples = 3\nvalue = [1, 2]\nclass = 1", fillcolor="#9ccef2"] ;
36 -> 37 ;
38 [label="gini = 0.0\nsamples = 2\nvalue = [0, 2]\nclass = 1", fillcolor="#399de5"] ;
37 -> 38 ;
39 [label="gini = 0.0\nsamples = 1\nvalue = [1, 0]\nclass = 0", fillcolor="#e58139"] ;
37 -> 39 ;
40 [label="gini = 0.0\nsamples = 1\nvalue = [0, 2]\nclass = 1", fillcolor="#399de5"] ;
36 -> 40 ;
41 [label="cp <= 2.5\ngini = 0.32\nsamples = 4\nvalue = [4, 1]\nclass = 0", fillcolor="#eca06a"] ;
35 -> 41 ;
42 [label="gini = 0.0\nsamples = 3\nvalue = [4, 0]\nclass = 0", fillcolor="#e58139"] ;
41 -> 42 ;
43 [label="gini = 0.0\nsamples = 1\nvalue = [0, 1]\nclass = 1", fillcolor="#399de5"] ;
41 -> 43 ;
44 [label="thalach <= 159.0\ngini = 0.3\nsamples = 48\nvalue = [13, 59]\nclass = 1", fillcolor="#65b3eb"] ;
0 -> 44 [labeldistance=2.5, labelangle=-45, headlabel="False"] ;
45 [label="oldpeak <= 0.9\ngini = 0.25\nsamples = 45\nvalue = [10, 59]\nclass = 1", fillcolor="#5baee9"] ;
44 -> 45 ;
46 [label="oldpeak <= 0.4\ngini = 0.48\nsamples = 9\nvalue = [7, 11]\nclass = 1", fillcolor="#b7dbf6"] ;
45 -> 46 ;
47 [label="age <= 60.0\ngini = 0.46\nsamples = 8\nvalue = [6, 11]\nclass = 1", fillcolor="#a5d2f3"] ;
46 -> 47 ;
48 [label="age <= 48.0\ngini = 0.34\nsamples = 7\nvalue = [3, 11]\nclass = 1", fillcolor="#6fb8ec"] ;
47 -> 48 ;
49 [label="age <= 46.5\ngini = 0.48\nsamples = 2\nvalue = [3, 2]\nclass = 0", fillcolor="#f6d5bd"] ;
48 -> 49 ;
50 [label="gini = 0.0\nsamples = 1\nvalue = [0, 2]\nclass = 1", fillcolor="#399de5"] ;
49 -> 50 ;
51 [label="gini = 0.0\nsamples = 1\nvalue = [3, 0]\nclass = 0", fillcolor="#e58139"] ;
49 -> 51 ;
52 [label="gini = 0.0\nsamples = 5\nvalue = [0, 9]\nclass = 1", fillcolor="#399de5"] ;
48 -> 52 ;
53 [label="gini = 0.0\nsamples = 1\nvalue = [3, 0]\nclass = 0", fillcolor="#e58139"] ;
47 -> 53 ;
54 [label="gini = 0.0\nsamples = 1\nvalue = [1, 0]\nclass = 0", fillcolor="#e58139"] ;
46 -> 54 ;
55 [label="cp <= 3.0\ngini = 0.11\nsamples = 36\nvalue = [3, 48]\nclass = 1", fillcolor="#45a3e7"] ;
45 -> 55 ;
56 [label="thalach <= 143.5\ngini = 0.44\nsamples = 3\nvalue = [1, 2]\nclass = 1", fillcolor="#9ccef2"] ;
55 -> 56 ;
57 [label="gini = 0.0\nsamples = 1\nvalue = [1, 0]\nclass = 0", fillcolor="#e58139"] ;
56 -> 57 ;
58 [label="gini = 0.0\nsamples = 2\nvalue = [0, 2]\nclass = 1", fillcolor="#399de5"] ;
56 -> 58 ;
59 [label="thalach <= 132.0\ngini = 0.08\nsamples = 33\nvalue = [2, 46]\nclass = 1", fillcolor="#42a1e6"] ;
55 -> 59 ;
60 [label="oldpeak <= 1.25\ngini = 0.12\nsamples = 22\nvalue = [2, 28]\nclass = 1", fillcolor="#47a4e7"] ;
59 -> 60 ;
61 [label="sex <= 0.5\ngini = 0.28\nsamples = 5\nvalue = [1, 5]\nclass = 1", fillcolor="#61b1ea"] ;
60 -> 61 ;
62 [label="gini = 0.0\nsamples = 1\nvalue = [1, 0]\nclass = 0", fillcolor="#e58139"] ;
61 -> 62 ;
63 [label="gini = 0.0\nsamples = 4\nvalue = [0, 5]\nclass = 1", fillcolor="#399de5"] ;
61 -> 63 ;
64 [label="oldpeak <= 2.75\ngini = 0.08\nsamples = 17\nvalue = [1, 23]\nclass = 1", fillcolor="#42a1e6"] ;
60 -> 64 ;
65 [label="gini = 0.0\nsamples = 13\nvalue = [0, 18]\nclass = 1", fillcolor="#399de5"] ;
64 -> 65 ;
66 [label="age <= 52.5\ngini = 0.28\nsamples = 4\nvalue = [1, 5]\nclass = 1", fillcolor="#61b1ea"] ;
64 -> 66 ;
67 [label="gini = 0.0\nsamples = 2\nvalue = [0, 4]\nclass = 1", fillcolor="#399de5"] ;
66 -> 67 ;
68 [label="trestbps <= 137.0\ngini = 0.5\nsamples = 2\nvalue = [1, 1]\nclass = 0", fillcolor="#ffffff"] ;
66 -> 68 ;
69 [label="gini = 0.0\nsamples = 1\nvalue = [1, 0]\nclass = 0", fillcolor="#e58139"] ;
68 -> 69 ;
70 [label="gini = 0.0\nsamples = 1\nvalue = [0, 1]\nclass = 1", fillcolor="#399de5"] ;
68 -> 70 ;
71 [label="gini = 0.0\nsamples = 11\nvalue = [0, 18]\nclass = 1", fillcolor="#399de5"] ;
59 -> 71 ;
72 [label="gini = 0.0\nsamples = 3\nvalue = [3, 0]\nclass = 0", fillcolor="#e58139"] ;
44 -> 72 ;
}