digraph Tree {
node [shape=box, fontname="helvetica"] ;
edge [fontname="helvetica"] ;
0 [label="cp <= 3.5\ngini = 0.461\nsamples = 137\nvalue = [133, 75]\nclass = 0"] ;
1 [label="exang <= 0.5\ngini = 0.232\nsamples = 73\nvalue = [97, 15]\nclass = 0"] ;
0 -> 1 [labeldistance=2.5, labelangle=45, headlabel="True"] ;
2 [label="oldpeak <= 1.75\ngini = 0.146\nsamples = 65\nvalue = [93, 8]\nclass = 0"] ;
1 -> 2 ;
3 [label="oldpeak <= 0.5\ngini = 0.081\nsamples = 62\nvalue = [91, 4]\nclass = 0"] ;
2 -> 3 ;
4 [label="age <= 57.5\ngini = 0.087\nsamples = 57\nvalue = [84, 4]\nclass = 0"] ;
3 -> 4 ;
5 [label="random <= 0.86\ngini = 0.048\nsamples = 52\nvalue = [79, 2]\nclass = 0"] ;
4 -> 5 ;
6 [label="gini = 0.0\nsamples = 43\nvalue = [67, 0]\nclass = 0"] ;
5 -> 6 ;
7 [label="chol <= 404.5\ngini = 0.245\nsamples = 9\nvalue = [12, 2]\nclass = 0"] ;
5 -> 7 ;
8 [label="fbs <= 0.5\ngini = 0.142\nsamples = 8\nvalue = [12, 1]\nclass = 0"] ;
7 -> 8 ;
9 [label="gini = 0.0\nsamples = 6\nvalue = [11, 0]\nclass = 0"] ;
8 -> 9 ;
10 [label="age <= 51.0\ngini = 0.5\nsamples = 2\nvalue = [1, 1]\nclass = 0"] ;
8 -> 10 ;
11 [label="gini = 0.0\nsamples = 1\nvalue = [0, 1]\nclass = 1"] ;
10 -> 11 ;
12 [label="gini = 0.0\nsamples = 1\nvalue = [1, 0]\nclass = 0"] ;
10 -> 12 ;
13 [label="gini = 0.0\nsamples = 1\nvalue = [0, 1]\nclass = 1"] ;
7 -> 13 ;
14 [label="age <= 58.5\ngini = 0.408\nsamples = 5\nvalue = [5, 2]\nclass = 0"] ;
4 -> 14 ;
15 [label="chol <= 195.0\ngini = 0.444\nsamples = 3\nvalue = [1, 2]\nclass = 1"] ;
14 -> 15 ;
16 [label="gini = 0.0\nsamples = 1\nvalue = [1, 0]\nclass = 0"] ;
15 -> 16 ;
17 [label="gini = 0.0\nsamples = 2\nvalue = [0, 2]\nclass = 1"] ;
15 -> 17 ;
18 [label="gini = 0.0\nsamples = 2\nvalue = [4, 0]\nclass = 0"] ;
14 -> 18 ;
19 [label="gini = 0.0\nsamples = 5\nvalue = [7, 0]\nclass = 0"] ;
3 -> 19 ;
20 [label="age <= 50.0\ngini = 0.444\nsamples = 3\nvalue = [2, 4]\nclass = 1"] ;
2 -> 20 ;
21 [label="gini = 0.0\nsamples = 2\nvalue = [0, 4]\nclass = 1"] ;
20 -> 21 ;
22 [label="gini = 0.0\nsamples = 1\nvalue = [2, 0]\nclass = 0"] ;
20 -> 22 ;
23 [label="thalach <= 155.0\ngini = 0.463\nsamples = 8\nvalue = [4, 7]\nclass = 1"] ;
1 -> 23 ;
24 [label="restecg <= 0.5\ngini = 0.219\nsamples = 5\nvalue = [1, 7]\nclass = 1"] ;
23 -> 24 ;
25 [label="age <= 51.5\ngini = 0.444\nsamples = 3\nvalue = [1, 2]\nclass = 1"] ;
24 -> 25 ;
26 [label="gini = 0.0\nsamples = 2\nvalue = [0, 2]\nclass = 1"] ;
25 -> 26 ;
27 [label="gini = 0.0\nsamples = 1\nvalue = [1, 0]\nclass = 0"] ;
25 -> 27 ;
28 [label="gini = 0.0\nsamples = 2\nvalue = [0, 5]\nclass = 1"] ;
24 -> 28 ;
29 [label="gini = 0.0\nsamples = 3\nvalue = [3, 0]\nclass = 0"] ;
23 -> 29 ;
30 [label="random <= 0.639\ngini = 0.469\nsamples = 64\nvalue = [36, 60]\nclass = 1"] ;
0 -> 30 [labeldistance=2.5, labelangle=-45, headlabel="False"] ;
31 [label="exang <= 0.5\ngini = 0.396\nsamples = 47\nvalue = [19, 51]\nclass = 1"] ;
30 -> 31 ;
32 [label="random <= 0.313\ngini = 0.388\nsamples = 14\nvalue = [14, 5]\nclass = 0"] ;
31 -> 32 ;
33 [label="chol <= 202.0\ngini = 0.165\nsamples = 7\nvalue = [10, 1]\nclass = 0"] ;
32 -> 33 ;
34 [label="gini = 0.0\nsamples = 1\nvalue = [0, 1]\nclass = 1"] ;
33 -> 34 ;
35 [label="gini = 0.0\nsamples = 6\nvalue = [10, 0]\nclass = 0"] ;
33 -> 35 ;
36 [label="sex <= 0.5\ngini = 0.5\nsamples = 7\nvalue = [4, 4]\nclass = 0"] ;
32 -> 36 ;
37 [label="gini = 0.0\nsamples = 2\nvalue = [3, 0]\nclass = 0"] ;
36 -> 37 ;
38 [label="fbs <= 0.5\ngini = 0.32\nsamples = 5\nvalue = [1, 4]\nclass = 1"] ;
36 -> 38 ;
39 [label="age <= 49.5\ngini = 0.375\nsamples = 4\nvalue = [1, 3]\nclass = 1"] ;
38 -> 39 ;
40 [label="gini = 0.0\nsamples = 2\nvalue = [0, 2]\nclass = 1"] ;
39 -> 40 ;
41 [label="random <= 0.544\ngini = 0.5\nsamples = 2\nvalue = [1, 1]\nclass = 0"] ;
39 -> 41 ;
42 [label="gini = 0.0\nsamples = 1\nvalue = [1, 0]\nclass = 0"] ;
41 -> 42 ;
43 [label="gini = 0.0\nsamples = 1\nvalue = [0, 1]\nclass = 1"] ;
41 -> 43 ;
44 [label="gini = 0.0\nsamples = 1\nvalue = [0, 1]\nclass = 1"] ;
38 -> 44 ;
45 [label="fbs <= 0.5\ngini = 0.177\nsamples = 33\nvalue = [5, 46]\nclass = 1"] ;
31 -> 45 ;
46 [label="restecg <= 0.5\ngini = 0.201\nsamples = 29\nvalue = [5, 39]\nclass = 1"] ;
45 -> 46 ;
47 [label="trestbps <= 145.0\ngini = 0.062\nsamples = 21\nvalue = [1, 30]\nclass = 1"] ;
46 -> 47 ;
48 [label="gini = 0.0\nsamples = 16\nvalue = [0, 25]\nclass = 1"] ;
47 -> 48 ;
49 [label="chol <= 237.0\ngini = 0.278\nsamples = 5\nvalue = [1, 5]\nclass = 1"] ;
47 -> 49 ;
50 [label="age <= 51.0\ngini = 0.5\nsamples = 2\nvalue = [1, 1]\nclass = 0"] ;
49 -> 50 ;
51 [label="gini = 0.0\nsamples = 1\nvalue = [1, 0]\nclass = 0"] ;
50 -> 51 ;
52 [label="gini = 0.0\nsamples = 1\nvalue = [0, 1]\nclass = 1"] ;
50 -> 52 ;
53 [label="gini = 0.0\nsamples = 3\nvalue = [0, 4]\nclass = 1"] ;
49 -> 53 ;
54 [label="random <= 0.332\ngini = 0.426\nsamples = 8\nvalue = [4, 9]\nclass = 1"] ;
46 -> 54 ;
55 [label="age <= 50.0\ngini = 0.444\nsamples = 3\nvalue = [4, 2]\nclass = 0"] ;
54 -> 55 ;
56 [label="gini = 0.0\nsamples = 1\nvalue = [0, 2]\nclass = 1"] ;
55 -> 56 ;
57 [label="gini = 0.0\nsamples = 2\nvalue = [4, 0]\nclass = 0"] ;
55 -> 57 ;
58 [label="gini = 0.0\nsamples = 5\nvalue = [0, 7]\nclass = 1"] ;
54 -> 58 ;
59 [label="gini = 0.0\nsamples = 4\nvalue = [0, 7]\nclass = 1"] ;
45 -> 59 ;
60 [label="random <= 0.79\ngini = 0.453\nsamples = 17\nvalue = [17, 9]\nclass = 0"] ;
30 -> 60 ;
61 [label="trestbps <= 155.0\ngini = 0.208\nsamples = 8\nvalue = [15, 2]\nclass = 0"] ;
60 -> 61 ;
62 [label="gini = 0.0\nsamples = 6\nvalue = [10, 0]\nclass = 0"] ;
61 -> 62 ;
63 [label="exang <= 0.5\ngini = 0.408\nsamples = 2\nvalue = [5, 2]\nclass = 0"] ;
61 -> 63 ;
64 [label="gini = 0.0\nsamples = 1\nvalue = [5, 0]\nclass = 0"] ;
63 -> 64 ;
65 [label="gini = 0.0\nsamples = 1\nvalue = [0, 2]\nclass = 1"] ;
63 -> 65 ;
66 [label="oldpeak <= 0.9\ngini = 0.346\nsamples = 9\nvalue = [2, 7]\nclass = 1"] ;
60 -> 66 ;
67 [label="trestbps <= 125.0\ngini = 0.5\nsamples = 4\nvalue = [2, 2]\nclass = 0"] ;
66 -> 67 ;
68 [label="gini = 0.0\nsamples = 2\nvalue = [0, 2]\nclass = 1"] ;
67 -> 68 ;
69 [label="gini = 0.0\nsamples = 2\nvalue = [2, 0]\nclass = 0"] ;
67 -> 69 ;
70 [label="gini = 0.0\nsamples = 5\nvalue = [0, 5]\nclass = 1"] ;
66 -> 70 ;
}