digraph Tree {
node [shape=box, fontname="helvetica"] ;
edge [fontname="helvetica"] ;
0 [label="cp <= 3.5\ngini = 0.461\nsamples = 137\nvalue = [133, 75]\nclass = 0"] ;
1 [label="exang <= 0.5\ngini = 0.232\nsamples = 73\nvalue = [97, 15]\nclass = 0"] ;
0 -> 1 [labeldistance=2.5, labelangle=45, headlabel="True"] ;
2 [label="oldpeak <= 1.75\ngini = 0.146\nsamples = 65\nvalue = [93, 8]\nclass = 0"] ;
1 -> 2 ;
3 [label="oldpeak <= 0.5\ngini = 0.081\nsamples = 62\nvalue = [91, 4]\nclass = 0"] ;
2 -> 3 ;
4 [label="age <= 57.5\ngini = 0.087\nsamples = 57\nvalue = [84, 4]\nclass = 0"] ;
3 -> 4 ;
5 [label="age <= 46.5\ngini = 0.048\nsamples = 52\nvalue = [79, 2]\nclass = 0"] ;
4 -> 5 ;
6 [label="gini = 0.0\nsamples = 25\nvalue = [41, 0]\nclass = 0"] ;
5 -> 6 ;
7 [label="chol <= 456.0\ngini = 0.095\nsamples = 27\nvalue = [38, 2]\nclass = 0"] ;
5 -> 7 ;
8 [label="fbs <= 0.5\ngini = 0.05\nsamples = 26\nvalue = [38, 1]\nclass = 0"] ;
7 -> 8 ;
9 [label="gini = 0.0\nsamples = 22\nvalue = [34, 0]\nclass = 0"] ;
8 -> 9 ;
10 [label="age <= 50.5\ngini = 0.32\nsamples = 4\nvalue = [4, 1]\nclass = 0"] ;
8 -> 10 ;
11 [label="gini = 0.0\nsamples = 1\nvalue = [0, 1]\nclass = 1"] ;
10 -> 11 ;
12 [label="gini = 0.0\nsamples = 3\nvalue = [4, 0]\nclass = 0"] ;
10 -> 12 ;
13 [label="gini = 0.0\nsamples = 1\nvalue = [0, 1]\nclass = 1"] ;
7 -> 13 ;
14 [label="age <= 58.5\ngini = 0.408\nsamples = 5\nvalue = [5, 2]\nclass = 0"] ;
4 -> 14 ;
15 [label="chol <= 195.0\ngini = 0.444\nsamples = 3\nvalue = [1, 2]\nclass = 1"] ;
14 -> 15 ;
16 [label="gini = 0.0\nsamples = 1\nvalue = [1, 0]\nclass = 0"] ;
15 -> 16 ;
17 [label="gini = 0.0\nsamples = 2\nvalue = [0, 2]\nclass = 1"] ;
15 -> 17 ;
18 [label="gini = 0.0\nsamples = 2\nvalue = [4, 0]\nclass = 0"] ;
14 -> 18 ;
19 [label="gini = 0.0\nsamples = 5\nvalue = [7, 0]\nclass = 0"] ;
3 -> 19 ;
20 [label="age <= 50.0\ngini = 0.444\nsamples = 3\nvalue = [2, 4]\nclass = 1"] ;
2 -> 20 ;
21 [label="gini = 0.0\nsamples = 2\nvalue = [0, 4]\nclass = 1"] ;
20 -> 21 ;
22 [label="gini = 0.0\nsamples = 1\nvalue = [2, 0]\nclass = 0"] ;
20 -> 22 ;
23 [label="thalach <= 155.0\ngini = 0.463\nsamples = 8\nvalue = [4, 7]\nclass = 1"] ;
1 -> 23 ;
24 [label="restecg <= 0.5\ngini = 0.219\nsamples = 5\nvalue = [1, 7]\nclass = 1"] ;
23 -> 24 ;
25 [label="age <= 51.5\ngini = 0.444\nsamples = 3\nvalue = [1, 2]\nclass = 1"] ;
24 -> 25 ;
26 [label="gini = 0.0\nsamples = 2\nvalue = [0, 2]\nclass = 1"] ;
25 -> 26 ;
27 [label="gini = 0.0\nsamples = 1\nvalue = [1, 0]\nclass = 0"] ;
25 -> 27 ;
28 [label="gini = 0.0\nsamples = 2\nvalue = [0, 5]\nclass = 1"] ;
24 -> 28 ;
29 [label="gini = 0.0\nsamples = 3\nvalue = [3, 0]\nclass = 0"] ;
23 -> 29 ;
30 [label="random <= 0.775\ngini = 0.469\nsamples = 64\nvalue = [36, 60]\nclass = 1"] ;
0 -> 30 [labeldistance=2.5, labelangle=-45, headlabel="False"] ;
31 [label="exang <= 0.5\ngini = 0.496\nsamples = 48\nvalue = [32, 38]\nclass = 1"] ;
30 -> 31 ;
32 [label="random <= 0.324\ngini = 0.383\nsamples = 21\nvalue = [23, 8]\nclass = 0"] ;
31 -> 32 ;
33 [label="restecg <= 0.5\ngini = 0.497\nsamples = 11\nvalue = [7, 6]\nclass = 0"] ;
32 -> 33 ;
34 [label="thalach <= 135.0\ngini = 0.444\nsamples = 8\nvalue = [3, 6]\nclass = 1"] ;
33 -> 34 ;
35 [label="gini = 0.0\nsamples = 3\nvalue = [0, 3]\nclass = 1"] ;
34 -> 35 ;
36 [label="age <= 42.0\ngini = 0.5\nsamples = 5\nvalue = [3, 3]\nclass = 0"] ;
34 -> 36 ;
37 [label="gini = 0.0\nsamples = 2\nvalue = [0, 2]\nclass = 1"] ;
36 -> 37 ;
38 [label="trestbps <= 125.0\ngini = 0.375\nsamples = 3\nvalue = [3, 1]\nclass = 0"] ;
36 -> 38 ;
39 [label="random <= 0.275\ngini = 0.5\nsamples = 2\nvalue = [1, 1]\nclass = 0"] ;
38 -> 39 ;
40 [label="gini = 0.0\nsamples = 1\nvalue = [0, 1]\nclass = 1"] ;
39 -> 40 ;
41 [label="gini = 0.0\nsamples = 1\nvalue = [1, 0]\nclass = 0"] ;
39 -> 41 ;
42 [label="gini = 0.0\nsamples = 1\nvalue = [2, 0]\nclass = 0"] ;
38 -> 42 ;
43 [label="gini = 0.0\nsamples = 3\nvalue = [4, 0]\nclass = 0"] ;
33 -> 43 ;
44 [label="age <= 60.5\ngini = 0.198\nsamples = 10\nvalue = [16, 2]\nclass = 0"] ;
32 -> 44 ;
45 [label="oldpeak <= 1.0\ngini = 0.111\nsamples = 9\nvalue = [16, 1]\nclass = 0"] ;
44 -> 45 ;
46 [label="gini = 0.0\nsamples = 7\nvalue = [15, 0]\nclass = 0"] ;
45 -> 46 ;
47 [label="sex <= 0.5\ngini = 0.5\nsamples = 2\nvalue = [1, 1]\nclass = 0"] ;
45 -> 47 ;
48 [label="gini = 0.0\nsamples = 1\nvalue = [1, 0]\nclass = 0"] ;
47 -> 48 ;
49 [label="gini = 0.0\nsamples = 1\nvalue = [0, 1]\nclass = 1"] ;
47 -> 49 ;
50 [label="gini = 0.0\nsamples = 1\nvalue = [0, 1]\nclass = 1"] ;
44 -> 50 ;
51 [label="oldpeak <= 1.25\ngini = 0.355\nsamples = 27\nvalue = [9, 30]\nclass = 1"] ;
31 -> 51 ;
52 [label="chol <= 270.0\ngini = 0.498\nsamples = 9\nvalue = [8, 7]\nclass = 0"] ;
51 -> 52 ;
53 [label="trestbps <= 145.0\ngini = 0.245\nsamples = 5\nvalue = [1, 6]\nclass = 1"] ;
52 -> 53 ;
54 [label="gini = 0.0\nsamples = 4\nvalue = [0, 6]\nclass = 1"] ;
53 -> 54 ;
55 [label="gini = 0.0\nsamples = 1\nvalue = [1, 0]\nclass = 0"] ;
53 -> 55 ;
56 [label="thalach <= 122.5\ngini = 0.219\nsamples = 4\nvalue = [7, 1]\nclass = 0"] ;
52 -> 56 ;
57 [label="thalach <= 117.5\ngini = 0.375\nsamples = 2\nvalue = [3, 1]\nclass = 0"] ;
56 -> 57 ;
58 [label="gini = 0.0\nsamples = 1\nvalue = [3, 0]\nclass = 0"] ;
57 -> 58 ;
59 [label="gini = 0.0\nsamples = 1\nvalue = [0, 1]\nclass = 1"] ;
57 -> 59 ;
60 [label="gini = 0.0\nsamples = 2\nvalue = [4, 0]\nclass = 0"] ;
56 -> 60 ;
61 [label="chol <= 261.5\ngini = 0.08\nsamples = 18\nvalue = [1, 23]\nclass = 1"] ;
51 -> 61 ;
62 [label="restecg <= 0.5\ngini = 0.198\nsamples = 8\nvalue = [1, 8]\nclass = 1"] ;
61 -> 62 ;
63 [label="gini = 0.0\nsamples = 5\nvalue = [0, 6]\nclass = 1"] ;
62 -> 63 ;
64 [label="random <= 0.44\ngini = 0.444\nsamples = 3\nvalue = [1, 2]\nclass = 1"] ;
62 -> 64 ;
65 [label="gini = 0.0\nsamples = 1\nvalue = [1, 0]\nclass = 0"] ;
64 -> 65 ;
66 [label="gini = 0.0\nsamples = 2\nvalue = [0, 2]\nclass = 1"] ;
64 -> 66 ;
67 [label="gini = 0.0\nsamples = 10\nvalue = [0, 15]\nclass = 1"] ;
61 -> 67 ;
68 [label="sex <= 0.5\ngini = 0.26\nsamples = 16\nvalue = [4, 22]\nclass = 1"] ;
30 -> 68 ;
69 [label="trestbps <= 150.0\ngini = 0.375\nsamples = 3\nvalue = [3, 1]\nclass = 0"] ;
68 -> 69 ;
70 [label="gini = 0.0\nsamples = 2\nvalue = [3, 0]\nclass = 0"] ;
69 -> 70 ;
71 [label="gini = 0.0\nsamples = 1\nvalue = [0, 1]\nclass = 1"] ;
69 -> 71 ;
72 [label="age <= 45.5\ngini = 0.087\nsamples = 13\nvalue = [1, 21]\nclass = 1"] ;
68 -> 72 ;
73 [label="exang <= 0.5\ngini = 0.245\nsamples = 3\nvalue = [1, 6]\nclass = 1"] ;
72 -> 73 ;
74 [label="gini = 0.0\nsamples = 1\nvalue = [1, 0]\nclass = 0"] ;
73 -> 74 ;
75 [label="gini = 0.0\nsamples = 2\nvalue = [0, 6]\nclass = 1"] ;
73 -> 75 ;
76 [label="gini = 0.0\nsamples = 10\nvalue = [0, 15]\nclass = 1"] ;
72 -> 76 ;
}