digraph Tree {
node [shape=box, style="filled", color="black"] ;
0 [label="cp <= 3.5\ngini = 0.452\nsamples = 165\nvalue = [171, 90]\nclass = 0", fillcolor="#f3c3a1"] ;
1 [label="exang <= 0.5\ngini = 0.212\nsamples = 94\nvalue = [131, 18]\nclass = 0", fillcolor="#e99254"] ;
0 -> 1 [labeldistance=2.5, labelangle=45, headlabel="True"] ;
2 [label="cp <= 1.5\ngini = 0.116\nsamples = 84\nvalue = [122, 8]\nclass = 0", fillcolor="#e78946"] ;
1 -> 2 ;
3 [label="oldpeak <= 1.5\ngini = 0.486\nsamples = 8\nvalue = [7, 5]\nclass = 0", fillcolor="#f8dbc6"] ;
2 -> 3 ;
4 [label="age <= 50.0\ngini = 0.444\nsamples = 6\nvalue = [6, 3]\nclass = 0", fillcolor="#f2c09c"] ;
3 -> 4 ;
5 [label="sex <= 0.5\ngini = 0.5\nsamples = 4\nvalue = [3, 3]\nclass = 0", fillcolor="#ffffff"] ;
4 -> 5 ;
6 [label="gini = 0.0\nsamples = 2\nvalue = [3, 0]\nclass = 0", fillcolor="#e58139"] ;
5 -> 6 ;
7 [label="gini = 0.0\nsamples = 2\nvalue = [0, 3]\nclass = 1", fillcolor="#399de5"] ;
5 -> 7 ;
8 [label="gini = 0.0\nsamples = 2\nvalue = [3, 0]\nclass = 0", fillcolor="#e58139"] ;
4 -> 8 ;
9 [label="chol <= 221.5\ngini = 0.444\nsamples = 2\nvalue = [1, 2]\nclass = 1", fillcolor="#9ccef2"] ;
3 -> 9 ;
10 [label="gini = 0.0\nsamples = 1\nvalue = [1, 0]\nclass = 0", fillcolor="#e58139"] ;
9 -> 10 ;
11 [label="gini = 0.0\nsamples = 1\nvalue = [0, 2]\nclass = 1", fillcolor="#399de5"] ;
9 -> 11 ;
12 [label="age <= 36.5\ngini = 0.05\nsamples = 76\nvalue = [115, 3]\nclass = 0", fillcolor="#e6843e"] ;
2 -> 12 ;
13 [label="trestbps <= 125.0\ngini = 0.245\nsamples = 10\nvalue = [12, 2]\nclass = 0", fillcolor="#e9965a"] ;
12 -> 13 ;
14 [label="thalach <= 145.0\ngini = 0.32\nsamples = 8\nvalue = [8, 2]\nclass = 0", fillcolor="#eca06a"] ;
13 -> 14 ;
15 [label="gini = 0.0\nsamples = 1\nvalue = [0, 1]\nclass = 1", fillcolor="#399de5"] ;
14 -> 15 ;
16 [label="oldpeak <= 2.0\ngini = 0.198\nsamples = 7\nvalue = [8, 1]\nclass = 0", fillcolor="#e89152"] ;
14 -> 16 ;
17 [label="gini = 0.0\nsamples = 6\nvalue = [8, 0]\nclass = 0", fillcolor="#e58139"] ;
16 -> 17 ;
18 [label="gini = 0.0\nsamples = 1\nvalue = [0, 1]\nclass = 1", fillcolor="#399de5"] ;
16 -> 18 ;
19 [label="gini = 0.0\nsamples = 2\nvalue = [4, 0]\nclass = 0", fillcolor="#e58139"] ;
13 -> 19 ;
20 [label="age <= 55.5\ngini = 0.019\nsamples = 66\nvalue = [103, 1]\nclass = 0", fillcolor="#e5823b"] ;
12 -> 20 ;
21 [label="gini = 0.0\nsamples = 59\nvalue = [93, 0]\nclass = 0", fillcolor="#e58139"] ;
20 -> 21 ;
22 [label="sex <= 0.5\ngini = 0.165\nsamples = 7\nvalue = [10, 1]\nclass = 0", fillcolor="#e88e4d"] ;
20 -> 22 ;
23 [label="age <= 57.5\ngini = 0.5\nsamples = 2\nvalue = [1, 1]\nclass = 0", fillcolor="#ffffff"] ;
22 -> 23 ;
24 [label="gini = 0.0\nsamples = 1\nvalue = [0, 1]\nclass = 1", fillcolor="#399de5"] ;
23 -> 24 ;
25 [label="gini = 0.0\nsamples = 1\nvalue = [1, 0]\nclass = 0", fillcolor="#e58139"] ;
23 -> 25 ;
26 [label="gini = 0.0\nsamples = 5\nvalue = [9, 0]\nclass = 0", fillcolor="#e58139"] ;
22 -> 26 ;
27 [label="age <= 41.5\ngini = 0.499\nsamples = 10\nvalue = [9, 10]\nclass = 1", fillcolor="#ebf5fc"] ;
1 -> 27 ;
28 [label="gini = 0.0\nsamples = 1\nvalue = [4, 0]\nclass = 0", fillcolor="#e58139"] ;
27 -> 28 ;
29 [label="age <= 58.5\ngini = 0.444\nsamples = 9\nvalue = [5, 10]\nclass = 1", fillcolor="#9ccef2"] ;
27 -> 29 ;
30 [label="trestbps <= 145.0\ngini = 0.355\nsamples = 8\nvalue = [3, 10]\nclass = 1", fillcolor="#74baed"] ;
29 -> 30 ;
31 [label="cp <= 2.5\ngini = 0.444\nsamples = 6\nvalue = [3, 6]\nclass = 1", fillcolor="#9ccef2"] ;
30 -> 31 ;
32 [label="gini = 0.0\nsamples = 1\nvalue = [1, 0]\nclass = 0", fillcolor="#e58139"] ;
31 -> 32 ;
33 [label="age <= 55.0\ngini = 0.375\nsamples = 5\nvalue = [2, 6]\nclass = 1", fillcolor="#7bbeee"] ;
31 -> 33 ;
34 [label="thalach <= 155.0\ngini = 0.245\nsamples = 4\nvalue = [1, 6]\nclass = 1", fillcolor="#5aade9"] ;
33 -> 34 ;
35 [label="gini = 0.0\nsamples = 3\nvalue = [0, 6]\nclass = 1", fillcolor="#399de5"] ;
34 -> 35 ;
36 [label="gini = 0.0\nsamples = 1\nvalue = [1, 0]\nclass = 0", fillcolor="#e58139"] ;
34 -> 36 ;
37 [label="gini = 0.0\nsamples = 1\nvalue = [1, 0]\nclass = 0", fillcolor="#e58139"] ;
33 -> 37 ;
38 [label="gini = 0.0\nsamples = 2\nvalue = [0, 4]\nclass = 1", fillcolor="#399de5"] ;
30 -> 38 ;
39 [label="gini = 0.0\nsamples = 1\nvalue = [2, 0]\nclass = 0", fillcolor="#e58139"] ;
29 -> 39 ;
40 [label="chol <= 328.5\ngini = 0.459\nsamples = 71\nvalue = [40, 72]\nclass = 1", fillcolor="#a7d3f3"] ;
0 -> 40 [labeldistance=2.5, labelangle=-45, headlabel="False"] ;
41 [label="trestbps <= 145.0\ngini = 0.486\nsamples = 59\nvalue = [39, 55]\nclass = 1", fillcolor="#c5e2f7"] ;
40 -> 41 ;
42 [label="age <= 55.5\ngini = 0.499\nsamples = 46\nvalue = [37, 34]\nclass = 0", fillcolor="#fdf5ef"] ;
41 -> 42 ;
43 [label="sex <= 0.5\ngini = 0.496\nsamples = 40\nvalue = [27, 32]\nclass = 1", fillcolor="#e0f0fb"] ;
42 -> 43 ;
44 [label="trestbps <= 110.0\ngini = 0.278\nsamples = 7\nvalue = [10, 2]\nclass = 0", fillcolor="#ea9a61"] ;
43 -> 44 ;
45 [label="gini = 0.0\nsamples = 1\nvalue = [0, 1]\nclass = 1", fillcolor="#399de5"] ;
44 -> 45 ;
46 [label="age <= 47.5\ngini = 0.165\nsamples = 6\nvalue = [10, 1]\nclass = 0", fillcolor="#e88e4d"] ;
44 -> 46 ;
47 [label="thalach <= 106.5\ngini = 0.32\nsamples = 3\nvalue = [4, 1]\nclass = 0", fillcolor="#eca06a"] ;
46 -> 47 ;
48 [label="gini = 0.0\nsamples = 1\nvalue = [0, 1]\nclass = 1", fillcolor="#399de5"] ;
47 -> 48 ;
49 [label="gini = 0.0\nsamples = 2\nvalue = [4, 0]\nclass = 0", fillcolor="#e58139"] ;
47 -> 49 ;
50 [label="gini = 0.0\nsamples = 3\nvalue = [6, 0]\nclass = 0", fillcolor="#e58139"] ;
46 -> 50 ;
51 [label="chol <= 237.0\ngini = 0.462\nsamples = 33\nvalue = [17, 30]\nclass = 1", fillcolor="#a9d5f4"] ;
43 -> 51 ;
52 [label="trestbps <= 129.0\ngini = 0.293\nsamples = 20\nvalue = [5, 23]\nclass = 1", fillcolor="#64b2eb"] ;
51 -> 52 ;
53 [label="age <= 37.5\ngini = 0.133\nsamples = 10\nvalue = [1, 13]\nclass = 1", fillcolor="#48a5e7"] ;
52 -> 53 ;
54 [label="gini = 0.0\nsamples = 1\nvalue = [1, 0]\nclass = 0", fillcolor="#e58139"] ;
53 -> 54 ;
55 [label="gini = 0.0\nsamples = 9\nvalue = [0, 13]\nclass = 1", fillcolor="#399de5"] ;
53 -> 55 ;
56 [label="restecg <= 0.5\ngini = 0.408\nsamples = 10\nvalue = [4, 10]\nclass = 1", fillcolor="#88c4ef"] ;
52 -> 56 ;
57 [label="oldpeak <= 0.75\ngini = 0.494\nsamples = 7\nvalue = [4, 5]\nclass = 1", fillcolor="#d7ebfa"] ;
56 -> 57 ;
58 [label="oldpeak <= 0.25\ngini = 0.32\nsamples = 4\nvalue = [4, 1]\nclass = 0", fillcolor="#eca06a"] ;
57 -> 58 ;
59 [label="trestbps <= 135.0\ngini = 0.375\nsamples = 3\nvalue = [3, 1]\nclass = 0", fillcolor="#eeab7b"] ;
58 -> 59 ;
60 [label="age <= 50.0\ngini = 0.444\nsamples = 2\nvalue = [2, 1]\nclass = 0", fillcolor="#f2c09c"] ;
59 -> 60 ;
61 [label="gini = 0.0\nsamples = 1\nvalue = [0, 1]\nclass = 1", fillcolor="#399de5"] ;
60 -> 61 ;
62 [label="gini = 0.0\nsamples = 1\nvalue = [2, 0]\nclass = 0", fillcolor="#e58139"] ;
60 -> 62 ;
63 [label="gini = 0.0\nsamples = 1\nvalue = [1, 0]\nclass = 0", fillcolor="#e58139"] ;
59 -> 63 ;
64 [label="gini = 0.0\nsamples = 1\nvalue = [1, 0]\nclass = 0", fillcolor="#e58139"] ;
58 -> 64 ;
65 [label="gini = 0.0\nsamples = 3\nvalue = [0, 4]\nclass = 1", fillcolor="#399de5"] ;
57 -> 65 ;
66 [label="gini = 0.0\nsamples = 3\nvalue = [0, 5]\nclass = 1", fillcolor="#399de5"] ;
56 -> 66 ;
67 [label="thalach <= 111.0\ngini = 0.465\nsamples = 13\nvalue = [12, 7]\nclass = 0", fillcolor="#f4caac"] ;
51 -> 67 ;
68 [label="gini = 0.0\nsamples = 2\nvalue = [0, 2]\nclass = 1", fillcolor="#399de5"] ;
67 -> 68 ;
69 [label="thalach <= 164.0\ngini = 0.415\nsamples = 11\nvalue = [12, 5]\nclass = 0", fillcolor="#f0b58b"] ;
67 -> 69 ;
70 [label="fbs <= 0.5\ngini = 0.32\nsamples = 9\nvalue = [12, 3]\nclass = 0", fillcolor="#eca06a"] ;
69 -> 70 ;
71 [label="age <= 49.5\ngini = 0.165\nsamples = 7\nvalue = [10, 1]\nclass = 0", fillcolor="#e88e4d"] ;
70 -> 71 ;
72 [label="gini = 0.0\nsamples = 3\nvalue = [6, 0]\nclass = 0", fillcolor="#e58139"] ;
71 -> 72 ;
73 [label="age <= 54.0\ngini = 0.32\nsamples = 4\nvalue = [4, 1]\nclass = 0", fillcolor="#eca06a"] ;
71 -> 73 ;
74 [label="thalach <= 135.5\ngini = 0.375\nsamples = 3\nvalue = [3, 1]\nclass = 0", fillcolor="#eeab7b"] ;
73 -> 74 ;
75 [label="chol <= 253.0\ngini = 0.5\nsamples = 2\nvalue = [1, 1]\nclass = 0", fillcolor="#ffffff"] ;
74 -> 75 ;
76 [label="gini = 0.0\nsamples = 1\nvalue = [0, 1]\nclass = 1", fillcolor="#399de5"] ;
75 -> 76 ;
77 [label="gini = 0.0\nsamples = 1\nvalue = [1, 0]\nclass = 0", fillcolor="#e58139"] ;
75 -> 77 ;
78 [label="gini = 0.0\nsamples = 1\nvalue = [2, 0]\nclass = 0", fillcolor="#e58139"] ;
74 -> 78 ;
79 [label="gini = 0.0\nsamples = 1\nvalue = [1, 0]\nclass = 0", fillcolor="#e58139"] ;
73 -> 79 ;
80 [label="restecg <= 0.5\ngini = 0.5\nsamples = 2\nvalue = [2, 2]\nclass = 0", fillcolor="#ffffff"] ;
70 -> 80 ;
81 [label="gini = 0.0\nsamples = 1\nvalue = [2, 0]\nclass = 0", fillcolor="#e58139"] ;
80 -> 81 ;
82 [label="gini = 0.0\nsamples = 1\nvalue = [0, 2]\nclass = 1", fillcolor="#399de5"] ;
80 -> 82 ;
83 [label="gini = 0.0\nsamples = 2\nvalue = [0, 2]\nclass = 1", fillcolor="#399de5"] ;
69 -> 83 ;
84 [label="age <= 63.0\ngini = 0.278\nsamples = 6\nvalue = [10, 2]\nclass = 0", fillcolor="#ea9a61"] ;
42 -> 84 ;
85 [label="chol <= 278.0\ngini = 0.165\nsamples = 5\nvalue = [10, 1]\nclass = 0", fillcolor="#e88e4d"] ;
84 -> 85 ;
86 [label="trestbps <= 137.5\ngini = 0.32\nsamples = 3\nvalue = [4, 1]\nclass = 0", fillcolor="#eca06a"] ;
85 -> 86 ;
87 [label="gini = 0.0\nsamples = 2\nvalue = [4, 0]\nclass = 0", fillcolor="#e58139"] ;
86 -> 87 ;
88 [label="gini = 0.0\nsamples = 1\nvalue = [0, 1]\nclass = 1", fillcolor="#399de5"] ;
86 -> 88 ;
89 [label="gini = 0.0\nsamples = 2\nvalue = [6, 0]\nclass = 0", fillcolor="#e58139"] ;
85 -> 89 ;
90 [label="gini = 0.0\nsamples = 1\nvalue = [0, 1]\nclass = 1", fillcolor="#399de5"] ;
84 -> 90 ;
91 [label="oldpeak <= 1.25\ngini = 0.159\nsamples = 13\nvalue = [2, 21]\nclass = 1", fillcolor="#4ca6e7"] ;
41 -> 91 ;
92 [label="thalach <= 127.5\ngini = 0.346\nsamples = 4\nvalue = [2, 7]\nclass = 1", fillcolor="#72b9ec"] ;
91 -> 92 ;
93 [label="gini = 0.0\nsamples = 2\nvalue = [0, 7]\nclass = 1", fillcolor="#399de5"] ;
92 -> 93 ;
94 [label="gini = 0.0\nsamples = 2\nvalue = [2, 0]\nclass = 0", fillcolor="#e58139"] ;
92 -> 94 ;
95 [label="gini = 0.0\nsamples = 9\nvalue = [0, 14]\nclass = 1", fillcolor="#399de5"] ;
91 -> 95 ;
96 [label="age <= 56.5\ngini = 0.105\nsamples = 12\nvalue = [1, 17]\nclass = 1", fillcolor="#45a3e7"] ;
40 -> 96 ;
97 [label="gini = 0.0\nsamples = 11\nvalue = [0, 17]\nclass = 1", fillcolor="#399de5"] ;
96 -> 97 ;
98 [label="gini = 0.0\nsamples = 1\nvalue = [1, 0]\nclass = 0", fillcolor="#e58139"] ;
96 -> 98 ;
}