digraph Tree {
node [shape=box, style="filled, rounded", color="black", fontname="helvetica"] ;
edge [fontname="helvetica"] ;
0 [label="fbs <= 0.5\ngini = 0.44\nsamples = 136\nvalue = [141, 67]\nclass = 0", fillcolor="#f1bd97"] ;
1 [label="thalach <= 132.0\ngini = 0.4\nsamples = 127\nvalue = [139, 54]\nclass = 0", fillcolor="#efb286"] ;
0 -> 1 [labeldistance=2.5, labelangle=45, headlabel="True"] ;
2 [label="cp <= 2.5\ngini = 0.5\nsamples = 41\nvalue = [33, 28]\nclass = 0", fillcolor="#fbece1"] ;
1 -> 2 ;
3 [label="gini = 0.0\nsamples = 13\nvalue = [18, 0]\nclass = 0", fillcolor="#e58139"] ;
2 -> 3 ;
4 [label="sex <= 0.5\ngini = 0.45\nsamples = 28\nvalue = [15.0, 28.0]\nclass = 1", fillcolor="#a3d2f3"] ;
2 -> 4 ;
5 [label="restecg <= 0.5\ngini = 0.26\nsamples = 6\nvalue = [11, 2]\nclass = 0", fillcolor="#ea985d"] ;
4 -> 5 ;
6 [label="oldpeak <= 1.25\ngini = 0.17\nsamples = 4\nvalue = [10, 1]\nclass = 0", fillcolor="#e88e4d"] ;
5 -> 6 ;
7 [label="gini = 0.0\nsamples = 3\nvalue = [10, 0]\nclass = 0", fillcolor="#e58139"] ;
6 -> 7 ;
8 [label="gini = 0.0\nsamples = 1\nvalue = [0, 1]\nclass = 1", fillcolor="#399de5"] ;
6 -> 8 ;
9 [label="cp <= 3.5\ngini = 0.5\nsamples = 2\nvalue = [1, 1]\nclass = 0", fillcolor="#ffffff"] ;
5 -> 9 ;
10 [label="gini = 0.0\nsamples = 1\nvalue = [0, 1]\nclass = 1", fillcolor="#399de5"] ;
9 -> 10 ;
11 [label="gini = 0.0\nsamples = 1\nvalue = [1, 0]\nclass = 0", fillcolor="#e58139"] ;
9 -> 11 ;
12 [label="exang <= 0.5\ngini = 0.23\nsamples = 22\nvalue = [4, 26]\nclass = 1", fillcolor="#57ace9"] ;
4 -> 12 ;
13 [label="thalach <= 122.0\ngini = 0.42\nsamples = 7\nvalue = [3, 7]\nclass = 1", fillcolor="#8ec7f0"] ;
12 -> 13 ;
14 [label="trestbps <= 132.5\ngini = 0.48\nsamples = 3\nvalue = [3, 2]\nclass = 0", fillcolor="#f6d5bd"] ;
13 -> 14 ;
15 [label="gini = 0.0\nsamples = 1\nvalue = [0, 2]\nclass = 1", fillcolor="#399de5"] ;
14 -> 15 ;
16 [label="gini = 0.0\nsamples = 2\nvalue = [3, 0]\nclass = 0", fillcolor="#e58139"] ;
14 -> 16 ;
17 [label="gini = 0.0\nsamples = 4\nvalue = [0, 5]\nclass = 1", fillcolor="#399de5"] ;
13 -> 17 ;
18 [label="chol <= 288.5\ngini = 0.09\nsamples = 15\nvalue = [1, 19]\nclass = 1", fillcolor="#43a2e6"] ;
12 -> 18 ;
19 [label="gini = 0.0\nsamples = 10\nvalue = [0, 14]\nclass = 1", fillcolor="#399de5"] ;
18 -> 19 ;
20 [label="thalach <= 107.0\ngini = 0.28\nsamples = 5\nvalue = [1, 5]\nclass = 1", fillcolor="#61b1ea"] ;
18 -> 20 ;
21 [label="gini = 0.0\nsamples = 3\nvalue = [0, 4]\nclass = 1", fillcolor="#399de5"] ;
20 -> 21 ;
22 [label="trestbps <= 132.5\ngini = 0.5\nsamples = 2\nvalue = [1, 1]\nclass = 0", fillcolor="#ffffff"] ;
20 -> 22 ;
23 [label="gini = 0.0\nsamples = 1\nvalue = [1, 0]\nclass = 0", fillcolor="#e58139"] ;
22 -> 23 ;
24 [label="gini = 0.0\nsamples = 1\nvalue = [0, 1]\nclass = 1", fillcolor="#399de5"] ;
22 -> 24 ;
25 [label="age <= 56.0\ngini = 0.32\nsamples = 86\nvalue = [106, 26]\nclass = 0", fillcolor="#eba06a"] ;
1 -> 25 ;
26 [label="cp <= 2.5\ngini = 0.28\nsamples = 80\nvalue = [103, 21]\nclass = 0", fillcolor="#ea9b61"] ;
25 -> 26 ;
27 [label="oldpeak <= 2.0\ngini = 0.09\nsamples = 42\nvalue = [58, 3]\nclass = 0", fillcolor="#e68843"] ;
26 -> 27 ;
28 [label="cp <= 1.5\ngini = 0.03\nsamples = 40\nvalue = [58, 1]\nclass = 0", fillcolor="#e5833c"] ;
27 -> 28 ;
29 [label="sex <= 0.5\ngini = 0.5\nsamples = 2\nvalue = [1, 1]\nclass = 0", fillcolor="#ffffff"] ;
28 -> 29 ;
30 [label="gini = 0.0\nsamples = 1\nvalue = [1, 0]\nclass = 0", fillcolor="#e58139"] ;
29 -> 30 ;
31 [label="gini = 0.0\nsamples = 1\nvalue = [0, 1]\nclass = 1", fillcolor="#399de5"] ;
29 -> 31 ;
32 [label="gini = 0.0\nsamples = 38\nvalue = [57, 0]\nclass = 0", fillcolor="#e58139"] ;
28 -> 32 ;
33 [label="gini = 0.0\nsamples = 2\nvalue = [0, 2]\nclass = 1", fillcolor="#399de5"] ;
27 -> 33 ;
34 [label="exang <= 0.5\ngini = 0.41\nsamples = 38\nvalue = [45, 18]\nclass = 0", fillcolor="#efb388"] ;
26 -> 34 ;
35 [label="thalach <= 171.0\ngini = 0.29\nsamples = 30\nvalue = [42, 9]\nclass = 0", fillcolor="#eb9c63"] ;
34 -> 35 ;
36 [label="chol <= 261.5\ngini = 0.36\nsamples = 25\nvalue = [29, 9]\nclass = 0", fillcolor="#eda876"] ;
35 -> 36 ;
37 [label="age <= 48.5\ngini = 0.23\nsamples = 15\nvalue = [20, 3]\nclass = 0", fillcolor="#e99457"] ;
36 -> 37 ;
38 [label="gini = 0.0\nsamples = 8\nvalue = [15, 0]\nclass = 0", fillcolor="#e58139"] ;
37 -> 38 ;
39 [label="age <= 49.5\ngini = 0.47\nsamples = 7\nvalue = [5, 3]\nclass = 0", fillcolor="#f5cdb0"] ;
37 -> 39 ;
40 [label="gini = 0.0\nsamples = 1\nvalue = [0, 1]\nclass = 1", fillcolor="#399de5"] ;
39 -> 40 ;
41 [label="trestbps <= 127.5\ngini = 0.41\nsamples = 6\nvalue = [5, 2]\nclass = 0", fillcolor="#efb388"] ;
39 -> 41 ;
42 [label="thalach <= 138.5\ngini = 0.44\nsamples = 3\nvalue = [1, 2]\nclass = 1", fillcolor="#9ccef2"] ;
41 -> 42 ;
43 [label="gini = 0.0\nsamples = 1\nvalue = [1, 0]\nclass = 0", fillcolor="#e58139"] ;
42 -> 43 ;
44 [label="gini = 0.0\nsamples = 2\nvalue = [0, 2]\nclass = 1", fillcolor="#399de5"] ;
42 -> 44 ;
45 [label="gini = 0.0\nsamples = 3\nvalue = [4, 0]\nclass = 0", fillcolor="#e58139"] ;
41 -> 45 ;
46 [label="trestbps <= 125.0\ngini = 0.48\nsamples = 10\nvalue = [9, 6]\nclass = 0", fillcolor="#f6d5bd"] ;
36 -> 46 ;
47 [label="cp <= 3.5\ngini = 0.49\nsamples = 5\nvalue = [4, 5]\nclass = 1", fillcolor="#d7ebfa"] ;
46 -> 47 ;
48 [label="gini = 0.0\nsamples = 2\nvalue = [4, 0]\nclass = 0", fillcolor="#e58139"] ;
47 -> 48 ;
49 [label="gini = 0.0\nsamples = 3\nvalue = [0, 5]\nclass = 1", fillcolor="#399de5"] ;
47 -> 49 ;
50 [label="cp <= 3.5\ngini = 0.28\nsamples = 5\nvalue = [5, 1]\nclass = 0", fillcolor="#ea9a61"] ;
46 -> 50 ;
51 [label="gini = 0.0\nsamples = 1\nvalue = [2, 0]\nclass = 0", fillcolor="#e58139"] ;
50 -> 51 ;
52 [label="trestbps <= 147.5\ngini = 0.38\nsamples = 4\nvalue = [3, 1]\nclass = 0", fillcolor="#eeab7b"] ;
50 -> 52 ;
53 [label="thalach <= 160.0\ngini = 0.5\nsamples = 2\nvalue = [1, 1]\nclass = 0", fillcolor="#ffffff"] ;
52 -> 53 ;
54 [label="gini = 0.0\nsamples = 1\nvalue = [0, 1]\nclass = 1", fillcolor="#399de5"] ;
53 -> 54 ;
55 [label="gini = 0.0\nsamples = 1\nvalue = [1, 0]\nclass = 0", fillcolor="#e58139"] ;
53 -> 55 ;
56 [label="gini = 0.0\nsamples = 2\nvalue = [2, 0]\nclass = 0", fillcolor="#e58139"] ;
52 -> 56 ;
57 [label="gini = 0.0\nsamples = 5\nvalue = [13, 0]\nclass = 0", fillcolor="#e58139"] ;
35 -> 57 ;
58 [label="oldpeak <= 0.5\ngini = 0.38\nsamples = 8\nvalue = [3, 9]\nclass = 1", fillcolor="#7bbeee"] ;
34 -> 58 ;
59 [label="gini = 0.0\nsamples = 1\nvalue = [2, 0]\nclass = 0", fillcolor="#e58139"] ;
58 -> 59 ;
60 [label="sex <= 0.5\ngini = 0.18\nsamples = 7\nvalue = [1, 9]\nclass = 1", fillcolor="#4fa8e8"] ;
58 -> 60 ;
61 [label="trestbps <= 145.0\ngini = 0.5\nsamples = 2\nvalue = [1, 1]\nclass = 0", fillcolor="#ffffff"] ;
60 -> 61 ;
62 [label="gini = 0.0\nsamples = 1\nvalue = [1, 0]\nclass = 0", fillcolor="#e58139"] ;
61 -> 62 ;
63 [label="gini = 0.0\nsamples = 1\nvalue = [0, 1]\nclass = 1", fillcolor="#399de5"] ;
61 -> 63 ;
64 [label="gini = 0.0\nsamples = 5\nvalue = [0, 8]\nclass = 1", fillcolor="#399de5"] ;
60 -> 64 ;
65 [label="age <= 58.5\ngini = 0.47\nsamples = 6\nvalue = [3, 5]\nclass = 1", fillcolor="#b0d8f5"] ;
25 -> 65 ;
66 [label="thalach <= 152.5\ngini = 0.28\nsamples = 4\nvalue = [1, 5]\nclass = 1", fillcolor="#61b1ea"] ;
65 -> 66 ;
67 [label="gini = 0.0\nsamples = 3\nvalue = [0, 5]\nclass = 1", fillcolor="#399de5"] ;
66 -> 67 ;
68 [label="gini = 0.0\nsamples = 1\nvalue = [1, 0]\nclass = 0", fillcolor="#e58139"] ;
66 -> 68 ;
69 [label="gini = 0.0\nsamples = 2\nvalue = [2, 0]\nclass = 0", fillcolor="#e58139"] ;
65 -> 69 ;
70 [label="trestbps <= 125.0\ngini = 0.23\nsamples = 9\nvalue = [2, 13]\nclass = 1", fillcolor="#57ace9"] ;
0 -> 70 [labeldistance=2.5, labelangle=-45, headlabel="False"] ;
71 [label="gini = 0.0\nsamples = 1\nvalue = [1, 0]\nclass = 0", fillcolor="#e58139"] ;
70 -> 71 ;
72 [label="exang <= 0.5\ngini = 0.13\nsamples = 8\nvalue = [1, 13]\nclass = 1", fillcolor="#48a5e7"] ;
70 -> 72 ;
73 [label="oldpeak <= 1.0\ngini = 0.38\nsamples = 3\nvalue = [1, 3]\nclass = 1", fillcolor="#7bbeee"] ;
72 -> 73 ;
74 [label="sex <= 0.5\ngini = 0.5\nsamples = 2\nvalue = [1, 1]\nclass = 0", fillcolor="#ffffff"] ;
73 -> 74 ;
75 [label="gini = 0.0\nsamples = 1\nvalue = [0, 1]\nclass = 1", fillcolor="#399de5"] ;
74 -> 75 ;
76 [label="gini = 0.0\nsamples = 1\nvalue = [1, 0]\nclass = 0", fillcolor="#e58139"] ;
74 -> 76 ;
77 [label="gini = 0.0\nsamples = 1\nvalue = [0, 2]\nclass = 1", fillcolor="#399de5"] ;
73 -> 77 ;
78 [label="gini = 0.0\nsamples = 5\nvalue = [0, 10]\nclass = 1", fillcolor="#399de5"] ;
72 -> 78 ;
}