digraph Tree {
node [shape=box, fontname="helvetica"] ;
edge [fontname="helvetica"] ;
0 [label="exang <= 0.5\ngini = 0.461\nsamples = 137\nvalue = [133, 75]\nclass = 0"] ;
1 [label="fbs <= 0.5\ngini = 0.208\nsamples = 89\nvalue = [120, 16]\nclass = 0"] ;
0 -> 1 [labeldistance=2.5, labelangle=45, headlabel="True"] ;
2 [label="chol <= 3.08\ngini = 0.159\nsamples = 81\nvalue = [115, 11]\nclass = 0"] ;
1 -> 2 ;
3 [label="cp <= 0.25\ngini = 0.135\nsamples = 79\nvalue = [115, 9]\nclass = 0"] ;
2 -> 3 ;
4 [label="gini = 0.064\nsamples = 57\nvalue = [88, 3]\nclass = 0"] ;
3 -> 4 ;
5 [label="gini = 0.298\nsamples = 22\nvalue = [27, 6]\nclass = 0"] ;
3 -> 5 ;
6 [label="gini = 0.0\nsamples = 2\nvalue = [0, 2]\nclass = 1"] ;
2 -> 6 ;
7 [label="cp <= -0.25\ngini = 0.5\nsamples = 8\nvalue = [5, 5]\nclass = 0"] ;
1 -> 7 ;
8 [label="thalach <= 0.53\ngini = 0.408\nsamples = 5\nvalue = [5, 2]\nclass = 0"] ;
7 -> 8 ;
9 [label="gini = 0.0\nsamples = 4\nvalue = [5, 0]\nclass = 0"] ;
8 -> 9 ;
10 [label="gini = 0.0\nsamples = 1\nvalue = [0, 2]\nclass = 1"] ;
8 -> 10 ;
11 [label="gini = 0.0\nsamples = 3\nvalue = [0, 3]\nclass = 1"] ;
7 -> 11 ;
12 [label="age <= 0.917\ngini = 0.296\nsamples = 48\nvalue = [13, 59]\nclass = 1"] ;
0 -> 12 [labeldistance=2.5, labelangle=-45, headlabel="False"] ;
13 [label="oldpeak <= 1.25\ngini = 0.257\nsamples = 45\nvalue = [10, 56]\nclass = 1"] ;
12 -> 13 ;
14 [label="age <= -0.125\ngini = 0.403\nsamples = 17\nvalue = [7.0, 18.0]\nclass = 1"] ;
13 -> 14 ;
15 [label="gini = 0.469\nsamples = 5\nvalue = [5, 3]\nclass = 0"] ;
14 -> 15 ;
16 [label="gini = 0.208\nsamples = 12\nvalue = [2, 15]\nclass = 1"] ;
14 -> 16 ;
17 [label="thalach <= 0.576\ngini = 0.136\nsamples = 28\nvalue = [3, 38]\nclass = 1"] ;
13 -> 17 ;
18 [label="gini = 0.095\nsamples = 27\nvalue = [2, 38]\nclass = 1"] ;
17 -> 18 ;
19 [label="gini = 0.0\nsamples = 1\nvalue = [1, 0]\nclass = 0"] ;
17 -> 19 ;
20 [label="age <= 1.167\ngini = 0.5\nsamples = 3\nvalue = [3, 3]\nclass = 0"] ;
12 -> 20 ;
21 [label="gini = 0.0\nsamples = 1\nvalue = [3, 0]\nclass = 0"] ;
20 -> 21 ;
22 [label="gini = 0.0\nsamples = 2\nvalue = [0, 3]\nclass = 1"] ;
20 -> 22 ;
}