digraph Tree {
node [shape=box, fontname="helvetica"] ;
edge [fontname="helvetica"] ;
0 [label="exang <= 0.5\ngini = 0.461\nsamples = 137\nvalue = [133, 75]\nclass = 0"] ;
1 [label="fbs <= 0.5\ngini = 0.208\nsamples = 89\nvalue = [120, 16]\nclass = 0"] ;
0 -> 1 [labeldistance=2.5, labelangle=45, headlabel="True"] ;
2 [label="chol <= 465.0\ngini = 0.159\nsamples = 81\nvalue = [115, 11]\nclass = 0"] ;
1 -> 2 ;
3 [label="cp <= 3.5\ngini = 0.135\nsamples = 79\nvalue = [115, 9]\nclass = 0"] ;
2 -> 3 ;
4 [label="thalach <= 157.5\ngini = 0.064\nsamples = 57\nvalue = [88, 3]\nclass = 0"] ;
3 -> 4 ;
5 [label="restecg <= 0.5\ngini = 0.029\nsamples = 42\nvalue = [67, 1]\nclass = 0"] ;
4 -> 5 ;
6 [label="gini = 0.0\nsamples = 31\nvalue = [49, 0]\nclass = 0"] ;
5 -> 6 ;
7 [label="cp <= 2.5\ngini = 0.1\nsamples = 11\nvalue = [18, 1]\nclass = 0"] ;
5 -> 7 ;
8 [label="gini = 0.0\nsamples = 6\nvalue = [10, 0]\nclass = 0"] ;
7 -> 8 ;
9 [label="trestbps <= 125.0\ngini = 0.198\nsamples = 5\nvalue = [8, 1]\nclass = 0"] ;
7 -> 9 ;
10 [label="gini = 0.0\nsamples = 3\nvalue = [6, 0]\nclass = 0"] ;
9 -> 10 ;
11 [label="age <= 53.5\ngini = 0.444\nsamples = 2\nvalue = [2, 1]\nclass = 0"] ;
9 -> 11 ;
12 [label="gini = 0.0\nsamples = 1\nvalue = [2, 0]\nclass = 0"] ;
11 -> 12 ;
13 [label="gini = 0.0\nsamples = 1\nvalue = [0, 1]\nclass = 1"] ;
11 -> 13 ;
14 [label="oldpeak <= 1.5\ngini = 0.159\nsamples = 15\nvalue = [21, 2]\nclass = 0"] ;
4 -> 14 ;
15 [label="gini = 0.0\nsamples = 14\nvalue = [21, 0]\nclass = 0"] ;
14 -> 15 ;
16 [label="gini = 0.0\nsamples = 1\nvalue = [0, 2]\nclass = 1"] ;
14 -> 16 ;
17 [label="chol <= 224.5\ngini = 0.298\nsamples = 22\nvalue = [27, 6]\nclass = 0"] ;
3 -> 17 ;
18 [label="sex <= 0.5\ngini = 0.459\nsamples = 10\nvalue = [9, 5]\nclass = 0"] ;
17 -> 18 ;
19 [label="gini = 0.0\nsamples = 3\nvalue = [5, 0]\nclass = 0"] ;
18 -> 19 ;
20 [label="oldpeak <= 1.0\ngini = 0.494\nsamples = 7\nvalue = [4, 5]\nclass = 1"] ;
18 -> 20 ;
21 [label="thalach <= 107.5\ngini = 0.5\nsamples = 6\nvalue = [4, 4]\nclass = 0"] ;
20 -> 21 ;
22 [label="gini = 0.0\nsamples = 1\nvalue = [2, 0]\nclass = 0"] ;
21 -> 22 ;
23 [label="age <= 52.5\ngini = 0.444\nsamples = 5\nvalue = [2, 4]\nclass = 1"] ;
21 -> 23 ;
24 [label="gini = 0.0\nsamples = 3\nvalue = [0, 3]\nclass = 1"] ;
23 -> 24 ;
25 [label="chol <= 202.5\ngini = 0.444\nsamples = 2\nvalue = [2, 1]\nclass = 0"] ;
23 -> 25 ;
26 [label="gini = 0.0\nsamples = 1\nvalue = [2, 0]\nclass = 0"] ;
25 -> 26 ;
27 [label="gini = 0.0\nsamples = 1\nvalue = [0, 1]\nclass = 1"] ;
25 -> 27 ;
28 [label="gini = 0.0\nsamples = 1\nvalue = [0, 1]\nclass = 1"] ;
20 -> 28 ;
29 [label="thalach <= 147.0\ngini = 0.1\nsamples = 12\nvalue = [18, 1]\nclass = 0"] ;
17 -> 29 ;
30 [label="gini = 0.0\nsamples = 8\nvalue = [15, 0]\nclass = 0"] ;
29 -> 30 ;
31 [label="trestbps <= 125.0\ngini = 0.375\nsamples = 4\nvalue = [3, 1]\nclass = 0"] ;
29 -> 31 ;
32 [label="gini = 0.0\nsamples = 1\nvalue = [0, 1]\nclass = 1"] ;
31 -> 32 ;
33 [label="gini = 0.0\nsamples = 3\nvalue = [3, 0]\nclass = 0"] ;
31 -> 33 ;
34 [label="gini = 0.0\nsamples = 2\nvalue = [0, 2]\nclass = 1"] ;
2 -> 34 ;
35 [label="age <= 51.0\ngini = 0.5\nsamples = 8\nvalue = [5, 5]\nclass = 0"] ;
1 -> 35 ;
36 [label="oldpeak <= 1.0\ngini = 0.32\nsamples = 4\nvalue = [1, 4]\nclass = 1"] ;
35 -> 36 ;
37 [label="trestbps <= 137.5\ngini = 0.444\nsamples = 3\nvalue = [1, 2]\nclass = 1"] ;
36 -> 37 ;
38 [label="gini = 0.0\nsamples = 2\nvalue = [0, 2]\nclass = 1"] ;
37 -> 38 ;
39 [label="gini = 0.0\nsamples = 1\nvalue = [1, 0]\nclass = 0"] ;
37 -> 39 ;
40 [label="gini = 0.0\nsamples = 1\nvalue = [0, 2]\nclass = 1"] ;
36 -> 40 ;
41 [label="cp <= 2.5\ngini = 0.32\nsamples = 4\nvalue = [4, 1]\nclass = 0"] ;
35 -> 41 ;
42 [label="gini = 0.0\nsamples = 3\nvalue = [4, 0]\nclass = 0"] ;
41 -> 42 ;
43 [label="gini = 0.0\nsamples = 1\nvalue = [0, 1]\nclass = 1"] ;
41 -> 43 ;
44 [label="thalach <= 159.0\ngini = 0.296\nsamples = 48\nvalue = [13, 59]\nclass = 1"] ;
0 -> 44 [labeldistance=2.5, labelangle=-45, headlabel="False"] ;
45 [label="oldpeak <= 0.9\ngini = 0.248\nsamples = 45\nvalue = [10, 59]\nclass = 1"] ;
44 -> 45 ;
46 [label="oldpeak <= 0.4\ngini = 0.475\nsamples = 9\nvalue = [7, 11]\nclass = 1"] ;
45 -> 46 ;
47 [label="age <= 60.0\ngini = 0.457\nsamples = 8\nvalue = [6, 11]\nclass = 1"] ;
46 -> 47 ;
48 [label="age <= 48.0\ngini = 0.337\nsamples = 7\nvalue = [3, 11]\nclass = 1"] ;
47 -> 48 ;
49 [label="age <= 46.5\ngini = 0.48\nsamples = 2\nvalue = [3, 2]\nclass = 0"] ;
48 -> 49 ;
50 [label="gini = 0.0\nsamples = 1\nvalue = [0, 2]\nclass = 1"] ;
49 -> 50 ;
51 [label="gini = 0.0\nsamples = 1\nvalue = [3, 0]\nclass = 0"] ;
49 -> 51 ;
52 [label="gini = 0.0\nsamples = 5\nvalue = [0, 9]\nclass = 1"] ;
48 -> 52 ;
53 [label="gini = 0.0\nsamples = 1\nvalue = [3, 0]\nclass = 0"] ;
47 -> 53 ;
54 [label="gini = 0.0\nsamples = 1\nvalue = [1, 0]\nclass = 0"] ;
46 -> 54 ;
55 [label="cp <= 3.0\ngini = 0.111\nsamples = 36\nvalue = [3, 48]\nclass = 1"] ;
45 -> 55 ;
56 [label="thalach <= 143.5\ngini = 0.444\nsamples = 3\nvalue = [1, 2]\nclass = 1"] ;
55 -> 56 ;
57 [label="gini = 0.0\nsamples = 1\nvalue = [1, 0]\nclass = 0"] ;
56 -> 57 ;
58 [label="gini = 0.0\nsamples = 2\nvalue = [0, 2]\nclass = 1"] ;
56 -> 58 ;
59 [label="thalach <= 132.0\ngini = 0.08\nsamples = 33\nvalue = [2, 46]\nclass = 1"] ;
55 -> 59 ;
60 [label="oldpeak <= 1.25\ngini = 0.124\nsamples = 22\nvalue = [2, 28]\nclass = 1"] ;
59 -> 60 ;
61 [label="sex <= 0.5\ngini = 0.278\nsamples = 5\nvalue = [1, 5]\nclass = 1"] ;
60 -> 61 ;
62 [label="gini = 0.0\nsamples = 1\nvalue = [1, 0]\nclass = 0"] ;
61 -> 62 ;
63 [label="gini = 0.0\nsamples = 4\nvalue = [0, 5]\nclass = 1"] ;
61 -> 63 ;
64 [label="oldpeak <= 2.75\ngini = 0.08\nsamples = 17\nvalue = [1, 23]\nclass = 1"] ;
60 -> 64 ;
65 [label="gini = 0.0\nsamples = 13\nvalue = [0, 18]\nclass = 1"] ;
64 -> 65 ;
66 [label="age <= 52.5\ngini = 0.278\nsamples = 4\nvalue = [1, 5]\nclass = 1"] ;
64 -> 66 ;
67 [label="gini = 0.0\nsamples = 2\nvalue = [0, 4]\nclass = 1"] ;
66 -> 67 ;
68 [label="trestbps <= 137.0\ngini = 0.5\nsamples = 2\nvalue = [1, 1]\nclass = 0"] ;
66 -> 68 ;
69 [label="gini = 0.0\nsamples = 1\nvalue = [1, 0]\nclass = 0"] ;
68 -> 69 ;
70 [label="gini = 0.0\nsamples = 1\nvalue = [0, 1]\nclass = 1"] ;
68 -> 70 ;
71 [label="gini = 0.0\nsamples = 11\nvalue = [0, 18]\nclass = 1"] ;
59 -> 71 ;
72 [label="gini = 0.0\nsamples = 3\nvalue = [3, 0]\nclass = 0"] ;
44 -> 72 ;
}