digraph Tree {
node [shape=box, style="filled, rounded", color="black", fontname="helvetica"] ;
edge [fontname="helvetica"] ;
0 [label="concave_points_worst <= 0.14\ngini = 0.47\nsamples = 282\nvalue = [287, 168]\nclass = 0", fillcolor="#f4cbad"] ;
1 [label="concavity_worst <= 0.22\ngini = 0.16\nsamples = 189\nvalue = [284.0, 27.0]\nclass = 0", fillcolor="#e78d4c"] ;
0 -> 1 [labeldistance=2.5, labelangle=45, headlabel="True"] ;
2 [label="fractal_dimension_worst <= 0.06\ngini = 0.07\nsamples = 135\nvalue = [225, 8]\nclass = 0", fillcolor="#e68540"] ;
1 -> 2 ;
3 [label="gini = 0.0\nsamples = 1\nvalue = [0, 1]\nclass = 1", fillcolor="#399de5"] ;
2 -> 3 ;
4 [label="texture_se <= 2.09\ngini = 0.06\nsamples = 134\nvalue = [225, 7]\nclass = 0", fillcolor="#e6853f"] ;
2 -> 4 ;
5 [label="area_worst <= 929.8\ngini = 0.02\nsamples = 125\nvalue = [211, 2]\nclass = 0", fillcolor="#e5823b"] ;
4 -> 5 ;
6 [label="gini = 0.01\nsamples = 122\nvalue = [209, 1]\nclass = 0", fillcolor="#e5823a"] ;
5 -> 6 ;
7 [label="gini = 0.44\nsamples = 3\nvalue = [2, 1]\nclass = 0", fillcolor="#f2c09c"] ;
5 -> 7 ;
8 [label="symmetry_se <= 0.02\ngini = 0.39\nsamples = 9\nvalue = [14, 5]\nclass = 0", fillcolor="#eeae80"] ;
4 -> 8 ;
9 [label="gini = 0.0\nsamples = 1\nvalue = [0, 5]\nclass = 1", fillcolor="#399de5"] ;
8 -> 9 ;
10 [label="gini = 0.0\nsamples = 8\nvalue = [14, 0]\nclass = 0", fillcolor="#e58139"] ;
8 -> 10 ;
11 [label="perimeter_mean <= 98.5\ngini = 0.37\nsamples = 54\nvalue = [59, 19]\nclass = 0", fillcolor="#edaa79"] ;
1 -> 11 ;
12 [label="compactness_worst <= 0.2\ngini = 0.17\nsamples = 43\nvalue = [58, 6]\nclass = 0", fillcolor="#e88e4d"] ;
11 -> 12 ;
13 [label="area_se <= 28.28\ngini = 0.5\nsamples = 7\nvalue = [6, 5]\nclass = 0", fillcolor="#fbeade"] ;
12 -> 13 ;
14 [label="gini = 0.28\nsamples = 4\nvalue = [5, 1]\nclass = 0", fillcolor="#ea9a61"] ;
13 -> 14 ;
15 [label="gini = 0.32\nsamples = 3\nvalue = [1, 4]\nclass = 1", fillcolor="#6ab6ec"] ;
13 -> 15 ;
16 [label="smoothness_se <= 0.0\ngini = 0.04\nsamples = 36\nvalue = [52, 1]\nclass = 0", fillcolor="#e6833d"] ;
12 -> 16 ;
17 [label="gini = 0.44\nsamples = 2\nvalue = [2, 1]\nclass = 0", fillcolor="#f2c09c"] ;
16 -> 17 ;
18 [label="gini = 0.0\nsamples = 34\nvalue = [50, 0]\nclass = 0", fillcolor="#e58139"] ;
16 -> 18 ;
19 [label="perimeter_se <= 1.75\ngini = 0.13\nsamples = 11\nvalue = [1, 13]\nclass = 1", fillcolor="#48a5e7"] ;
11 -> 19 ;
20 [label="compactness_mean <= 0.07\ngini = 0.44\nsamples = 2\nvalue = [1, 2]\nclass = 1", fillcolor="#9ccef2"] ;
19 -> 20 ;
21 [label="gini = 0.0\nsamples = 1\nvalue = [0, 2]\nclass = 1", fillcolor="#399de5"] ;
20 -> 21 ;
22 [label="gini = 0.0\nsamples = 1\nvalue = [1, 0]\nclass = 0", fillcolor="#e58139"] ;
20 -> 22 ;
23 [label="gini = 0.0\nsamples = 9\nvalue = [0, 11]\nclass = 1", fillcolor="#399de5"] ;
19 -> 23 ;
24 [label="perimeter_worst <= 94.51\ngini = 0.04\nsamples = 93\nvalue = [3, 141]\nclass = 1", fillcolor="#3d9fe6"] ;
0 -> 24 [labeldistance=2.5, labelangle=-45, headlabel="False"] ;
25 [label="concavity_worst <= 0.44\ngini = 0.48\nsamples = 3\nvalue = [3, 2]\nclass = 0", fillcolor="#f6d5bd"] ;
24 -> 25 ;
26 [label="gini = 0.0\nsamples = 1\nvalue = [0, 2]\nclass = 1", fillcolor="#399de5"] ;
25 -> 26 ;
27 [label="gini = 0.0\nsamples = 2\nvalue = [3, 0]\nclass = 0", fillcolor="#e58139"] ;
25 -> 27 ;
28 [label="gini = 0.0\nsamples = 90\nvalue = [0, 139]\nclass = 1", fillcolor="#399de5"] ;
24 -> 28 ;
}