digraph Tree {
node [shape=box, style="filled, rounded", color="black", fontname=helvetica] ;
edge [fontname=helvetica] ;
0 [label="concave_points_worst <= 0.14\ngini = 0.47\nsamples = 287\nvalue = [285, 170]\nclass = 0", fillcolor="#f5ccaf"] ;
1 [label="area_mean <= 697.8\ngini = 0.12\nsamples = 192\nvalue = [278, 19]\nclass = 0", fillcolor="#e78a47"] ;
0 -> 1 [labeldistance=2.5, labelangle=45, headlabel="True"] ;
2 [label="perimeter_se <= 2.85\ngini = 0.03\nsamples = 174\nvalue = [268, 4]\nclass = 0", fillcolor="#e5833c"] ;
1 -> 2 ;
3 [label="gini = 0.0\nsamples = 153\nvalue = [240, 0]\nclass = 0", fillcolor="#e58139"] ;
2 -> 3 ;
4 [label="concave_points_worst <= 0.12\ngini = 0.22\nsamples = 21\nvalue = [28, 4]\nclass = 0", fillcolor="#e99355"] ;
2 -> 4 ;
5 [label="compactness_se <= 0.01\ngini = 0.07\nsamples = 19\nvalue = [28, 1]\nclass = 0", fillcolor="#e68640"] ;
4 -> 5 ;
6 [label="texture_mean <= 18.23\ngini = 0.5\nsamples = 2\nvalue = [1, 1]\nclass = 0", fillcolor="#ffffff"] ;
5 -> 6 ;
7 [label="gini = 0.0\nsamples = 1\nvalue = [0, 1]\nclass = 1", fillcolor="#399de5"] ;
6 -> 7 ;
8 [label="gini = 0.0\nsamples = 1\nvalue = [1, 0]\nclass = 0", fillcolor="#e58139"] ;
6 -> 8 ;
9 [label="gini = 0.0\nsamples = 17\nvalue = [27, 0]\nclass = 0", fillcolor="#e58139"] ;
5 -> 9 ;
10 [label="gini = 0.0\nsamples = 2\nvalue = [0, 3]\nclass = 1", fillcolor="#399de5"] ;
4 -> 10 ;
11 [label="concavity_worst <= 0.24\ngini = 0.48\nsamples = 18\nvalue = [10, 15]\nclass = 1", fillcolor="#bddef6"] ;
1 -> 11 ;
12 [label="texture_worst <= 29.77\ngini = 0.43\nsamples = 9\nvalue = [9, 4]\nclass = 0", fillcolor="#f1b991"] ;
11 -> 12 ;
13 [label="gini = 0.0\nsamples = 6\nvalue = [9, 0]\nclass = 0", fillcolor="#e58139"] ;
12 -> 13 ;
14 [label="gini = 0.0\nsamples = 3\nvalue = [0, 4]\nclass = 1", fillcolor="#399de5"] ;
12 -> 14 ;
15 [label="fractal_dimension_se <= 0.0\ngini = 0.15\nsamples = 9\nvalue = [1, 11]\nclass = 1", fillcolor="#4ba6e7"] ;
11 -> 15 ;
16 [label="gini = 0.0\nsamples = 1\nvalue = [1, 0]\nclass = 0", fillcolor="#e58139"] ;
15 -> 16 ;
17 [label="gini = 0.0\nsamples = 8\nvalue = [0, 11]\nclass = 1", fillcolor="#399de5"] ;
15 -> 17 ;
18 [label="texture_se <= 0.52\ngini = 0.08\nsamples = 95\nvalue = [7, 151]\nclass = 1", fillcolor="#42a2e6"] ;
0 -> 18 [labeldistance=2.5, labelangle=-45, headlabel="False"] ;
19 [label="gini = 0.0\nsamples = 2\nvalue = [4, 0]\nclass = 0", fillcolor="#e58139"] ;
18 -> 19 ;
20 [label="concave_points_se <= 0.02\ngini = 0.04\nsamples = 93\nvalue = [3, 151]\nclass = 1", fillcolor="#3d9fe6"] ;
18 -> 20 ;
21 [label="compactness_mean <= 0.1\ngini = 0.01\nsamples = 83\nvalue = [1, 140]\nclass = 1", fillcolor="#3a9ee5"] ;
20 -> 21 ;
22 [label="perimeter_se <= 2.5\ngini = 0.14\nsamples = 7\nvalue = [1, 12]\nclass = 1", fillcolor="#49a5e7"] ;
21 -> 22 ;
23 [label="gini = 0.0\nsamples = 1\nvalue = [1, 0]\nclass = 0", fillcolor="#e58139"] ;
22 -> 23 ;
24 [label="gini = 0.0\nsamples = 6\nvalue = [0, 12]\nclass = 1", fillcolor="#399de5"] ;
22 -> 24 ;
25 [label="gini = 0.0\nsamples = 76\nvalue = [0, 128]\nclass = 1", fillcolor="#399de5"] ;
21 -> 25 ;
26 [label="perimeter_worst <= 113.2\ngini = 0.26\nsamples = 10\nvalue = [2, 11]\nclass = 1", fillcolor="#5dafea"] ;
20 -> 26 ;
27 [label="gini = 0.0\nsamples = 2\nvalue = [2, 0]\nclass = 0", fillcolor="#e58139"] ;
26 -> 27 ;
28 [label="gini = 0.0\nsamples = 8\nvalue = [0, 11]\nclass = 1", fillcolor="#399de5"] ;
26 -> 28 ;
}