digraph Tree {
node [shape=box, fontname="helvetica"] ;
edge [fontname="helvetica"] ;
0 [label="perimeter_worst <= 116.05\ngini = 0.472\nsamples = 285\nvalue = [281, 174]\nclass = 0"] ;
1 [label="concave_points_worst <= 0.163\ngini = 0.206\nsamples = 196\nvalue = [281, 37]\nclass = 0"] ;
0 -> 1 [labeldistance=2.5, labelangle=45, headlabel="True"] ;
2 [label="area_worst <= 888.9\ngini = 0.14\nsamples = 187\nvalue = [280, 23]\nclass = 0"] ;
1 -> 2 ;
3 [label="symmetry_se <= 0.009\ngini = 0.086\nsamples = 178\nvalue = [275, 13]\nclass = 0"] ;
2 -> 3 ;
4 [label="gini = 0.0\nsamples = 1\nvalue = [0, 1]\nclass = 1"] ;
3 -> 4 ;
5 [label="gini = 0.08\nsamples = 177\nvalue = [275.0, 12.0]\nclass = 0"] ;
3 -> 5 ;
6 [label="texture_mean <= 16.965\ngini = 0.444\nsamples = 9\nvalue = [5, 10]\nclass = 1"] ;
2 -> 6 ;
7 [label="gini = 0.0\nsamples = 2\nvalue = [5, 0]\nclass = 0"] ;
6 -> 7 ;
8 [label="gini = 0.0\nsamples = 7\nvalue = [0, 10]\nclass = 1"] ;
6 -> 8 ;
9 [label="area_mean <= 318.3\ngini = 0.124\nsamples = 9\nvalue = [1, 14]\nclass = 1"] ;
1 -> 9 ;
10 [label="gini = 0.0\nsamples = 1\nvalue = [1, 0]\nclass = 0"] ;
9 -> 10 ;
11 [label="gini = 0.0\nsamples = 8\nvalue = [0, 14]\nclass = 1"] ;
9 -> 11 ;
12 [label="gini = 0.0\nsamples = 89\nvalue = [0, 137]\nclass = 1"] ;
0 -> 12 [labeldistance=2.5, labelangle=-45, headlabel="False"] ;
}