digraph Tree {
node [shape=box, style="filled, rounded", color="black", fontname="helvetica"] ;
edge [fontname="helvetica"] ;
0 [label="perimeter_mean <= 97.15\ngini = 0.44\nsamples = 277\nvalue = [303, 152]\nclass = 0", fillcolor="#f2c09c"] ;
1 [label="concavity_worst <= 0.32\ngini = 0.16\nsamples = 190\nvalue = [285, 27]\nclass = 0", fillcolor="#e78d4c"] ;
0 -> 1 [labeldistance=2.5, labelangle=45, headlabel="True"] ;
2 [label="concavity_mean <= 0.09\ngini = 0.01\nsamples = 158\nvalue = [263, 1]\nclass = 0", fillcolor="#e5813a"] ;
1 -> 2 ;
3 [label="gini = 0.0\nsamples = 150\nvalue = [251, 0]\nclass = 0", fillcolor="#e58139"] ;
2 -> 3 ;
4 [label="concave_points_worst <= 0.15\ngini = 0.14\nsamples = 8\nvalue = [12, 1]\nclass = 0", fillcolor="#e78c49"] ;
2 -> 4 ;
5 [label="gini = 0.0\nsamples = 7\nvalue = [12, 0]\nclass = 0", fillcolor="#e58139"] ;
4 -> 5 ;
6 [label="gini = 0.0\nsamples = 1\nvalue = [0, 1]\nclass = 1", fillcolor="#399de5"] ;
4 -> 6 ;
7 [label="smoothness_mean <= 0.1\ngini = 0.5\nsamples = 32\nvalue = [22, 26]\nclass = 1", fillcolor="#e1f0fb"] ;
1 -> 7 ;
8 [label="texture_worst <= 33.76\ngini = 0.18\nsamples = 12\nvalue = [18, 2]\nclass = 0", fillcolor="#e88f4f"] ;
7 -> 8 ;
9 [label="gini = 0.1\nsamples = 11\nvalue = [18, 1]\nclass = 0", fillcolor="#e68844"] ;
8 -> 9 ;
10 [label="gini = 0.0\nsamples = 1\nvalue = [0, 1]\nclass = 1", fillcolor="#399de5"] ;
8 -> 10 ;
11 [label="texture_mean <= 18.07\ngini = 0.24\nsamples = 20\nvalue = [4, 24]\nclass = 1", fillcolor="#5aade9"] ;
7 -> 11 ;
12 [label="gini = 0.44\nsamples = 5\nvalue = [4, 2]\nclass = 0", fillcolor="#f2c09c"] ;
11 -> 12 ;
13 [label="gini = 0.0\nsamples = 15\nvalue = [0, 22]\nclass = 1", fillcolor="#399de5"] ;
11 -> 13 ;
14 [label="area_se <= 29.35\ngini = 0.22\nsamples = 87\nvalue = [18, 125]\nclass = 1", fillcolor="#56abe9"] ;
0 -> 14 [labeldistance=2.5, labelangle=-45, headlabel="False"] ;
15 [label="symmetry_mean <= 0.21\ngini = 0.36\nsamples = 9\nvalue = [13, 4]\nclass = 0", fillcolor="#eda876"] ;
14 -> 15 ;
16 [label="symmetry_worst <= 0.32\ngini = 0.23\nsamples = 8\nvalue = [13, 2]\nclass = 0", fillcolor="#e99457"] ;
15 -> 16 ;
17 [label="gini = 0.0\nsamples = 6\nvalue = [13, 0]\nclass = 0", fillcolor="#e58139"] ;
16 -> 17 ;
18 [label="gini = 0.0\nsamples = 2\nvalue = [0, 2]\nclass = 1", fillcolor="#399de5"] ;
16 -> 18 ;
19 [label="gini = 0.0\nsamples = 1\nvalue = [0, 2]\nclass = 1", fillcolor="#399de5"] ;
15 -> 19 ;
20 [label="concave_points_worst <= 0.09\ngini = 0.08\nsamples = 78\nvalue = [5, 121]\nclass = 1", fillcolor="#41a1e6"] ;
14 -> 20 ;
21 [label="gini = 0.0\nsamples = 2\nvalue = [4, 0]\nclass = 0", fillcolor="#e58139"] ;
20 -> 21 ;
22 [label="perimeter_worst <= 106.7\ngini = 0.02\nsamples = 76\nvalue = [1, 121]\nclass = 1", fillcolor="#3b9ee5"] ;
20 -> 22 ;
23 [label="gini = 0.0\nsamples = 1\nvalue = [1, 0]\nclass = 0", fillcolor="#e58139"] ;
22 -> 23 ;
24 [label="gini = 0.0\nsamples = 75\nvalue = [0, 121]\nclass = 1", fillcolor="#399de5"] ;
22 -> 24 ;
}