digraph Tree {
node [shape=box, style="filled, rounded", color="black", fontname=helvetica] ;
edge [fontname=helvetica] ;
0 [label="petal length (cm) <= 4.75\ngini = 0.64\nsamples = 53\nvalue = [17, 29, 34]\nclass = virginica", fillcolor="#8139e519"] ;
1 [label="petal length (cm) <= 2.55\ngini = 0.49\nsamples = 30\nvalue = [17, 23, 0]\nclass = versicolor", fillcolor="#39e58143"] ;
0 -> 1 [labeldistance=2.5, labelangle=45, headlabel="True"] ;
2 [label="gini = 0.0\nsamples = 12\nvalue = [17, 0, 0]\nclass = setosa", fillcolor="#e58139ff"] ;
1 -> 2 ;
3 [label="gini = 0.0\nsamples = 18\nvalue = [0, 23, 0]\nclass = versicolor", fillcolor="#39e581ff"] ;
1 -> 3 ;
4 [label="petal width (cm) <= 1.7\ngini = 0.26\nsamples = 23\nvalue = [0, 6, 34]\nclass = virginica", fillcolor="#8139e5d2"] ;
0 -> 4 [labeldistance=2.5, labelangle=-45, headlabel="False"] ;
5 [label="sepal length (cm) <= 6.6\ngini = 0.49\nsamples = 4\nvalue = [0, 5, 4]\nclass = versicolor", fillcolor="#39e58133"] ;
4 -> 5 ;
6 [label="petal width (cm) <= 1.55\ngini = 0.32\nsamples = 3\nvalue = [0, 1, 4]\nclass = virginica", fillcolor="#8139e5bf"] ;
5 -> 6 ;
7 [label="gini = 0.0\nsamples = 2\nvalue = [0, 0, 4]\nclass = virginica", fillcolor="#8139e5ff"] ;
6 -> 7 ;
8 [label="gini = 0.0\nsamples = 1\nvalue = [0, 1, 0]\nclass = versicolor", fillcolor="#39e581ff"] ;
6 -> 8 ;
9 [label="gini = 0.0\nsamples = 1\nvalue = [0, 4, 0]\nclass = versicolor", fillcolor="#39e581ff"] ;
5 -> 9 ;
10 [label="sepal length (cm) <= 5.95\ngini = 0.06\nsamples = 19\nvalue = [0, 1, 30]\nclass = virginica", fillcolor="#8139e5f6"] ;
4 -> 10 ;
11 [label="petal length (cm) <= 4.95\ngini = 0.38\nsamples = 3\nvalue = [0, 1, 3]\nclass = virginica", fillcolor="#8139e5aa"] ;
10 -> 11 ;
12 [label="gini = 0.0\nsamples = 1\nvalue = [0, 1, 0]\nclass = versicolor", fillcolor="#39e581ff"] ;
11 -> 12 ;
13 [label="gini = 0.0\nsamples = 2\nvalue = [0, 0, 3]\nclass = virginica", fillcolor="#8139e5ff"] ;
11 -> 13 ;
14 [label="gini = 0.0\nsamples = 16\nvalue = [0, 0, 27]\nclass = virginica", fillcolor="#8139e5ff"] ;
10 -> 14 ;
}