digraph Tree {
node [shape=box, style="filled, rounded", color="black", fontname=helvetica] ;
edge [fontname=helvetica] ;
0 [label="worst perimeter <= 117.45\ngini = 0.47\nsamples = 275\nvalue = [160, 266]\nclass = benign", fillcolor="#399de566"] ;
1 [label="mean concave points <= 0.06\ngini = 0.17\nsamples = 190\nvalue = [28, 266]\nclass = benign", fillcolor="#399de5e4"] ;
0 -> 1 [labeldistance=2.5, labelangle=45, headlabel="True"] ;
2 [label="worst area <= 957.45\ngini = 0.07\nsamples = 175\nvalue = [10, 260]\nclass = benign", fillcolor="#399de5f5"] ;
1 -> 2 ;
3 [label="worst concave points <= 0.16\ngini = 0.05\nsamples = 172\nvalue = [7, 259]\nclass = benign", fillcolor="#399de5f8"] ;
2 -> 3 ;
4 [label="area error <= 48.7\ngini = 0.04\nsamples = 171\nvalue = [5, 259]\nclass = benign", fillcolor="#399de5fa"] ;
3 -> 4 ;
5 [label="worst perimeter <= 113.15\ngini = 0.02\nsamples = 168\nvalue = [3, 258]\nclass = benign", fillcolor="#399de5fc"] ;
4 -> 5 ;
6 [label="fractal dimension error <= 0.0\ngini = 0.01\nsamples = 163\nvalue = [1, 250]\nclass = benign", fillcolor="#399de5fe"] ;
5 -> 6 ;
7 [label="fractal dimension error <= 0.0\ngini = 0.28\nsamples = 6\nvalue = [1, 5]\nclass = benign", fillcolor="#399de5cc"] ;
6 -> 7 ;
8 [label="gini = 0.0\nsamples = 5\nvalue = [0, 5]\nclass = benign", fillcolor="#399de5ff"] ;
7 -> 8 ;
9 [label="gini = 0.0\nsamples = 1\nvalue = [1, 0]\nclass = malignant", fillcolor="#e58139ff"] ;
7 -> 9 ;
10 [label="gini = 0.0\nsamples = 157\nvalue = [0, 245]\nclass = benign", fillcolor="#399de5ff"] ;
6 -> 10 ;
11 [label="area error <= 19.91\ngini = 0.32\nsamples = 5\nvalue = [2, 8]\nclass = benign", fillcolor="#399de5bf"] ;
5 -> 11 ;
12 [label="gini = 0.0\nsamples = 1\nvalue = [2, 0]\nclass = malignant", fillcolor="#e58139ff"] ;
11 -> 12 ;
13 [label="gini = 0.0\nsamples = 4\nvalue = [0, 8]\nclass = benign", fillcolor="#399de5ff"] ;
11 -> 13 ;
14 [label="mean concavity <= 0.03\ngini = 0.44\nsamples = 3\nvalue = [2, 1]\nclass = malignant", fillcolor="#e581397f"] ;
4 -> 14 ;
15 [label="gini = 0.0\nsamples = 2\nvalue = [2, 0]\nclass = malignant", fillcolor="#e58139ff"] ;
14 -> 15 ;
16 [label="gini = 0.0\nsamples = 1\nvalue = [0, 1]\nclass = benign", fillcolor="#399de5ff"] ;
14 -> 16 ;
17 [label="gini = 0.0\nsamples = 1\nvalue = [2, 0]\nclass = malignant", fillcolor="#e58139ff"] ;
3 -> 17 ;
18 [label="mean smoothness <= 0.09\ngini = 0.38\nsamples = 3\nvalue = [3, 1]\nclass = malignant", fillcolor="#e58139aa"] ;
2 -> 18 ;
19 [label="gini = 0.0\nsamples = 2\nvalue = [3, 0]\nclass = malignant", fillcolor="#e58139ff"] ;
18 -> 19 ;
20 [label="gini = 0.0\nsamples = 1\nvalue = [0, 1]\nclass = benign", fillcolor="#399de5ff"] ;
18 -> 20 ;
21 [label="mean compactness <= 0.16\ngini = 0.38\nsamples = 15\nvalue = [18, 6]\nclass = malignant", fillcolor="#e58139aa"] ;
1 -> 21 ;
22 [label="area error <= 19.06\ngini = 0.5\nsamples = 7\nvalue = [5, 5]\nclass = malignant", fillcolor="#e5813900"] ;
21 -> 22 ;
23 [label="gini = 0.0\nsamples = 2\nvalue = [0, 4]\nclass = benign", fillcolor="#399de5ff"] ;
22 -> 23 ;
24 [label="mean fractal dimension <= 0.06\ngini = 0.28\nsamples = 5\nvalue = [5, 1]\nclass = malignant", fillcolor="#e58139cc"] ;
22 -> 24 ;
25 [label="gini = 0.0\nsamples = 1\nvalue = [0, 1]\nclass = benign", fillcolor="#399de5ff"] ;
24 -> 25 ;
26 [label="gini = 0.0\nsamples = 4\nvalue = [5, 0]\nclass = malignant", fillcolor="#e58139ff"] ;
24 -> 26 ;
27 [label="mean fractal dimension <= 0.09\ngini = 0.13\nsamples = 8\nvalue = [13, 1]\nclass = malignant", fillcolor="#e58139eb"] ;
21 -> 27 ;
28 [label="gini = 0.0\nsamples = 7\nvalue = [13, 0]\nclass = malignant", fillcolor="#e58139ff"] ;
27 -> 28 ;
29 [label="gini = 0.0\nsamples = 1\nvalue = [0, 1]\nclass = benign", fillcolor="#399de5ff"] ;
27 -> 29 ;
30 [label="gini = 0.0\nsamples = 85\nvalue = [132, 0]\nclass = malignant", fillcolor="#e58139ff"] ;
0 -> 30 [labeldistance=2.5, labelangle=-45, headlabel="False"] ;
}