digraph Tree {
node [shape=box, style="filled, rounded", color="black", fontname=helvetica] ;
edge [fontname=helvetica] ;
0 [label="mean perimeter <= 102.2\ngini = 0.46\nsamples = 269\nvalue = [155, 271]\nclass = benign", fillcolor="#399de56d"] ;
1 [label="worst radius <= 15.41\ngini = 0.2\nsamples = 186\nvalue = [35, 268]\nclass = benign", fillcolor="#399de5de"] ;
0 -> 1 [labeldistance=2.5, labelangle=45, headlabel="True"] ;
2 [label="area error <= 45.18\ngini = 0.03\nsamples = 142\nvalue = [4, 235]\nclass = benign", fillcolor="#399de5fb"] ;
1 -> 2 ;
3 [label="worst perimeter <= 107.9\ngini = 0.03\nsamples = 140\nvalue = [3, 233]\nclass = benign", fillcolor="#399de5fc"] ;
2 -> 3 ;
4 [label="worst smoothness <= 0.18\ngini = 0.01\nsamples = 139\nvalue = [1, 233]\nclass = benign", fillcolor="#399de5fe"] ;
3 -> 4 ;
5 [label="gini = 0.0\nsamples = 137\nvalue = [0, 232]\nclass = benign", fillcolor="#399de5ff"] ;
4 -> 5 ;
6 [label="mean concave points <= 0.06\ngini = 0.5\nsamples = 2\nvalue = [1, 1]\nclass = malignant", fillcolor="#e5813900"] ;
4 -> 6 ;
7 [label="gini = 0.0\nsamples = 1\nvalue = [1, 0]\nclass = malignant", fillcolor="#e58139ff"] ;
6 -> 7 ;
8 [label="gini = 0.0\nsamples = 1\nvalue = [0, 1]\nclass = benign", fillcolor="#399de5ff"] ;
6 -> 8 ;
9 [label="gini = 0.0\nsamples = 1\nvalue = [2, 0]\nclass = malignant", fillcolor="#e58139ff"] ;
3 -> 9 ;
10 [label="worst texture <= 23.44\ngini = 0.44\nsamples = 2\nvalue = [1, 2]\nclass = benign", fillcolor="#399de57f"] ;
2 -> 10 ;
11 [label="gini = 0.0\nsamples = 1\nvalue = [1, 0]\nclass = malignant", fillcolor="#e58139ff"] ;
10 -> 11 ;
12 [label="gini = 0.0\nsamples = 1\nvalue = [0, 2]\nclass = benign", fillcolor="#399de5ff"] ;
10 -> 12 ;
13 [label="worst concave points <= 0.11\ngini = 0.5\nsamples = 44\nvalue = [31, 33]\nclass = benign", fillcolor="#399de50f"] ;
1 -> 13 ;
14 [label="gini = 0.0\nsamples = 18\nvalue = [0, 26]\nclass = benign", fillcolor="#399de5ff"] ;
13 -> 14 ;
15 [label="concavity error <= 0.02\ngini = 0.3\nsamples = 26\nvalue = [31, 7]\nclass = malignant", fillcolor="#e58139c5"] ;
13 -> 15 ;
16 [label="fractal dimension error <= 0.0\ngini = 0.38\nsamples = 2\nvalue = [1, 3]\nclass = benign", fillcolor="#399de5aa"] ;
15 -> 16 ;
17 [label="gini = 0.0\nsamples = 1\nvalue = [1, 0]\nclass = malignant", fillcolor="#e58139ff"] ;
16 -> 17 ;
18 [label="gini = 0.0\nsamples = 1\nvalue = [0, 3]\nclass = benign", fillcolor="#399de5ff"] ;
16 -> 18 ;
19 [label="worst texture <= 19.28\ngini = 0.21\nsamples = 24\nvalue = [30, 4]\nclass = malignant", fillcolor="#e58139dd"] ;
15 -> 19 ;
20 [label="gini = 0.0\nsamples = 2\nvalue = [0, 2]\nclass = benign", fillcolor="#399de5ff"] ;
19 -> 20 ;
21 [label="mean texture <= 24.84\ngini = 0.12\nsamples = 22\nvalue = [30, 2]\nclass = malignant", fillcolor="#e58139ee"] ;
19 -> 21 ;
22 [label="gini = 0.0\nsamples = 20\nvalue = [29, 0]\nclass = malignant", fillcolor="#e58139ff"] ;
21 -> 22 ;
23 [label="mean symmetry <= 0.19\ngini = 0.44\nsamples = 2\nvalue = [1, 2]\nclass = benign", fillcolor="#399de57f"] ;
21 -> 23 ;
24 [label="gini = 0.0\nsamples = 1\nvalue = [0, 2]\nclass = benign", fillcolor="#399de5ff"] ;
23 -> 24 ;
25 [label="gini = 0.0\nsamples = 1\nvalue = [1, 0]\nclass = malignant", fillcolor="#e58139ff"] ;
23 -> 25 ;
26 [label="mean smoothness <= 0.07\ngini = 0.05\nsamples = 83\nvalue = [120, 3]\nclass = malignant", fillcolor="#e58139f9"] ;
0 -> 26 [labeldistance=2.5, labelangle=-45, headlabel="False"] ;
27 [label="concavity error <= 0.05\ngini = 0.44\nsamples = 2\nvalue = [1, 2]\nclass = benign", fillcolor="#399de57f"] ;
26 -> 27 ;
28 [label="gini = 0.0\nsamples = 1\nvalue = [0, 2]\nclass = benign", fillcolor="#399de5ff"] ;
27 -> 28 ;
29 [label="gini = 0.0\nsamples = 1\nvalue = [1, 0]\nclass = malignant", fillcolor="#e58139ff"] ;
27 -> 29 ;
30 [label="worst perimeter <= 116.45\ngini = 0.02\nsamples = 81\nvalue = [119, 1]\nclass = malignant", fillcolor="#e58139fd"] ;
26 -> 30 ;
31 [label="radius error <= 0.28\ngini = 0.5\nsamples = 2\nvalue = [1, 1]\nclass = malignant", fillcolor="#e5813900"] ;
30 -> 31 ;
32 [label="gini = 0.0\nsamples = 1\nvalue = [0, 1]\nclass = benign", fillcolor="#399de5ff"] ;
31 -> 32 ;
33 [label="gini = 0.0\nsamples = 1\nvalue = [1, 0]\nclass = malignant", fillcolor="#e58139ff"] ;
31 -> 33 ;
34 [label="gini = 0.0\nsamples = 79\nvalue = [118, 0]\nclass = malignant", fillcolor="#e58139ff"] ;
30 -> 34 ;
}